{
    "layers": [
        2,
        32,
        64,
        32,
        1
    ],
    "model_weights": [
        -1.1563355725152147,
        -0.8634316594177138,
        0.07990720463120185,
        1.2717109027805547,
        0.9597678420864088,
        1.0973747804985894,
        -0.3413992918548825,
        -2.2555164443108597,
        -0.21599458586673173,
        0.8659008634379309,
        1.087665416131456,
        0.534097716149766,
        0.493780946370617,
        -1.5420598458911594,
        0.46060649233429823,
        1.7917676844813246,
        -2.337117603308732,
        -0.23926652649076394,
        0.75537281077581,
        -0.3300952785191854,
        1.021635396087238,
        -0.8319224686852614,
        -0.3534513945738834,
        1.965122010274739,
        -0.7145666585675843,
        -1.9036819404142173,
        2.2793677913709414,
        -0.7479378895815798,
        -1.0532539664505032,
        0.6150679720203122,
        2.644421406214152,
        -0.769753477448973,
        0.10133713223537189,
        1.5378256134748118,
        1.5201198344431754,
        -0.2688345740586445,
        -0.18496140342400297,
        -0.1136211534242207,
        1.0957351466078995,
        -0.7662992308435407,
        -2.0944600064819747,
        0.028161166717103364,
        0.08251064453909676,
        0.07411584048146817,
        -0.15010739277764382,
        -0.3187130446684088,
        0.1067544339806546,
        -0.29769716569689225,
        0.542464181666183,
        -1.3984320478720214,
        0.46804356818198056,
        2.2278695852505,
        0.056064096078294684,
        -0.05637250151913339,
        1.5787446229237434,
        -0.2472324148456892,
        2.7765491793491335,
        -0.3315534012567259,
        -0.40900407973188374,
        0.06923393562973282,
        0.13775926511288172,
        0.3212897916185166,
        0.20901319542196467,
        0.04352092141815554,
        -0.16606051478202377,
        0.3441948672153972,
        0.19257829556065997,
        -0.41233165592621057,
        0.10069645092892927,
        0.044952524705561485,
        -0.09662153150799181,
        1.9008216861555167,
        0.14382084435158804,
        0.1529810742435256,
        -0.5579205749659017,
        0.738956116001427,
        -0.08515748871373241,
        1.1767101369716357,
        -0.6260390188464143,
        -0.4026588942418019,
        0.6846952386285912,
        -0.04357945193274836,
        -0.6416550562462349,
        -0.2963209025238699,
        -0.5469895377364651,
        0.9131924707006789,
        0.11130454538691634,
        -0.516419953333377,
        -0.36364577167915774,
        1.076972499990416,
        -0.5901750693992649,
        0.5016374044992897,
        0.11223796711498608,
        0.21274727122155548,
        -1.4025270151028026,
        1.0641237499330516,
        0.40962828584386557,
        0.8616119420866578,
        -0.1392320840785238,
        -0.6426935326408101,
        -0.292070041447088,
        -0.7783767851038406,
        -0.05991786819389151,
        0.0938097265525194,
        -0.2378491211923689,
        0.05274792688201535,
        0.12021817103198602,
        0.06227148897411128,
        -0.06534480693162861,
        -0.0020222497791967022,
        -0.8746278453458068,
        -0.1542837922085559,
        -1.016572189109551,
        -0.05720085773111745,
        -0.036193338383441555,
        0.5420256532991765,
        -0.920811366836954,
        -1.088648351051021,
        -0.3079516357289991,
        -0.7190458779670884,
        0.2735784136376198,
        0.062076753102417954,
        -0.07645936350851543,
        0.21118433959569377,
        0.2612834015043562,
        0.10120513516030512,
        0.19248264769138707,
        -0.09682105593888077,
        -0.15771648138629218,
        0.13914979036640607,
        -0.1748096555988058,
        0.1654460862067674,
        0.13845129400785955,
        -0.026065829708476214,
        0.1784191423014195,
        0.10657612142856575,
        -0.11946087655264409,
        -0.2348299615337926,
        0.5934542208408622,
        -0.04138662917662805,
        0.1504148546717574,
        -0.17695052048756232,
        0.3509226738643957,
        0.39008579905205315,
        0.05915215390007967,
        0.12833678558644146,
        0.06707134012738133,
        -0.018746625841444903,
        -0.44002095632189886,
        0.28477174101422487,
        -0.16072359292760002,
        -0.11939805407507932,
        0.021894086478731378,
        0.40791291470710955,
        1.201364613225823,
        0.09290429249862288,
        0.06501019018883678,
        -0.053387260801416835,
        0.3845570437040312,
        0.01713108603512155,
        0.3757548775289605,
        0.522727393351352,
        -0.42931809501161794,
        -0.3639889173129842,
        -0.05546000345785583,
        -0.8168278903125965,
        -0.028655715011045666,
        0.31976571420472305,
        -0.17704009894467906,
        -0.026279647232698967,
        0.010620599615910041,
        -0.37765274322399395,
        0.20790194538183257,
        0.10923729503011059,
        -1.1304353378936152,
        -0.33795613690695286,
        -0.5342861588279549,
        -0.23429446934524034,
        -0.021492730659940642,
        -0.07063354760515998,
        -0.478477420964545,
        -1.2055453701744046,
        -0.01579402736354839,
        -0.6125882336670356,
        0.4624210462943346,
        0.17124513155426246,
        0.031388070157965534,
        -0.08349505576196876,
        -0.13397062862375672,
        -0.2360182819093211,
        0.2671407504774238,
        0.2745556273677794,
        0.2704269378901215,
        -0.0787249095718419,
        -0.03423943232749826,
        0.16220628892736189,
        -0.04135059223733553,
        0.31878265228582103,
        -0.3437015033735306,
        -0.10594088257988585,
        -0.017579872229885368,
        0.4736024025646767,
        0.14721152147759542,
        0.1752741816099069,
        0.25878554514123675,
        0.220578742625382,
        0.04501589520222826,
        0.3644616971872094,
        -0.04157812927257163,
        -0.11187885462959413,
        -0.01877202088947722,
        0.009478598967591026,
        -0.2565444737156604,
        0.013014837102467805,
        -0.18584925388062068,
        -0.25333633023241886,
        0.42148181194550366,
        0.20433495200553828,
        0.6699271941884124,
        -0.1796617175373943,
        -0.7830313317888986,
        -0.06626384510804205,
        0.1478050699550444,
        -0.19507293170133277,
        0.20318530461030715,
        0.38851546421775796,
        -0.2280473889129656,
        -0.24642943694643515,
        -0.14835516798189377,
        -0.34830552765725126,
        0.05972811130401244,
        -0.06763557349107738,
        0.1277711751633772,
        0.2487389172549487,
        -0.04975809998079695,
        -0.11031784698286048,
        0.3113791070154298,
        -0.1188858758704909,
        -0.22594110930274702,
        0.15363425753292348,
        -0.25366617978099804,
        0.07317676291883113,
        0.09769391973454024,
        -0.03332071709474891,
        -0.2761991177871248,
        -0.7403101136281198,
        0.4071907219640555,
        0.3193114807307271,
        0.10216917462393935,
        -0.4161041155654314,
        0.22516308572901458,
        -0.10919426811971213,
        -0.14675246296696065,
        -0.17924270346238677,
        0.0859488287931429,
        0.3908531287981983,
        0.3396829397560345,
        -0.6143575457547683,
        0.0957413161468139,
        -0.07658769126571204,
        -0.034251988830447284,
        0.2698148109727352,
        -0.11877553379337852,
        0.17404967210734,
        -0.10866370563191693,
        0.30207547368359555,
        0.048146043201465934,
        0.8750911629434718,
        -0.29951757039036453,
        0.46680186621870773,
        0.013144452352400672,
        -0.0025052600394754056,
        -0.07995738348157078,
        -0.15444674536973302,
        -0.04986445124073472,
        0.16567669572460691,
        -0.08119485608911331,
        0.01770604778360175,
        0.24190152830023806,
        0.010002833085343128,
        0.2324602930462633,
        -0.02314168302904266,
        0.399750972271867,
        -0.1848337430526641,
        0.3262925800129438,
        -0.042610374174527656,
        -0.3238519680092432,
        -0.5012335748313401,
        -0.018912017179941943,
        -0.7924426473449837,
        -0.47200026570599746,
        0.6803598779821434,
        0.009703453326691145,
        0.6344428612841004,
        0.19461411759519942,
        -0.11865166064726461,
        0.09929882244053428,
        0.11475078706390282,
        0.06869052658646091,
        -0.09401167299881154,
        0.3611621276382461,
        -0.00913366065188839,
        0.7034473769717685,
        -0.049494120508585926,
        0.27899846322626376,
        0.23065089791031004,
        0.2529204968939584,
        0.08794148156168356,
        0.5102421207162345,
        0.6638089740666793,
        0.29948257973135733,
        0.5728146936774112,
        -0.4441732703894879,
        -0.011438003861299461,
        0.11983770734978441,
        -0.08657200535694601,
        0.1747570560967683,
        -0.48708900894184565,
        0.2821287017438342,
        0.46955323497584484,
        0.4182020375515195,
        -0.21839444989577322,
        0.16523259394060014,
        0.06312598501710921,
        -0.10523100889948662,
        -0.05813953502206559,
        -0.5859600638919248,
        0.19230278588899638,
        -0.09728842480752507,
        0.6510121288982944,
        -0.4967442108611105,
        1.3059593612659455,
        0.05605458305442716,
        0.21809223695982724,
        0.08203401263233011,
        -0.4221734362658944,
        0.5022289572924278,
        -0.37964706841772067,
        0.10855832470329811,
        0.2426477436357379,
        0.2422654166920028,
        -0.028556137653662907,
        0.13687435843969328,
        0.23257142759169805,
        0.34141457839301076,
        -0.04047666808247741,
        -1.5337450838897226,
        -0.7089042261128484,
        -0.41236755229177247,
        0.014913593126850823,
        -0.6017097141679395,
        0.04651305501937219,
        -0.17826975284197888,
        -0.35639859073455465,
        -0.053665159276539386,
        0.4925891533649624,
        0.04343598674459971,
        0.6147758905040732,
        0.1484161660614312,
        0.08052633247118873,
        0.1944967872105092,
        0.14089436078767897,
        0.1960246574415397,
        -0.064368343045798,
        -0.344729175416724,
        -0.10348231581593804,
        0.42723218583501843,
        -0.03874965414258977,
        0.42317403418374355,
        0.06088252819279958,
        0.11452742734606702,
        -0.3223922069254461,
        0.13878475138984375,
        0.5155660224296447,
        0.35097755613696424,
        0.5867682521631575,
        -0.4342879331962681,
        0.03511017042305564,
        0.35487870011185535,
        -0.05936066223467502,
        -0.046601321891409385,
        0.4258768155881273,
        0.10064426279999537,
        0.22091595132395364,
        -0.15191473136129935,
        -0.3312756361555259,
        -0.22327166688690414,
        0.005308759097613922,
        -0.09145836313490051,
        0.07127197024085737,
        -0.10566572147340982,
        0.1375372553425508,
        -0.10787765513981,
        0.13765044139928048,
        0.014832895768503745,
        -0.04521661857001041,
        -0.24315616761761133,
        0.0016225532288116193,
        -0.07906029564587028,
        -0.1352772141966219,
        0.050370628824284426,
        -0.14664197217257494,
        0.10321243385706046,
        0.10127031960037514,
        0.15389049495741086,
        0.01168804460583311,
        0.05079571209600379,
        0.0555436541471875,
        0.0025458117184205737,
        0.1496975492392512,
        -0.9349728552735875,
        0.19974989628176607,
        -0.29320402771284004,
        0.04099470981739252,
        -0.18884626418744083,
        0.23580853800610355,
        -0.22929880455791057,
        -1.3026599573900177,
        -0.10660747018531255,
        0.4741087638540833,
        0.1630592894300856,
        0.9041587990059904,
        0.10612411419458906,
        -0.0015883971989752636,
        0.3782333363042656,
        -0.04909434661642298,
        -0.054211474544001916,
        0.1393633879185621,
        0.06808619314881913,
        0.18656083353949163,
        1.20269357161598,
        0.031211674929163755,
        0.720112657265134,
        0.1648364510091884,
        0.08751976709867809,
        -0.2291966177574807,
        0.8862014141004819,
        1.2337853625286916,
        0.3356814089090243,
        0.5671645637316111,
        -0.3486795656032906,
        0.2034117609012331,
        0.00027660048286902986,
        -0.13153729780447165,
        0.20222141597400992,
        0.1518868219891862,
        -0.06403114374995351,
        -0.4248142776246207,
        -0.23622705902576105,
        0.11446691311648362,
        -0.2024055105691537,
        -0.10439215987110022,
        0.24714781251816653,
        0.1016916252787424,
        0.033068232377194196,
        -0.025489397904856503,
        -0.1549718069247118,
        -0.5380617606642907,
        -0.0455634018121627,
        -0.16458534841400477,
        -0.07469061286323103,
        -0.1411696440787902,
        -0.3464991363140715,
        -0.17216350276434209,
        -0.3976688396232411,
        0.12964436527231502,
        -0.024493234094234203,
        0.20567205231590954,
        0.205349493925964,
        -0.16741110343160387,
        0.059637412961103274,
        0.226245031592179,
        -0.2169023833557985,
        0.03499029870665186,
        -1.1675009210402758,
        0.11102816867100183,
        0.1632698935438947,
        0.01599760893636017,
        0.020167426159124327,
        -0.07577223970148907,
        0.23312315397188757,
        0.004217400993052227,
        -0.38646923445110415,
        -0.7561758502266372,
        -0.17290869748237836,
        -0.05774551288737324,
        -0.1026584893591763,
        0.22449303499524817,
        -0.1626079068728108,
        0.07977987937669118,
        -0.16287063530997564,
        -0.10141914267856865,
        0.6842270240841082,
        -0.12857762422792776,
        -0.8913107032100589,
        0.10285726319873663,
        -0.5379238583388501,
        0.017220956396913092,
        0.17352930847460135,
        -0.07628338271786421,
        -0.17278364117983905,
        -0.6717231987722202,
        -0.06672256310426401,
        -0.33631541448081753,
        0.35469150502827446,
        -0.3587299197202233,
        0.4406428594270568,
        0.010996589116531865,
        0.060281030609224046,
        -0.2859182141235504,
        -0.007870493897412977,
        0.22910292901522453,
        0.27980018863573536,
        -0.09391270481022142,
        0.06415387818730098,
        -0.1997803222682032,
        -0.318734112903989,
        0.15601046096716947,
        -0.8238309427940734,
        0.24274628143592625,
        -0.16976825840667353,
        0.6490553284078243,
        -0.03770914132948285,
        0.5538638676402571,
        0.370317055975525,
        0.11402881833952973,
        0.06611611047455346,
        0.5723293370916549,
        0.1285633790216868,
        -0.4442049301702094,
        0.2415782659198721,
        0.1993447354835649,
        -0.10930562139585967,
        0.10699026076413394,
        0.1081607117707343,
        -0.41925906214499553,
        0.43027867742999404,
        0.10681273249617595,
        0.089609960211064,
        -0.17724112932914388,
        -0.2733509119582246,
        -0.2619011614768111,
        -0.12590949301002743,
        -0.017135501279046273,
        0.5135996501093325,
        1.1236732343251608,
        1.5132419938456798,
        -0.9854982209433207,
        0.2288587905800767,
        -0.04908743883444991,
        0.29189600603368365,
        -1.0580576679077325,
        -0.10389762080677525,
        -0.5661897550821176,
        0.07661384924716189,
        0.020633975501771706,
        -1.0275276578407595,
        0.07644010174182438,
        -0.5431772952472739,
        0.3807313159517876,
        -0.364021726096846,
        -0.07022537174683179,
        -0.48384950792830117,
        -0.028930059550452015,
        -0.24344811949570064,
        -0.4047970443499799,
        0.35709184525992826,
        0.31397950244167555,
        0.22129236104283617,
        0.18886988930123325,
        -0.1696070863355474,
        -0.1786156091400164,
        -0.4082867654296901,
        1.3132426789662217,
        -0.08633981097401926,
        -0.40878330984119216,
        -2.0629500749763556,
        0.3188818939137947,
        -0.5841600881112056,
        -0.005901736508214544,
        0.7921077488026917,
        -0.2998187721453466,
        1.080596225119528,
        -0.7559246502754996,
        0.8843686842330529,
        -1.5580030411163883,
        0.08867987268968355,
        -1.8183532844136803,
        -0.4801239433710012,
        -0.37771322845143024,
        -0.1939494209656829,
        0.015064888317561257,
        -0.6878072702169058,
        0.3708016197525844,
        -0.2082995000457058,
        -0.21644265785214453,
        0.015762514694888752,
        -0.0814827482229111,
        0.28693836043673376,
        -0.5117905491941714,
        -0.8721966015096604,
        -0.06977843501000972,
        2.0181500250536244,
        1.3781392929453782,
        0.9458679132328388,
        -0.09634821359389936,
        1.2132773847732163,
        0.27297349600642495,
        -0.4201662114210412,
        -0.45863736284820117,
        0.9054485269013053,
        0.20380834427425124,
        0.0748311692519976,
        0.49595366870823754,
        -0.004239941714220827,
        -0.24275047418704188,
        0.06485144869371358,
        0.007477008845430761,
        -0.009886878512902396,
        0.225548418489475,
        -0.707894950587759,
        0.20222191111308946,
        0.4470740305748752,
        0.2849224097389805,
        0.3225768722650698,
        0.0459677524540677,
        -0.5099783582801388,
        0.3106227960733806,
        0.1555690213205308,
        0.7864283454251451,
        -0.14691353046871902,
        0.06397295977327828,
        0.11258025325858721,
        0.33569248011137953,
        -0.19367027662398817,
        0.07998419614846371,
        -0.32387082396334577,
        0.734024012632062,
        -0.45600758340183434,
        -0.041689756443606056,
        -0.6480599813234622,
        -0.018150323947997732,
        -0.10636725118036836,
        -0.17828397333533463,
        0.68663710393085,
        -0.2709546263741099,
        0.441201184670771,
        -0.3917582205033109,
        0.4351419795207234,
        -0.22730782387194537,
        -0.025796892098886238,
        -0.6305516811697313,
        0.013454545613117708,
        -0.41664090708040186,
        -0.18568710148809067,
        0.016635852526931127,
        0.12381633694366564,
        0.2404324870779493,
        -0.17887516990944763,
        -0.008098952966104604,
        0.42958468285221885,
        -0.12882311152679654,
        0.07751550004057392,
        0.11075530739532172,
        -0.26265396193954715,
        -0.01761056673288236,
        -0.20973175732583677,
        0.545569485432296,
        -0.162667763138583,
        -0.031208720980940793,
        0.40442410215459423,
        0.26118144338396687,
        -0.39297895411582845,
        -1.4707874917566717,
        0.173552695254738,
        0.815170978400195,
        -0.03726082359752116,
        0.6276719968381146,
        -0.12384185532763546,
        -0.10689150247166837,
        0.35968572159519874,
        0.06036546278979702,
        -0.17462384433272812,
        -0.15761510953896588,
        -0.046833962574867216,
        0.02193362440412494,
        1.3693645645239576,
        -0.02124270864678541,
        0.5525397602072958,
        0.22654956761875839,
        -0.3824989908889682,
        -0.14249877623965349,
        0.7456174874865195,
        1.1009709668716068,
        0.3717435582363067,
        0.47707784105010365,
        -0.22365038296452627,
        0.12303877348572043,
        0.1571672161502055,
        -0.0012499998377811165,
        -0.2596401304700389,
        0.19765347603391967,
        -0.1003204163885414,
        -0.4799578851009163,
        -0.013545994558258456,
        0.2617194311515349,
        -0.32603222891812356,
        -0.10490722638960931,
        0.13243166784688212,
        0.012279674753234023,
        0.2807966902904344,
        -0.00853498295726972,
        -0.002330146105371827,
        -0.5283121478696028,
        -0.2810937938930471,
        -0.3589569862994135,
        -0.042062569496650715,
        -0.18687184854115999,
        -0.14557534896539023,
        -0.04746602272759324,
        -0.15554912468014953,
        0.2638558621292186,
        0.04659224682547229,
        0.013543743576236555,
        0.3017009993674677,
        0.038649827565979,
        0.19217139338021122,
        0.03559154241031834,
        0.07916330899988366,
        -0.2333021637287624,
        -0.7054895851239199,
        0.1677703327176543,
        0.8136792383173648,
        0.1293051807960674,
        0.0366346384852724,
        0.09840803262508552,
        0.33459613756541334,
        -0.5979342236583279,
        -1.1404912391711604,
        0.42473379153134083,
        0.08324065913731812,
        0.12362185149177053,
        0.012546495504539427,
        0.7330857523297725,
        0.06370609427611167,
        -0.1681326423135249,
        0.24240208973497296,
        -0.366331757091893,
        0.4497751756252585,
        -0.10966500628862114,
        0.8147299901376697,
        -0.368974672746661,
        0.09106451826038311,
        0.3119413399595872,
        0.388892214190317,
        0.12884353022874812,
        0.6874240419108215,
        0.538852254580347,
        -0.27594596045257075,
        -0.025612753887216434,
        -0.24343606632340056,
        -0.3177446011026704,
        0.2624367131924087,
        0.3294783521308654,
        0.4517616688983549,
        -1.0340866024006425,
        0.28763565235079963,
        0.5002053517445234,
        2.7211777981673415,
        0.005553881594772861,
        0.5599592897044133,
        0.5879582577585731,
        -0.6910756939496872,
        0.6423490609757159,
        -0.6663274281184554,
        0.8152954146610525,
        -0.8408684579518247,
        1.5594188680140724,
        0.5067071253357176,
        1.402984868117947,
        0.48103206008434696,
        0.9024592939554267,
        0.4229105172468049,
        -0.23320751288101957,
        0.4317815411473852,
        -0.4261450936134039,
        -0.08209982061785698,
        0.5861567870029302,
        0.031016650330024622,
        0.2688402816302184,
        -0.785580031724721,
        0.5698753074276605,
        0.6233568777144874,
        -0.2292170127586607,
        -1.4482349078406038,
        -2.020591522339175,
        -0.2820128549327663,
        0.3749678163665392,
        -0.8664614267589591,
        0.2330434878593329,
        -0.0023844217314572917,
        0.03897203977311086,
        0.02662149795874451,
        0.2896873779116193,
        -0.32517050148591314,
        0.23023095901884288,
        0.1665045158508874,
        -0.5173030743584928,
        0.28575517538437795,
        0.18933713186886283,
        0.06778220405370411,
        0.016861995717086947,
        -0.2846739931550936,
        0.0005643331097444177,
        0.16478807652349103,
        0.16418380492771004,
        0.15073588287748438,
        -0.16267932405174992,
        -0.23468315508895946,
        -0.4457110847782873,
        0.10134642687759615,
        0.07819475041706621,
        0.35235828725617446,
        0.6622993196201762,
        -0.04127584588200634,
        0.2901233669968395,
        0.2354613853533912,
        -0.02595597184640363,
        -0.1208580570894178,
        0.13822917091743384,
        0.06670897310452628,
        -0.11635547729894505,
        -0.02568912043921706,
        -0.19805221463114556,
        -0.21025733595828147,
        -0.1676330247709433,
        0.37509903734540206,
        0.11398335469021702,
        0.2070892256896778,
        -0.10620343055907763,
        0.3962075430753293,
        0.003927616031923422,
        -0.4069518402627628,
        0.02715635458440622,
        -0.18663764220194387,
        0.0658372813055091,
        -0.14676953567602866,
        0.057971846199771235,
        -0.5056078884931466,
        0.15992264165803474,
        -0.39786294689166074,
        -0.0036707363301862594,
        0.09112212679551031,
        -0.004313754157684148,
        0.2327594906363388,
        -0.017809598994669253,
        -0.14638509982284054,
        0.024239640883487297,
        -0.12262545864730375,
        0.3458076768834278,
        0.2079115686447875,
        -0.04577308949090672,
        0.11268408993855135,
        -0.3516194477091594,
        -0.13114334369997835,
        -0.3498089664903472,
        0.06704188024373602,
        0.49587540094562294,
        0.09021382512685053,
        0.5164891195058816,
        -0.007566934796131658,
        -0.19286517954221435,
        0.2123675439357659,
        -0.013164291674690623,
        -0.24873192914053194,
        -0.0027421985808189463,
        0.14091672225227408,
        0.1221920721131085,
        0.6503391118923103,
        -0.10638058286695226,
        0.16489481827050192,
        0.2248315833040383,
        0.01911431758686043,
        0.04365419871760709,
        -0.13306844706976412,
        1.1211153378687713,
        -0.12219477901174167,
        -0.11408367121902879,
        -0.22734713026638176,
        0.8137327575113301,
        0.022116051545125723,
        0.14621110941859095,
        -0.022696523200550517,
        -0.10713813400557604,
        -0.3836827744486097,
        -0.22962374843735997,
        -0.18084998663117358,
        0.7288855530864912,
        0.33902132354259723,
        -0.04549339488005006,
        -0.0608742462718932,
        -0.1356534102282617,
        -0.30923903434235267,
        0.20251997708859162,
        -0.43159524085569867,
        0.0357699356034673,
        -0.04319754373516644,
        -0.15060037690116376,
        0.22499027151620263,
        -0.4051109610333579,
        0.07742270755540186,
        -0.044905104251288123,
        0.12817119906338334,
        0.11357267355235917,
        -0.018364984248757123,
        -0.044568636334252024,
        -0.09596342256241104,
        -0.2580922619531968,
        -0.2931057567344329,
        0.11177557144202253,
        0.03580591571882108,
        -0.19850331668002674,
        -0.7584914984989721,
        0.11600056579256834,
        0.11861142017186095,
        -0.11953812689427001,
        0.08976043609840852,
        0.2796862883027852,
        0.33928937777528545,
        0.7012817238539677,
        0.6487055237698234,
        -0.7869958109703193,
        0.2507295902482251,
        -0.3551698821526736,
        -0.0990267854763627,
        -0.24076385225943114,
        0.22772314975032873,
        -0.09764907907537691,
        -0.2852733497483998,
        0.4748652239772473,
        -0.857039502940693,
        0.05013378209960489,
        -0.7768327319495723,
        0.20665165805597327,
        -0.40578800006056015,
        0.06002822841319251,
        -0.2687111680053208,
        -0.2743285841738021,
        -0.30696131857912573,
        -0.34919249921788004,
        0.041783463923539724,
        -0.11762962868668586,
        0.4560968358455612,
        1.047102072001452,
        0.0842444042610266,
        -0.14551409145615077,
        -0.18054990928706,
        0.5298646488391279,
        -0.32544604486136147,
        -0.6833011223533012,
        -0.8721511292002536,
        0.7414297933212528,
        -0.08787625723362297,
        -0.19665291993045292,
        0.8069674617889487,
        -0.06457214879093548,
        0.9817780377810476,
        -0.4799714139729094,
        0.22509031388807954,
        -0.5454822818105393,
        0.25056926483543623,
        -1.6194216766868876,
        -0.12104768445032339,
        -0.7695057285232731,
        -0.2086275034449015,
        -0.0936547279700424,
        -0.44221426818339343,
        0.33340573509923815,
        -0.11522801262225202,
        -0.1296296944142002,
        0.11690696420081047,
        0.1393044740714284,
        0.3305084718159477,
        -0.15752228724111958,
        -0.9127270191068763,
        -0.13879611228278388,
        2.9280150067456585,
        0.7492687511820965,
        0.286761471641328,
        -0.037339648298853424,
        0.4701761326857332,
        -0.14132276416889766,
        -0.12375781379626728,
        -0.10029932649353669,
        -0.5744339207832754,
        0.3744166118626687,
        -0.11436592928353023,
        -0.13770652920430737,
        -0.06887269918264062,
        0.47486537487926744,
        -0.05283911382621979,
        0.05164666777394576,
        -0.10802684298678374,
        -0.20444990374543004,
        0.46471555827570454,
        0.07362450205071937,
        0.12412018518447517,
        0.09331722124541464,
        -0.14302500011588104,
        0.14114370328829887,
        0.17149480950533477,
        0.3500366812121387,
        0.20221003643395932,
        -0.009149155034844642,
        -0.21485431318999548,
        -0.5373144593995234,
        0.1810903486610959,
        -0.12092422833694126,
        0.057000026784684146,
        0.22740036411509487,
        0.3819050835685885,
        -0.48555881715894633,
        0.38434761516880583,
        0.5016100723154654,
        1.3954771576693314,
        0.25476861700711867,
        0.3077823474356305,
        0.17942963040748128,
        -0.5004948821579811,
        0.03230753171570063,
        -0.5990310121390474,
        0.4079045169443729,
        -0.29134711806214436,
        0.6893879470764944,
        0.12431651041795609,
        0.9263084842858331,
        0.4188211842069993,
        0.3164191990955117,
        0.47082427192341164,
        0.12342987692993634,
        0.4919971918736564,
        -0.057985382354907744,
        0.04157540390570932,
        0.015800244756815532,
        -0.0839671854221275,
        0.15527154089862616,
        -0.4049002090986661,
        0.03823375593776214,
        0.34860935299346557,
        -0.08148962833795131,
        -0.63976187740533,
        -1.1340577271104315,
        -0.01178913688782841,
        0.21512383708205196,
        -0.3491335981755777,
        -0.13415074153793644,
        -0.42677495199689985,
        -1.6964803310374468,
        -0.3901437831665401,
        0.8371938097322448,
        -0.13869983575752526,
        1.3640082081609626,
        0.007876690451185199,
        0.20547483412889653,
        -0.037197892336474955,
        -0.1835256884391042,
        -0.1265963083405414,
        0.041540150190366505,
        0.4997984005056828,
        0.08875595980369907,
        1.2776485638676964,
        -0.1420146202032578,
        0.9349772094193052,
        0.275971997594884,
        0.14698338376057948,
        0.1150602482303943,
        1.1071956400257805,
        1.4980497477703556,
        0.2528337478272657,
        0.7439584383972471,
        -0.3669551773615208,
        -0.057578085639788605,
        0.08346387993832645,
        0.09021553420679167,
        0.008514723072100985,
        -0.20231206794027548,
        -0.02196693660585711,
        0.17545742503766565,
        0.7386310909075381,
        -0.1468762947397449,
        0.10894784890377172,
        -0.002094526301238337,
        -0.13431854879553842,
        0.13074463260596378,
        -0.4873151903246154,
        0.43936514927218623,
        -0.04576201606247999,
        0.469029897660671,
        -0.20954086487179488,
        0.31972800726155054,
        0.29672164411898316,
        0.03647443649521598,
        0.05085842755359141,
        -0.2669244821089209,
        0.033484037029815596,
        -0.16223507433830914,
        -0.30494036334776975,
        0.16862552676657666,
        0.528238994315957,
        0.15624421505116798,
        0.04118588891090571,
        0.2511104490189239,
        0.17919507241851307,
        -0.15080836078685678,
        -1.854417763039832,
        -0.36481152306347386,
        0.058671541430380586,
        0.05348341903506097,
        -0.4840971207676062,
        -0.1466082262820109,
        0.30105453337588345,
        1.4123215951144565,
        0.3210891245674267,
        -0.9114936839849115,
        -0.001677816780430899,
        -1.5449412232375883,
        -0.09558096919051641,
        -0.07191501844072802,
        -0.1294629406726445,
        0.05989268078415733,
        0.013674495892406288,
        -0.11102793724673814,
        -0.24241836176313097,
        0.14735736818290632,
        -1.1637828854357846,
        -0.09977315454058659,
        -0.9372140701504117,
        -0.10935379085749378,
        0.12604202612429566,
        0.15590735873863998,
        -1.308910160015121,
        -1.5942495665724712,
        -0.37693869283387704,
        -0.9267060483398378,
        0.4227167778774418,
        0.010751859449130357,
        0.23883301095181683,
        -0.2780973899161752,
        0.1204736063364936,
        0.4390224815115705,
        -0.05359448801707242,
        -0.30776834500832195,
        -0.7171644544117367,
        0.1040545203280729,
        0.01356175517375867,
        -0.1452711845966464,
        0.08303234244250442,
        -0.006877656974316698,
        0.5460173328102899,
        -0.447365639630021,
        0.30905992944085203,
        -0.2083528781354565,
        0.5166225605493059,
        0.002429288332900426,
        -0.06908616688523786,
        -0.007723187834196901,
        -0.13211513645740405,
        0.2806699760031673,
        -0.14728065206843283,
        0.18085236488210907,
        0.25516839151801235,
        0.10445294200214701,
        -0.4053565055676647,
        -0.05435384102384638,
        -0.11264987514114898,
        -0.30238514876319483,
        -0.5212617331016859,
        -0.10020921402867727,
        1.939304031146562,
        0.6342542144037103,
        0.2648599154437761,
        -0.14312918575690867,
        0.22306151958671278,
        0.13601051496071584,
        -0.3925994929144628,
        -0.16948507637048374,
        0.16660015783662008,
        0.16401900447757523,
        0.3045621584155541,
        0.2792501549912159,
        0.0836799334026271,
        -0.19716150510963765,
        -0.055944797478642304,
        -0.06226989102824856,
        -0.16302290855887,
        0.21736940841680938,
        -0.5103023971548291,
        0.027577931059257422,
        0.29835599053760026,
        0.14148051733193923,
        0.43798959580623964,
        0.10605992088734827,
        -0.16758349199976522,
        0.02233660331131411,
        0.2097941694506229,
        0.7049843147353754,
        -0.5217451250237548,
        -0.19022695363125033,
        0.07364836813770591,
        0.7827948758427877,
        -0.14729992730358765,
        -0.12217080598513254,
        0.00030624812617881193,
        0.18365744037602552,
        -0.4149615830850648,
        0.05571462917232487,
        -0.6745469413727507,
        1.0735922229567774,
        -0.0786275012654002,
        -0.08076586006017093,
        0.561642998945352,
        -0.09638510250163441,
        0.49403281021622203,
        -0.4125132400599352,
        0.3893495040289631,
        -0.4710815666828685,
        -0.17820995105696602,
        -0.8599758235345311,
        0.25665909143101523,
        -0.21628986999622823,
        -0.11214321026864668,
        -0.14262975671277714,
        -0.2832941940595811,
        0.03493374922173864,
        0.21971435577494836,
        0.02071137029512194,
        0.3204122173725606,
        -0.14154440102449173,
        -0.2574668366715985,
        -0.12060080800719011,
        -0.3748374798305788,
        -0.03189260856669009,
        -0.14174171805034605,
        0.18838196028256457,
        -0.04317522998966608,
        -0.028589369674634053,
        0.25294110549220095,
        0.08536828144426457,
        -0.08676382541642415,
        0.18160111036711774,
        -0.6661778674888197,
        0.2446335533106844,
        -0.038301365910284414,
        0.07422021670363732,
        -0.02015857398045536,
        0.42734460188686807,
        0.07131570090311866,
        -0.13868379185710195,
        -0.15738647212195694,
        0.048810689157371086,
        0.861232127157932,
        -0.20542076323826378,
        -0.4756926915152357,
        -0.13871674912703846,
        -0.22222319132162885,
        -0.09797199517669256,
        0.30370785826156443,
        0.25384348194691564,
        -0.04178447735961224,
        -0.8951451961844041,
        -0.041401175958929726,
        -0.3730810664527733,
        0.05712443994015774,
        -0.4891133194943582,
        -0.2743086398604199,
        0.0539445989195325,
        0.37262061472319186,
        -0.6722731460233605,
        0.3044984693930928,
        0.26693258852162455,
        0.9373339548134373,
        0.10598467976922502,
        0.9238749887364012,
        0.20927906068683155,
        -0.6461942064411843,
        0.24107014176913594,
        -0.8986663541909342,
        0.8140651981604332,
        -0.8305670627731406,
        1.1479844154673489,
        0.25516780490912055,
        1.0454928114036544,
        0.32347137116390584,
        0.6987074620265682,
        0.24297932008327014,
        0.18185920048786847,
        0.2976497500878491,
        -0.31818622244295774,
        0.1526638432202258,
        0.3185231429758192,
        -0.0864211222871224,
        0.017162801823116625,
        -0.16105231415834745,
        -0.012992514391173281,
        0.27916346724120134,
        0.08450793897408232,
        -0.7860121282814564,
        -0.5373574764936694,
        -1.0786053411807066,
        -0.22621089298875527,
        -0.7406036760224677,
        -0.2534134859551673,
        0.13861558184489936,
        -0.020089502596623184,
        -0.14217143361883353,
        -0.10048228164357978,
        -0.1975537569606319,
        -0.4631801837227571,
        -0.1496148938740385,
        -0.0753082184774385,
        0.0847397107734152,
        -0.10973484424512804,
        0.06616316396993202,
        0.05505678040169278,
        0.3005639934058518,
        -0.4761923417015069,
        -0.5925929000401745,
        -0.20996409978945188,
        -0.348897720468315,
        0.07972656933276435,
        0.22745086565507497,
        0.08716109793772428,
        -0.14257924828242574,
        -0.5463168606731102,
        -0.020349104734252645,
        0.4094516082966075,
        0.1455241596645683,
        -0.37812946470226094,
        0.1543567045329672,
        0.18275920614129915,
        -0.06950970457562076,
        -0.28785648556261134,
        0.16847547400652194,
        0.23690183919180083,
        0.652715395547696,
        -0.3406459746532512,
        0.2249167674031057,
        -0.1338227115882444,
        -0.36212047741421677,
        0.3333912933416946,
        0.0046539876633073735,
        0.2374471078877129,
        -0.4528586235454781,
        0.2941642650706464,
        0.11239630978710512,
        0.6149331612482636,
        0.024206106644421566,
        0.21027719012749418,
        0.1349355530810624,
        0.1626511594933608,
        -0.15818062117595355,
        0.010310856031412642,
        0.1963354580019226,
        0.3776875374821526,
        -0.06735170226788598,
        -0.0322656222523242,
        0.10689466756731578,
        0.23431557032742145,
        0.3952602777928701,
        -0.14123852064143422,
        0.9672542275227322,
        -0.13003652998115348,
        0.4333429910949826,
        -0.03274040194945714,
        -0.3914200812861727,
        -0.1114407282854259,
        -0.08363648185632445,
        -0.2608021065139426,
        -0.40171829572865,
        0.532524120703715,
        -0.10832520796825834,
        0.2310357400798047,
        -0.08363382824241397,
        0.16548243832838955,
        -0.12292487320078047,
        -0.056845068028871945,
        0.09731662844468407,
        -0.025069777777091396,
        0.4739941413428753,
        -0.22737827362564572,
        0.5074455631083595,
        -0.14822067131785005,
        -0.007856376317510329,
        0.2071830932953687,
        0.24182046949132976,
        0.239157614539465,
        -0.04397315504398479,
        0.8911201368644676,
        0.40631649572818673,
        -0.13066253658982763,
        -0.15989175314810153,
        0.16948351738527198,
        0.002941700943862547,
        -0.11531280431677379,
        0.37037740303475136,
        -0.34243337019968534,
        -0.1712793938641833,
        0.11340462436647344,
        0.25092360569532784,
        -0.020885887231955492,
        0.19070220594850526,
        -0.09733321293512735,
        -0.550667703535272,
        -0.2805854564733368,
        -0.21459150627796525,
        0.3997328723727832,
        -0.14054636861710837,
        0.07584484745246849,
        0.16837710377431958,
        -0.022671800688397102,
        0.07610040466570482,
        0.04283805800885696,
        0.28857960758715007,
        0.027613095499681217,
        0.1952641954701802,
        -0.0031208201327207687,
        -0.2685719543443458,
        0.04262507224266473,
        -0.1369420727987739,
        0.11032422933772783,
        -0.17087330267053175,
        0.08887000604646259,
        0.23906871548873118,
        -0.1912655392083606,
        -1.2120790992748802,
        -0.47917963836552224,
        -0.4201239869125969,
        -0.15387444254227395,
        -0.2901515304511247,
        0.2352492016277954,
        -0.41334415599351926,
        0.5223164865168451,
        0.990836797357581,
        -0.5251078901935707,
        -0.23640210744536475,
        -0.5906774316086079,
        -0.01244809774883391,
        -0.807618041513578,
        0.3002872026715993,
        -0.1792005554284566,
        -0.14276335342890023,
        0.020797934534083042,
        -0.6819773113330234,
        0.2963858848825047,
        -0.45255184319156927,
        0.5033636921402875,
        -0.05871062051611214,
        -0.06688291679491143,
        -0.540525005825558,
        -0.146174945338648,
        -0.22918214701420947,
        -0.6557975304289236,
        -0.09038515517661744,
        0.34698376694216165,
        0.012366670562400945,
        0.21361501386472187,
        0.1870706425110747,
        -0.031988450989756535,
        -0.6750187222784347,
        1.009475827380114,
        -0.2630250779627668,
        -0.6771988205128858,
        -2.2663226765285316,
        0.024707893709389857,
        -0.5695787335502831,
        -0.1403972958356957,
        0.7636880483853988,
        -0.25858794853620276,
        0.8631091616591968,
        -0.7670567320082695,
        0.9623527638367316,
        -1.0298678836065092,
        -0.2674723152524126,
        -1.3476042186230106,
        -0.42519341839687785,
        -1.0112118664148195,
        -0.5566779051679217,
        -0.03675103300936931,
        -0.4953540086326875,
        0.19275253968163797,
        0.15363514143482015,
        -0.020406109210336806,
        -0.09766279686883904,
        0.08603440416949856,
        0.566191023329788,
        -0.14133237328146206,
        -0.6883400402971607,
        0.1874272035148471,
        1.1198957676647152,
        1.8869599074774523,
        0.5008080389614882,
        -0.23736840037087042,
        0.9846443746752088,
        -0.3788057221021755,
        0.2514325442986782,
        -0.00370561391220926,
        -0.28041198368149883,
        -0.5730674826464385,
        -0.26697202327257974,
        -0.33443813891687374,
        -0.023758089644379577,
        -0.2577079560905236,
        -0.036595857904866205,
        0.07741105094401174,
        -0.01881661231567702,
        -0.21417693608372523,
        0.017272246619294537,
        0.022452226252310463,
        -0.781166403253372,
        -0.06296736237270223,
        -0.00916244320511513,
        -0.29069586887107696,
        0.09613009914602491,
        0.3204197872907437,
        -0.2478219938631655,
        -0.9482836696538487,
        0.19700712457526381,
        0.08189053261563019,
        0.13444043443167045,
        -0.21884076110821787,
        0.053206660428791436,
        -0.13868972109605737,
        -0.07354095556674592,
        0.08389807284158031,
        -0.05000941058706094,
        0.43206809991026035,
        0.43610794103925665,
        -0.2281036458480117,
        0.017600671586069594,
        -0.12507953609536848,
        -0.10653241325529739,
        0.021825259563615425,
        0.41769256011191574,
        0.14958944003647442,
        0.012312763224275729,
        0.10365659785313647,
        -0.019441606524415046,
        0.5740943464680202,
        -0.10747299339881133,
        0.45217749930849477,
        -0.40014202190382236,
        -0.08215264353663174,
        -0.19403218727623223,
        0.004653176962395979,
        -0.060930680775254764,
        -0.08960586886190856,
        -0.06028050191120792,
        -0.03796992244860579,
        0.48742573479244,
        0.18488196262682735,
        0.4946412782760089,
        0.11525248753432629,
        0.8146126615751065,
        -0.3126935547150441,
        0.20899897496052727,
        0.06333429804319692,
        0.07449326098413135,
        -0.07368169392753673,
        -0.2269151033167164,
        -0.9480289875451171,
        -0.5294723122370119,
        0.6879851657986616,
        0.018429053057063917,
        1.1287481682219127,
        0.26757068081688073,
        0.2906902754171863,
        -0.1000315941732464,
        0.12858423481940864,
        0.0714967715502641,
        0.0014059311093988522,
        0.32230954068140144,
        0.24648713510359385,
        0.8994253644825388,
        0.037787550190508744,
        0.3074558209066963,
        0.5983200792647438,
        0.14007558258103867,
        0.0008325157855669044,
        0.7725334630193063,
        0.8247623056527129,
        0.38415370603330284,
        0.7021121548635868,
        -0.18322076480389063,
        -0.19865677111654473,
        0.04701202994272754,
        0.13570170019485028,
        -0.05911649039650572,
        -0.4067056313928769,
        0.2222850146792422,
        0.4219990203530258,
        0.9632848069501408,
        -0.3155272536852323,
        0.34881869963085416,
        0.38010726885806195,
        -0.44195214899584306,
        -0.11731030001048823,
        -0.5746141991315316,
        0.22522917877121099,
        -0.3425134748739082,
        0.5046253176865644,
        -0.32170848247896344,
        0.8728857050876498,
        0.17150327967535792,
        0.2058262272870413,
        -0.028305123630871166,
        -0.36307110087641814,
        0.20700463393721108,
        -0.0023233166827643986,
        0.02232798940761162,
        0.08366107816594187,
        0.4461570124005997,
        0.020988998283928636,
        -0.12377056937871012,
        0.3242122922467237,
        0.7266185797983334,
        0.025408662591252597,
        -2.0177517227308153,
        -1.3207601577693977,
        -0.2752163776623699,
        0.24730814953858607,
        -0.4001102739034454,
        0.011618512980906999,
        0.6828338503800563,
        0.9722413443743133,
        -0.6967664552004261,
        -0.41810226879704765,
        -0.22050537924931785,
        -0.9071614589802465,
        -0.19296455803805004,
        0.03661525508242688,
        -0.002326254083469387,
        -0.19928370198387235,
        -0.1021207187628673,
        -0.02074760134244819,
        0.30708147336052005,
        -0.06832443957118756,
        -1.092537640861186,
        -0.2505834449022065,
        -0.3519305125783156,
        0.1278489376815513,
        0.07015028134771119,
        -0.23538803845313228,
        -0.5096881209225026,
        -1.6085758723026258,
        0.16800341468831673,
        -0.07416430983470887,
        0.3384760296634772,
        -0.09198502803840296,
        -0.07171123765620807,
        0.020512538871475115,
        0.1889610798720634,
        -0.43967637618032035,
        0.2196084288050493,
        0.21987742980950217,
        0.9092873923159501,
        0.06158392782679578,
        0.3262701098460182,
        0.0540059975268538,
        -0.3336312440270784,
        0.3757749340757815,
        -0.41510970220993104,
        0.45979280416943735,
        -0.31709431691573,
        0.534324455672831,
        0.025033195957715356,
        0.6119195512471326,
        0.14375402501374826,
        0.5450806153614834,
        -0.13493109142501084,
        0.15727276887591782,
        0.17383145182037826,
        -0.1565320120485797,
        -0.07197809685694442,
        0.19270467592309073,
        -0.16900202540143,
        0.14349932385736125,
        -0.28098315794641543,
        -0.024199054955030462,
        0.36103423775307664,
        0.12615121867827114,
        0.8815922624352907,
        -0.5387928052067206,
        0.22429520948368933,
        -0.002188970932121231,
        -0.4424829368162347,
        -0.20353810700733949,
        0.5842101192488615,
        1.1453346740843342,
        1.0802600311368276,
        -0.8886729200996092,
        0.398163713454834,
        -1.2514997136086439,
        -0.24584934729128333,
        -0.2431075507974802,
        -0.07161605336283178,
        -0.26606619610864674,
        0.07952822205991168,
        -0.0060850994314326735,
        -0.7566242282031742,
        0.24915664984767447,
        -0.996043705523898,
        0.13326751734055978,
        -0.6040759702380537,
        -0.8318341372903082,
        -0.25778468733031884,
        -0.02488803646822911,
        -0.9973317894915913,
        -1.146624794505513,
        -0.14200537994538395,
        -0.8441003316164272,
        0.3312448489506627,
        0.5885536517364219,
        0.15344573172651346,
        -0.5647236871169375,
        -0.2974865647753489,
        0.5367996520226115,
        -0.3049888553468049,
        -0.6227013997348947,
        -2.2049823862149616,
        0.07206575273631208,
        -0.2238828074106403,
        -0.519140019616876,
        0.40960329903999354,
        -0.2836583063636513,
        0.7489372482005353,
        -0.7149035194655031,
        0.4724657413957848,
        -0.7471779906314178,
        0.4246875070550036,
        -1.1766525091360178,
        -0.2018549314526111,
        -0.6936581375091629,
        -0.3156767246275259,
        -0.1275149007507477,
        -0.444667557776768,
        0.3381596390393113,
        -0.011536557959925387,
        -0.3067872937466403,
        -0.2862034947936684,
        -0.24770833341105633,
        0.1454904803309568,
        -0.28542515470304336,
        -2.0540553972737348,
        0.09619500712602397,
        3.553264189919548,
        1.202723442909822,
        0.6481256965574185,
        -0.4376946582437374,
        0.49005390085587625,
        -0.09680956147431889,
        -0.7638944088525533,
        -0.9166355671047339,
        -0.7261232588856457,
        1.756090316582588,
        -0.35873241136003403,
        0.8050528370713512,
        -0.14571963995390827,
        -0.056825961681427055,
        0.3262762942855683,
        0.15101213254169665,
        -0.3356651650154739,
        0.03558414599567495,
        0.09893415132990294,
        0.18284035923763145,
        1.2661389949806767,
        -0.24969110730345156,
        0.717731764399367,
        0.3642140114236113,
        0.05109272677565503,
        0.11553502893053433,
        0.4696529601480271,
        1.672718600225426,
        0.09079465990907812,
        0.61630498576945,
        -0.48774582329213695,
        0.08417658326424313,
        0.10547026715832418,
        0.25989077950531875,
        0.5088040732182493,
        -0.5513912043009306,
        0.01012820665810629,
        0.2413343022474279,
        0.17040977366178178,
        0.3390079635354993,
        0.18031007561642023,
        0.21765524756236804,
        -0.4143768652846052,
        0.047836626447900675,
        -0.4805125913947777,
        0.8200885596382873,
        -0.4977834539833043,
        0.4826867356897226,
        -0.2164396714759635,
        0.14042230014301088,
        0.33147672740446177,
        -0.053608787333011575,
        0.13137736812069156,
        -0.1014790670116414,
        0.04731129176527962,
        -0.07016163280430655,
        -0.15533942800663644,
        0.008256417743800672,
        0.384221946696756,
        0.3836948944613209,
        -0.09776982837753176,
        0.25793561245945396,
        0.4021540912885335,
        -0.1868627990632545,
        -2.481192801262232,
        -0.4239321535960295,
        -0.17291239044736484,
        0.1751897770296684,
        -0.4063614754513795,
        0.2408213385756417,
        0.3263532278707844,
        0.21355859470891517,
        0.31514409320800835,
        -0.5797879710493149,
        0.07282246712594745,
        -0.14719361665740885,
        0.18217792626895488,
        -0.20022305027007453,
        -0.21001766193070592,
        -0.12082997076990093,
        -0.15325781533102945,
        -0.06941132474071716,
        -0.4045198071784573,
        0.11477825045155615,
        -0.5510274039680402,
        0.11047804585248513,
        -0.07758109011467142,
        -0.3455811892140271,
        -0.15786570542884998,
        0.1598887405766946,
        -0.007344627572809182,
        -0.6947710377041048,
        0.3228583583568068,
        0.4160046069917306,
        -0.053731323271738685,
        -0.33529639148528306,
        0.11144273077651191,
        0.02206839813852364,
        -0.23995988970867724,
        0.2549835969268647,
        -0.021396557023767776,
        -0.04886335067326573,
        -0.17524567542905778,
        -0.27103895721991583,
        -0.09179650949699435,
        -0.0653218273906092,
        0.24490556075738829,
        0.3540533400834009,
        0.28545978260220284,
        -0.48274974692467076,
        0.3303859063647786,
        -0.29998076550543246,
        -0.14870802197698815,
        0.12619488995684838,
        0.2889330438349394,
        -0.06346989536065092,
        -0.40152256737698105,
        0.10211359835991388,
        -0.18442979305235097,
        0.20762964255784727,
        0.06731834894349394,
        -0.04260710118709311,
        0.032843446826206386,
        0.22951282528699454,
        0.23525535891569133,
        0.09472776707927728,
        -0.08157004963700079,
        -0.04305820634545106,
        0.8022158382450412,
        0.522985580152332,
        0.27070062597230177,
        -0.21892706452751645,
        0.1760996825944369,
        -0.06702457448853927,
        0.21808483004368034,
        0.1547676541562247,
        -0.05593662595893336,
        -0.6436332385177266,
        -0.11797496707971307,
        -0.4134840013090784,
        -0.22326329391555538,
        -0.05281261222858522,
        -0.06684821195607772,
        -0.028235478781429978,
        0.0017236481790133557,
        0.25369035822703573,
        -0.06886097478271783,
        0.11265021198179655,
        -0.4339886914422904,
        0.07639402022091368,
        -0.43147746550355676,
        -0.06553223822846707,
        -0.06929445429587522,
        0.3304064183852333,
        -0.10425127716021261,
        -0.3586288698140999,
        -0.37767258990270425,
        -0.7102280312521304,
        0.1220754175647668,
        0.2126986058047222,
        -0.05829543258959803,
        0.08314955573551339,
        0.16867854875536212,
        0.2582849497038588,
        -0.046738839096959583,
        -0.20502712281747262,
        0.11523442371853362,
        0.2045167165918603,
        0.05618315527524161,
        -0.017094093303723346,
        0.27394037265112575,
        -0.18422965877097977,
        0.17479506484801996,
        0.1377885786247782,
        0.004363647992124679,
        -0.11199635380838205,
        0.35590965284949283,
        -0.4143471647259847,
        -0.10510727292442464,
        -0.2592188310691893,
        0.11956662841690273,
        0.2386834315246048,
        0.1345685131920964,
        0.07965786557154507,
        0.03576929204046506,
        0.14309019707335693,
        0.05818335507703615,
        0.11666708017957436,
        0.10093002731322964,
        -0.14156395824273252,
        -0.181376855056694,
        0.008398130542641427,
        1.0856293668776391,
        0.06652754048232319,
        -0.007820346770205091,
        -0.38449179401001665,
        -0.04361681075467756,
        0.16783583558577042,
        -0.17875058533687277,
        0.0915296010937039,
        0.007102424620032467,
        0.4018748987360664,
        0.2418315209233358,
        -0.12167930735059268,
        -0.13780102618658494,
        0.041358694020974,
        -0.07099054503612291,
        0.3701930718354462,
        -0.22475682294275334,
        0.06583294368423215,
        -0.04008620059686763,
        -0.1630205640545116,
        0.039164762835734064,
        -0.008796733143726362,
        0.14816935462520844,
        -0.05142015215648791,
        -0.03320937769141851,
        -0.34100010918805596,
        0.10892081664127078,
        -0.033849965950933425,
        0.42042081475053783,
        0.6367028668764088,
        -0.2312607198620948,
        -0.1785620020671281,
        0.12402462665749775,
        -0.025753705144799653,
        -0.32555840835750605,
        0.10162062433464378,
        0.0798543225371634,
        0.3638977352151143,
        0.1833847475926501,
        -0.3743052345458308,
        -0.16174786616238407,
        -0.0019653373651878944,
        0.06187495272884867,
        0.006919231578888192,
        -0.0797460010262412,
        -0.09932825682155325,
        0.12963810188320818,
        0.27457014151328896,
        -0.17254284755505175,
        0.5678647087351224,
        -0.005730604967760921,
        0.27114469132116925,
        -0.13574408058633564,
        -0.23765025009854193,
        0.13726939259306736,
        0.07449309661853958,
        -0.11790398256166801,
        0.02797476015059357,
        -0.2556562007254443,
        -0.17895674338584514,
        -0.05052894972808679,
        -0.027881147276605206,
        -0.024136688540015022,
        0.10272147920956569,
        -0.13069574924121022,
        0.027276517331411766,
        0.1920686246304864,
        0.07062887197543631,
        -0.26335931794100026,
        -0.1240493129539696,
        -0.3687784264938599,
        -1.508673770186224,
        -1.3681631306596016,
        1.7234611428772324,
        0.09037106291969822,
        1.630437126232611,
        -0.020221719344033415,
        0.1813554987460612,
        0.3233651662903697,
        0.43826035228708415,
        0.4828752530025455,
        -0.20356609600379408,
        0.6243319220498017,
        -0.20634402363526108,
        1.3651688509294457,
        -0.07500397655295253,
        0.47619322942657044,
        0.48463659908547907,
        0.33587423148237383,
        0.17173112434316867,
        1.3000383440777574,
        1.7990529340411612,
        -0.4634980623870846,
        0.38203430579700337,
        -0.3134562011241455,
        -0.4151291426989847,
        -0.10380466862446218,
        0.5872662462552335,
        0.5487786167999915,
        -0.7779194669393286,
        0.4837354123349269,
        0.5318876322466645,
        2.2250628721120016,
        0.059038008559838,
        0.5532437641062469,
        0.3327885178952116,
        -0.7049709789314655,
        0.26419412421308963,
        -0.9242405398348981,
        0.7534084933890773,
        -0.7655018390405011,
        0.9793025063716334,
        0.06464288001512634,
        0.7524440569845245,
        0.17094583762291263,
        0.4117806979862538,
        0.2823117057798294,
        -0.18112015341264462,
        0.21722187652326358,
        -0.38208469998612005,
        0.3424014276180206,
        0.2945831088382564,
        0.44269541926282757,
        -0.047400171981177734,
        -0.24576921281544883,
        0.5640902094844068,
        1.2775190010164956,
        0.21759940611982026,
        -4.263016379971677,
        -1.5166367363002926,
        -0.6589463102568838,
        0.3959532732794767,
        -0.4796722988893995,
        -0.2540273775643611,
        0.10041364840674209,
        0.14684395317255744,
        1.8011391302334445,
        -0.38600614939235917,
        0.28641425372998547,
        -0.17054792223424753,
        0.11258226727150242,
        -0.6336352952417866,
        0.12638683312651308,
        0.07207274735863999,
        -0.07381791299964213,
        0.35745232948233285,
        -0.6023477092373759,
        -0.05755203275050718,
        -0.22765799519072805,
        0.31402902974720776,
        -0.01909066436865027,
        -0.0554438420663396,
        -0.9384341678892986,
        -0.1186706169997192,
        -0.1507229645034945,
        0.005190233526505267,
        0.072463024218067,
        -0.25525068156287695,
        0.1388342436117313,
        0.3648114268086591,
        0.12932234490651684,
        -0.1132706307554063,
        -0.9367917961485777,
        0.7380674049664843,
        -0.5043714722859911,
        -0.28748977413744986,
        -0.9998755518992194,
        0.37442009670409643,
        -0.4917018593611778,
        -0.23561807157682554,
        0.7946652810994158,
        -0.5196163912788373,
        1.56361847253084,
        -1.1039879283094063,
        0.8283929475127744,
        -1.134702528964811,
        -0.03242828518638621,
        -1.4212822644129128,
        -0.15059197205631444,
        -0.9494445054449723,
        -0.1963503686293125,
        -0.4155986219845143,
        -0.6984536815653755,
        0.6754931013652257,
        -0.3279989516959616,
        -0.16719417550282567,
        0.001027272615297361,
        -0.07214783709100367,
        0.4006800848678307,
        -0.14366942610922118,
        -0.716499496685616,
        0.00847920542887312,
        0.9918997673073706,
        0.9656759000003097,
        1.2529758604361974,
        -0.03623996825460203,
        1.2678479133542198,
        -0.174622652896089,
        -0.0909748024499806,
        0.16249598225277903,
        0.20005115997724174,
        -0.14096741377710612,
        0.06957591212267826,
        0.0903611416009091,
        0.06461154083601083,
        -0.308032802902065,
        0.08140331482818057,
        0.007889761567236989,
        -0.10612722277840195,
        0.08906737331155916,
        -0.44590525709874584,
        0.07068366599153976,
        0.0744619271065403,
        0.0771060612032929,
        0.3151108064259516,
        -0.11086532648560501,
        -0.13883189599525123,
        -0.2212465526838227,
        0.08025055284126505,
        -0.10674553446522735,
        0.20536032735272863,
        0.5308222300089858,
        -0.015895535012090335,
        0.1504593127074625,
        0.10436384071279158,
        -0.007491374611907231,
        -0.5026924226977086,
        0.408369278701148,
        -0.1198292903236722,
        -0.09021493113061872,
        -0.17198697062877707,
        -0.2253940322966679,
        -0.160895837394524,
        -0.15323462448609554,
        0.3217972189783155,
        -0.047646811578022384,
        0.30372215187182594,
        -0.43168435418346307,
        0.3900257528147623,
        0.06352532147791697,
        -0.27986731866316317,
        -0.08829765501377737,
        -0.18287195548044066,
        -0.015722196102482204,
        -0.30834502036817873,
        -0.04575046468266623,
        -0.334646560696443,
        0.338161760713644,
        0.039225327060231505,
        -0.09815136797666739,
        0.0643892685489117,
        -0.006016936100498718,
        0.41152054482342204,
        -0.03217787854127866,
        -0.20030070819534657,
        0.10693711885645639,
        0.23758210759304169,
        0.37131098008777336,
        0.2217781291599526,
        -0.16770456742547446,
        0.036638397351753865,
        -0.1365173281449216,
        -0.056038339471095724,
        -0.0038704868358378827,
        -0.2644885945646349,
        0.18498533970937392,
        -0.09691245687347039,
        0.156009262330982,
        -0.2476175977011019,
        0.004539790599547407,
        0.021069639469413957,
        -0.09608184791407891,
        -0.22055923563729737,
        -0.18420010714746315,
        0.17964392902331625,
        0.13536648026879805,
        -0.027082432957311702,
        0.1435877373559252,
        0.7906336737488018,
        -0.08878245973173216,
        0.06915059181956223,
        0.46329794991553713,
        -0.42596664722539457,
        -0.6433350499078268,
        -0.3224576752230646,
        0.3918920193232648,
        -0.12003338229769148,
        -0.12062744285103173,
        -0.02861614698588863,
        -0.41309197655427304,
        0.2151674905739198,
        -0.19227312180317233,
        0.4575744807530435,
        -0.26884871696182305,
        -0.06282189135811764,
        0.1246051976543,
        -0.12899051769485131,
        -0.010140860964523832,
        0.2653472777628783,
        -0.12475458636588639,
        0.17582316315948218,
        -0.6488509472317694,
        0.4589492036729901,
        -0.3222500924392254,
        -0.01574163190841884,
        -0.13405613492823037,
        1.6743176028235482,
        -0.10204938457202196,
        -0.198602150957548,
        -0.35572602278629634,
        -0.16510640653791173,
        -0.15150287944492424,
        -0.12105719336075083,
        0.0355971641999405,
        -0.27131788290130976,
        -0.12100501110396751,
        -0.1171979282355268,
        -0.15538339754260713,
        0.002873489148459629,
        0.1671952053815767,
        0.17023713667506796,
        -0.47851561624437566,
        0.4527598395606118,
        -0.4830754844598732,
        -0.48106109464263647,
        -0.12962478313337206,
        0.12963769618265933,
        -0.19640712996308554,
        0.09494851852283945,
        0.03730449510360222,
        -0.22550882594753943,
        -0.158153010247048,
        -0.3395001232518398,
        -0.5065308898004341,
        0.1475826768290258,
        -0.1221196921118773,
        0.19437961322802316,
        0.16605306851057672,
        0.8739745838413046,
        -0.06934780627720251,
        0.010494122234824224,
        0.08453622358802189,
        -0.12157561496084646,
        -0.011971583935379594,
        0.16972878509822628,
        -0.0686278719356789,
        0.9558394604979551,
        -0.19140539686192926,
        0.4005506440323454,
        -0.3883500445923336,
        0.12784417562386233,
        0.15750264321666885,
        0.11117319868873277,
        -1.1959357679052056,
        0.290252470425649,
        -0.1744167903435608,
        -0.05098066232621691,
        -0.127675426135437,
        -0.011067994256861897,
        0.23879356403443638,
        -0.18050110220399485,
        -0.3232923863276969,
        -0.22491726069580148,
        0.15046450522047708,
        0.17216692505222184,
        0.41939576206337037,
        -0.030595602018784956,
        -0.02631841962147887,
        0.44397273605003035,
        -0.17883712680456984,
        -1.6748732352149103,
        -0.5808481203159851,
        -0.44554018141738333,
        0.26092605879858666,
        -0.38003190479267174,
        0.30797617361195234,
        -0.24330363672798042,
        -0.04121709900140002,
        0.13475180630576816,
        0.07873878443072277,
        -0.9885496021030558,
        0.2643537276562355,
        -0.2822019771988962,
        0.26681787686498903,
        0.436398236185513,
        0.8901148934961279,
        -0.7559992428052921,
        0.39885474001148213,
        0.5565481227215929,
        0.055626469349721715,
        0.0033302121655572185,
        -0.25299983217108235,
        -0.0002727269415728024,
        -0.030026678446630036,
        -0.08318157638582249,
        -0.09532928797391758,
        -0.045797827679970225,
        -0.31530023995823986,
        0.10593609291677186,
        -0.03643925480791745,
        -0.143702872842143,
        -0.14912129480953554,
        0.327282927055345,
        0.1489711121165131,
        -0.00449711933878026,
        -0.0631410983525612,
        -0.12972305770294396,
        0.09018810394408018,
        0.4068498178051379,
        0.017833425018605575,
        0.04190154607199368,
        -0.1309646355163231,
        0.03152046492155402,
        -0.22794162441495852,
        0.14098550207897917,
        0.18565781274389778,
        0.10674407788723277,
        0.22380196566019997,
        -0.2893653580170979,
        -0.0639249735022255,
        -0.04124340826023245,
        0.036456468788249985,
        -0.3534578964086411,
        -0.0255929787881397,
        -0.23175590241912977,
        0.012338005608747486,
        -0.44103451512029707,
        -0.016145827890942897,
        -0.35389298139836145,
        0.09652091296935947,
        -0.45791677432220734,
        0.06017722616388355,
        0.07872238206280928,
        -0.0039223885547956215,
        -1.4668487934551742,
        -0.48371120608539847,
        -0.6223642249435215,
        0.797259278661604,
        0.19543884934213057,
        0.26875991419050943,
        0.0734933506918351,
        0.15104164489333452,
        -0.09996526634519406,
        0.22525822043879415,
        -0.0335299413876688,
        0.47421478293582003,
        -0.4014691761500246,
        -0.12326426099600403,
        0.20458774594400606,
        1.381450642066065,
        -0.11268886330799148,
        0.28430087055536646,
        0.5347207961999566,
        0.06505022938853428,
        0.12164194036648186,
        0.03593773114846373,
        0.17316639584093355,
        -0.14346805917961183,
        -0.17396267569400956,
        -0.15771083737901245,
        -0.32952556924416937,
        0.03710625584556093,
        -0.10880723530525248,
        0.26243249205021024,
        0.3255257117546575,
        0.0735602637279667,
        -0.30921172718100115,
        -0.10398874223429062,
        0.18801789448986564,
        0.4036593336620141,
        -0.35382059129342724,
        -0.13578013602851308,
        -0.057808549126417405,
        0.07601183314542594,
        -0.15761219320571476,
        0.04054829791894162,
        -0.028248154668571973,
        -0.05541235056475043,
        -0.05185027953574636,
        0.008473098722313712,
        -0.019238686132593285,
        0.7369516245836185,
        -0.29485976451862933,
        0.1658566446113209,
        0.4309503225556368,
        0.449114344708614,
        -0.12392364448925867,
        -0.3184851365169762,
        0.1437493040723287,
        0.41740313273093416,
        0.07807324944568278,
        0.30435927708794003,
        -0.26382504587636635,
        0.1893397869970661,
        0.19263838131589833,
        -0.037407004158118276,
        0.08063684221237526,
        -0.20182224740022348,
        -0.5666518712052311,
        0.2160377430615486,
        -0.1079401689632555,
        0.054391189981801785,
        0.004775454832795335,
        0.035322848374503765,
        -0.14769496031226723,
        -0.01359842849486177,
        -0.3755027657797402,
        -0.09582748218128509,
        0.02712141319506258,
        0.20072240132821667,
        -0.06866820718508679,
        0.10961155219626842,
        0.0963694554469895,
        0.11022927069056668,
        0.027721267768402662,
        -0.12274552165300136,
        0.15604685591796358,
        -0.17403526154375026,
        0.07909891771940442,
        -0.3021635661897656,
        -0.0839497049160105,
        -0.008102154962969213,
        -0.012830326810379709,
        -0.06107562451350034,
        -0.12336825705367255,
        0.05931389594991411,
        -0.23912989700957935,
        0.029899607581337126,
        0.01351319888880301,
        0.014153140957826583,
        -0.2520232719639898,
        0.1251418797398242,
        -0.1581849624308974,
        0.08614909996534048,
        -0.05715761822901856,
        0.0019695608811959486,
        -0.09410076371463538,
        0.12250729395851687,
        0.09938005392714937,
        0.22567594146824885,
        0.13405182843517646,
        0.13933619739876488,
        -0.1606608547351912,
        -0.27694063048096146,
        -0.12170427910813524,
        0.262317188431932,
        0.10737312362530185,
        0.07913597111958984,
        -0.14029757998115028,
        -0.15248043363335156,
        -0.1865751276816851,
        -0.28522825013599,
        0.1490396137078342,
        -0.09752600486164056,
        -0.17576944457886504,
        -0.002524865416398454,
        -0.2705696277103785,
        -0.4407541908539939,
        -0.0659575397366831,
        0.17424844154640165,
        0.24841783293374892,
        -0.18262125222226022,
        0.1851916861959778,
        -0.018220088786587426,
        0.14288425085813414,
        0.07195337465916203,
        -0.05353141104757698,
        0.14750878097237843,
        -0.010082282548596123,
        -0.02224122311247915,
        0.3555534638419362,
        0.33138081913036754,
        -0.4256172104113794,
        -0.29668842720260324,
        0.11195357304925796,
        0.18049648173380037,
        0.006507310039105583,
        -0.13944217947048346,
        0.11856777035626745,
        -0.023572171337083333,
        -0.14722136768467722,
        -0.10334760356563079,
        -0.1666580533184865,
        0.06783451619715601,
        0.13900801458163908,
        0.185797795157877,
        0.03642429161988337,
        0.23128545170247297,
        -0.1079393687712459,
        0.06516325488990692,
        0.13340928792082268,
        -0.053843130543152616,
        -0.07442513145443351,
        0.11014389905262652,
        -0.00954017345907605,
        -0.1662463231590347,
        0.09342837889667749,
        0.19411277359387258,
        0.000823117485236319,
        -0.030176704927010134,
        -0.12319543991389988,
        -0.048721216163174014,
        -0.06930914983057263,
        0.13262826287064522,
        0.2185231273909195,
        0.2682955827287418,
        0.09212681538585361,
        -0.008590127009048218,
        -0.13802741961819048,
        -0.23490724627180526,
        -0.029130686770372803,
        0.18613460703815213,
        0.19130677992460796,
        0.13881850373793736,
        0.05173120121447909,
        0.08109642898568933,
        -0.44056101742201453,
        -0.004111041745726649,
        0.047263682838639846,
        0.03163742510649296,
        0.21884225030802837,
        0.08411566364711598,
        -0.061356785671972044,
        -0.014833462845262836,
        0.05214048071319925,
        0.09607295520671039,
        0.1311997397065559,
        0.0402553122367213,
        0.09930648878023748,
        -0.27346350891685584,
        0.10364337347837241,
        0.08677252333060081,
        -0.014098218471720964,
        -0.21524934786996033,
        0.24216118400834774,
        -0.0008924638512842657,
        0.1793818767476549,
        -0.20410081400415547,
        -0.004716985633251075,
        0.12210468764356985,
        0.11144285798374977,
        -0.10923123827513749,
        0.030666900687246174,
        0.04525659948837107,
        -0.29866876279083754,
        0.019930456306246385,
        0.11700466432709807,
        0.19959820661894007,
        -0.17080757332931293,
        -0.16786027886444443,
        -0.12846020739358083,
        -0.3677679732630911,
        0.13964935582760135,
        0.3361518769158605,
        -0.2650879130904534,
        0.10558019447182118,
        0.0870991229675347,
        0.26356110621967205,
        -1.2589849515215588,
        -0.7715073153835591,
        -0.0852717657017622,
        -0.07046265952225565,
        -0.09317083637914829,
        -0.19090986040766103,
        0.05069235433955326,
        0.12236397560126183,
        -0.30675472078971827,
        0.3130731370599415,
        -0.05507575103488757,
        0.2599492638872484,
        -0.5037758139816928,
        -0.06836147248500483,
        -0.07661463904578084,
        0.5649997020429274,
        -0.7086083120264121,
        0.3915866581095885,
        0.028034503258007642,
        -0.06609599699131871,
        0.17642434257055611,
        0.24956707937140674,
        -0.07053914187110294,
        0.1252026568058698,
        0.3004234407423676,
        -0.015145976198168355,
        0.48750884289232793,
        -0.3650115994132673,
        -0.024172806830942205,
        -0.12116182468720738,
        -0.05401415217404418,
        -0.3048711827938364,
        -0.4465572982130186,
        0.29623208371486204,
        0.18930668494770467,
        -0.12851288906737166,
        -0.03988979885126725,
        0.1477106922779933,
        0.1046182218096714,
        -0.039683781878783395,
        -0.171849065723161,
        -0.08400849681973777,
        -0.053513169313546945,
        0.010985502762027555,
        0.19462871389490344,
        -0.1569319350571142,
        0.15270290857564175,
        0.09764064871923543,
        -0.267818915078317,
        0.0006476514562573243,
        0.061122440472226494,
        0.021304366312184124,
        0.20862952601928209,
        -0.0007323732978023939,
        -0.2730428785426727,
        0.020655236705992275,
        -0.35404897131827257,
        0.019335109830848622,
        0.4212974805327266,
        0.5401507939800839,
        -0.4108137909934614,
        0.33215631360748116,
        0.26187011325943543,
        -0.04130430860836935,
        -1.7885276812386361,
        -0.332572443489248,
        -0.5421800782579611,
        -0.02659858947796438,
        -0.1527884173974335,
        0.06478379098529077,
        -0.7007784825892364,
        -0.06903350500900615,
        -0.007904507989886294,
        0.0755773771276821,
        -0.4023829991588681,
        0.4253562977597004,
        -0.5386038856268839,
        0.054158967016275525,
        -0.2137186315499135,
        0.9928545888915727,
        -0.8926733414039998,
        0.04119563421133911,
        0.4184288754606828,
        0.23007385484404866,
        0.15867754254237543,
        0.086065627770533,
        -0.15370845462190827,
        -0.013331376596225998,
        0.08000971648590484,
        0.11696064118923062,
        0.162297585090433,
        0.08590993474745402,
        -0.015165294342375138,
        -0.10338599722013787,
        -0.058994667183023264,
        0.19679305689146545,
        0.43996726487201504,
        0.23442857939054937,
        -0.09291862755974793,
        0.23069335751298875,
        -0.21873191303962675,
        0.014015711805346089,
        0.05360771152742159,
        0.009409115970880327,
        0.29057415766812017,
        0.16505018163787505,
        -0.08873373659245162,
        -0.21667575016246457,
        0.5209682767010432,
        -0.09933232916883554,
        0.09675222636185032,
        0.2151754415591497,
        -0.009186455857693064,
        0.06602304258770446,
        -0.24402306067241486,
        -0.06924818230992165,
        -0.004364691638805372,
        -0.11291843543475036,
        0.3285973677920783,
        -0.06289340972084477,
        -0.14197855550205715,
        -0.17117492562290876,
        -0.387789591927983,
        0.4925130417865837,
        -0.2178014267020922,
        -0.13170898166123668,
        -0.026941090995025514,
        0.15463982589078043,
        -0.9880035381265715,
        -0.014092142954893699,
        0.05045855930894313,
        0.7500457199423144,
        0.0029170066589873428,
        0.060058596927405124,
        0.06148437125262597,
        0.19965242575155037,
        0.16771240826274195,
        0.022914738099840726,
        0.2716274628818458,
        0.32673671306379265,
        0.07255378823791568,
        0.20688614409346814,
        -0.022953174853978252,
        0.725305379028769,
        -0.5663870560500223,
        0.3044969845042146,
        0.10332041439640405,
        -0.08339120025485083,
        0.1351013175737306,
        0.035073481989517825,
        0.24614802734072797,
        0.29804491096467534,
        -0.3227087110480471,
        -0.06679587720696654,
        -0.13317907642432011,
        0.2713275781393386,
        0.10055066610478233,
        -0.058625723128824234,
        0.08185987736582401,
        -0.0523809332885767,
        -0.3665113475390561,
        0.38472475284811963,
        -0.2983407165898621,
        0.10741779860105702,
        0.32916180585805627,
        0.2959993176789456,
        -0.36925134340220095,
        0.1179117564446411,
        0.38021020462871347,
        0.15249951168293854,
        -0.3053950092641564,
        0.49589934329328783,
        -0.491647817902857,
        0.13949419740904337,
        0.05435716849736288,
        -0.5715795588658308,
        0.6543941464711905,
        0.13908977245801266,
        0.34704542642641123,
        0.2312011643545645,
        -0.20857340055895612,
        -0.07112692485514731,
        0.14096220775743615,
        0.007510945931034819,
        -0.034042487215440016,
        0.24782948720449194,
        -0.2128526955944701,
        0.26467837102495556,
        -0.3160792303661557,
        0.08361231830299466,
        -0.19459073965492252,
        -0.16475034158930002,
        -0.7905080815692712,
        0.15522947716722532,
        0.0022831551282093128,
        -0.25805293703417354,
        -0.029144757237449543,
        0.081541563302538,
        -0.10510401586241026,
        0.17518111913737358,
        -0.5126461184691639,
        -0.3645708013019968,
        -0.2835147095455686,
        0.486373196966243,
        -0.09184669726793959,
        0.03589828385300963,
        0.08757364750850131,
        0.10927378553265382,
        -0.6084587076262417,
        0.4652228852388355,
        0.39360393869826493,
        0.25736423327710156,
        0.21412710522037143,
        -0.17511350369179415,
        0.26278536639114825,
        0.13585495158331462,
        0.19571083506426956,
        0.1376939261386272,
        -0.07975659095779489,
        0.18127776046539076,
        0.05110019924690095,
        0.028726692673880724,
        -0.16498637126058618,
        0.12528847505733448,
        6.3456948408324e-05,
        0.03314916822245353,
        0.040174599675193205,
        -0.44566241499382636,
        0.5387026605221864,
        -0.018479172865422187,
        0.15716449622889858,
        -0.10505002103397847,
        -0.239259610405748,
        -0.05165840286649582,
        0.096740940964064,
        -0.2021980945179366,
        -0.03497447282011522,
        -0.001002566531585739,
        0.29604951374784944,
        -0.30077602575911394,
        0.18637138043170162,
        0.2302329700839329,
        0.18304988217327003,
        -0.008429406629227549,
        -0.0313586092754375,
        -0.09769705360445596,
        0.1413910927908472,
        -0.0758198804543926,
        0.0886486162994308,
        -0.14407251471130128,
        0.32161310732560605,
        0.47166543690918356,
        -0.34669019182243843,
        0.22561743372784554,
        0.0005198306152031599,
        -0.09187304203250171,
        -0.9236681712358771,
        -0.21113743279140454,
        -0.4067197179037889,
        0.3460196183068247,
        0.02475864707124146,
        0.1955399302919529,
        0.13081546038817632,
        0.011852168792628287,
        -0.1196677196210518,
        -0.3672062360792762,
        0.12994531396338418,
        0.2695847528780252,
        -0.18484945892065732,
        -0.013390018518666814,
        -0.10654560375866572,
        0.14060152991353564,
        -0.705508367640635,
        0.5656895826822536,
        0.1563881180058441,
        -0.36361185256764367,
        0.15134848062468412,
        -0.011162271459543882,
        0.016746455500702136,
        0.02030390312914614,
        -0.5364427727325795,
        -0.18702060834903006,
        0.05544810220022323,
        0.38123677027359393,
        -0.3665233007967826,
        0.13514206732273784,
        0.2961837621709486,
        0.03065684180753466,
        -1.781901964492452,
        -0.07626063849644843,
        0.020718682577647723,
        -0.3404219630055876,
        -0.3008634673885087,
        -0.14582023461756777,
        -0.9383064601631461,
        -0.27136194144381365,
        0.052841136819494657,
        0.46287410951121216,
        -0.4134669821210113,
        0.05643288565175702,
        -0.2668744485663538,
        -0.004405674059998612,
        0.006574738427161922,
        0.5388876684169841,
        -0.4932772238826195,
        -0.03189449260575775,
        -0.1209916989542061,
        0.19431846221212373,
        -0.05650317457959309,
        -0.08770858220359942,
        -0.1350792603570894,
        -0.021793432603777193,
        0.06916900827597192,
        -0.061589995086713895,
        -0.5914408008106574,
        -0.3268317707133536,
        -0.0030039473538083054,
        -0.031094715801541998,
        -0.05657145041104708,
        0.18557230532339306,
        -0.06200043931145055,
        0.03751098549707632,
        -0.13438022199639937,
        -0.06256454825090113,
        -0.3647521860808562,
        -0.1803085025033929,
        0.11457518514788656,
        0.11602785059284343,
        0.24078130448573276,
        -0.006279328606942088,
        0.08647905247736543,
        0.04445803210697805,
        -0.18592222004561712,
        -0.049101356511351994,
        -0.042712580609619785,
        0.15259109570713225,
        -0.2373145712175444,
        -0.2866302342104945,
        0.22275753886392713,
        -0.10700120001427793,
        0.19523573320329604,
        -0.0049220738405054264,
        0.09471705523711486,
        0.07348948207912859,
        0.05778891794047786,
        0.028919682370294793,
        -0.8873658623077244,
        -0.10129032949565894,
        -0.01177391077682825,
        0.06964405020451143,
        0.03005947988863832,
        0.0015186389264339112,
        -0.052648980920869747,
        -0.19568547514477805,
        0.10655913954224468,
        0.026159137103185202,
        -0.1847013008446229,
        -0.1084598757398776,
        -0.12558034922641464,
        0.0764693790220064,
        0.342408107852167,
        0.761891344090921,
        0.14698512363340277,
        -0.1410134543669285,
        0.3932752809651269,
        -0.252142815134687,
        -0.2675032189959866,
        0.3197590565159334,
        -0.2717912205185153,
        -0.17823254946693257,
        0.01754347652164044,
        -0.10622353391736065,
        -0.16013183196016928,
        -0.2500001149971132,
        -0.3418635319429424,
        0.3086377168828359,
        0.14476396137553676,
        0.23654095723514454,
        0.15404781009328833,
        -0.5589826786861143,
        0.07203472803001937,
        -0.04462750279189171,
        -0.2773107817265704,
        -0.33149764253616193,
        0.4284715671330185,
        0.415789398314123,
        0.1683261736720546,
        -0.36835348214841235,
        0.08733971342643909,
        0.06807742027007009,
        0.21881836880439848,
        0.016122639351851754,
        -0.17660322434048062,
        -0.16847872468394612,
        0.3796850169422543,
        -0.10238623658231995,
        0.026137856634108364,
        -0.18275703076361188,
        -0.2550280212948109,
        -0.26026578891319513,
        0.5153461030874706,
        -0.4643523690973303,
        -0.18441428963282572,
        -0.12091194595406314,
        0.02023902870477731,
        -0.012210471467953156,
        -0.19435848054845295,
        0.17482228612170364,
        0.022046401412020064,
        -0.02547548190372177,
        0.16920196178776398,
        -0.22680633411370957,
        0.15323974160486753,
        0.014816912310132878,
        -0.21362624090721352,
        -0.19919468998728682,
        0.07672047699499833,
        0.3731388455881404,
        0.39485567376207836,
        0.2122039308569159,
        0.16434263411350844,
        0.34997903139987274,
        0.39049240736565344,
        -0.10711125310292757,
        -1.2678873895520497,
        0.2149430786811951,
        0.2663338313241572,
        -0.013423676364233859,
        0.4959019947172362,
        -0.07395859939839662,
        0.22614005538342352,
        0.5115126524569037,
        -0.7279025631915798,
        0.07183111746225604,
        -0.005252698462247704,
        0.24408149998110718,
        0.13968173067883988,
        0.11223388185711726,
        -0.12284352292131658,
        0.11735140492921962,
        0.17304898511136932,
        0.3705390908536117,
        -0.5901149547136276,
        0.07382413509280572,
        -0.07096554230691388,
        -0.13426484043526588,
        -0.01803830860331293,
        -0.12246537447454336,
        -0.1376832658148856,
        -0.10927247395704609,
        0.06733695142166647,
        0.3692289427781643,
        0.04820709393654955,
        0.012023034536453621,
        0.19951386164036378,
        -0.10985114359315779,
        0.19472053051945262,
        -0.045415409619747216,
        0.13450504482198955,
        -0.17817475453071488,
        -0.032139406452784305,
        -0.19919367160209464,
        -0.1727395955053683,
        -0.24488089250945164,
        0.274637106438733,
        0.07366479300117354,
        -0.05714406627484848,
        -0.06291307731094554,
        -0.016571063508230947,
        0.2218967087179317,
        0.25406307473730627,
        0.11704506742646661,
        -0.27925628015209725,
        0.00400739843964428,
        -0.27395185146022255,
        -0.12240151173549851,
        0.1459433730818323,
        -0.11058000874331611,
        0.25049746555427277,
        -0.012350617813637865,
        0.04625961743289582,
        0.21454256193774823,
        -0.28640702549372693,
        0.1459167114670045,
        -0.021453729636503882,
        -0.263911538420982,
        0.02921054894001687,
        -0.04552970194328589,
        0.24394862710309592,
        0.06887842864347676,
        0.0103487632081863,
        0.32801182135349577,
        0.00471049785614135,
        0.04348072748109683,
        0.048279422710428066,
        -0.6197090149462541,
        0.2638073805135196,
        0.373069830877269,
        0.11831661308171218,
        0.18511975747193235,
        -0.18009787153496334,
        -0.08270368665285802,
        0.19704522126532,
        0.036104773259158104,
        -0.22372010812057935,
        0.24726496965696917,
        0.013760930340110201,
        0.4429928082723988,
        -0.17584413077449432,
        0.2746216720534462,
        0.1701993716243906,
        -0.1195381865097135,
        -0.6209246795231838,
        -0.3423818937320927,
        -0.5181768471572054,
        -0.24354348041146312,
        0.10969351861580197,
        0.2346394305728082,
        0.2537879346453136,
        0.05287409246848681,
        -0.21324063803294527,
        -0.33187172827045436,
        -0.030655322912435168,
        0.4137134394606828,
        -0.39419054605687887,
        0.0835009329058932,
        -0.11629189644727582,
        0.3450859149421772,
        0.29026655688282815,
        0.04866913256806852,
        0.4528090774713933,
        0.20754974804760137,
        0.1143357299349385,
        -0.048573737739860574,
        -0.11151832470579945,
        -0.13574105086111554,
        0.36447278944701905,
        -0.08083754913321768,
        -0.24259629612644734,
        -0.3798592512984653,
        0.16528427077521296,
        -0.11347328913481047,
        -0.4280765736053689,
        0.21744762897909475,
        1.1405764368214522,
        0.3009198413894927,
        0.6011046554172806,
        -0.04340821525819434,
        -0.04466679757123013,
        -0.1851973438430281,
        0.35742433607102975,
        -0.05200723707810291,
        0.6087188664060964,
        0.08319109424674927,
        -0.16873576701651688,
        -0.49696594445084114,
        0.3195855810246232,
        0.17322446466232463,
        -0.25484021752594377,
        -0.8968614712782564,
        0.39646780240621954,
        -0.3382904886345089,
        -0.38145710947327477,
        -0.251248921831765,
        -0.06015847302157894,
        -0.17798927171945525,
        0.5132647865200552,
        -0.037073296629108764,
        -0.29875750933609374,
        -0.06170709231917238,
        0.20150224215452078,
        0.29848243103695893,
        0.12222635492223866,
        -0.01365214914069855,
        -0.03788242284572652,
        0.06355909058234957,
        -0.3508468139628284,
        -0.4389197218287237,
        -0.04828821096527304,
        -0.06027703162432025,
        0.2559650378622533,
        -0.18286666568105817,
        -0.19883080660473393,
        0.3330026151223752,
        -0.08192805748996901,
        -0.3017734485013188,
        -0.3003624898021248,
        0.08148648561396485,
        -0.04895993031625318,
        0.11776756431449685,
        -0.02383421337823441,
        -0.21012943680602153,
        0.5650935458402793,
        0.015950162842308616,
        0.040236033185782505,
        -0.020135720893490153,
        0.12360513525738656,
        -0.05828699519742024,
        0.21356976984702034,
        -0.024187599699333852,
        -0.0663469609159639,
        0.004954651973572843,
        0.1223566971725796,
        -0.1254787253520818,
        0.008809179116817462,
        0.047295808398448436,
        0.06327180628412767,
        -0.049322004233264494,
        0.20699903452264354,
        -0.5349671186180747,
        0.10054769317476794,
        -0.15554910602309532,
        -0.015509776670969134,
        -0.1547972701062298,
        -0.4675983796502941,
        0.19940891432475438,
        0.233595462152398,
        0.15940483946126088,
        0.2501214635756732,
        -0.24453937690162594,
        0.11765198243646438,
        0.14152828225206193,
        0.03900891912891655,
        -0.4527640273987178,
        0.1447526857846644,
        0.24612925489043055,
        -0.00841153435716518,
        -0.06400031670499585,
        -0.17326763287987812,
        0.22333856573645722,
        0.044663899498936725,
        -0.2827687010110464,
        -0.04720703011800337,
        -0.0682712204065194,
        -0.003230434106451449,
        0.5540211802926079,
        -0.6974889227604694,
        0.2588404824737548,
        0.08809891890730426,
        -0.024026772037399904,
        -1.3839521355637145,
        -0.24377685527311432,
        -0.04967209822233901,
        0.18310250431730946,
        -0.15772500649989962,
        -0.15644834378540498,
        -0.01194477176478023,
        0.11381576894521868,
        0.21604122134692486,
        0.5176576090166222,
        -0.3779157474927041,
        0.14793685901903172,
        0.12613001187105802,
        0.05801430957107258,
        -0.1098058941655666,
        1.2224629654101713,
        -1.0609052200562348,
        0.38141160370584165,
        0.10091082164460048,
        0.3159061372815924,
        0.07621162829576263,
        0.01918831586437142,
        0.05158171766387508,
        -0.1087503538511594,
        0.03409045563922445,
        -0.02085945431393929,
        -0.13777552941041082,
        -0.05538547134541509,
        -0.11063993773252374,
        0.09776702375616872,
        0.028185796304841193,
        -0.05776623106581033,
        -0.1549501366484801,
        0.07228543154432912,
        -0.18053026446960166,
        -0.24143620543375285,
        0.26819802352622474,
        0.11450177455952021,
        0.2178140624015558,
        0.12047639765844911,
        -0.8485880357011281,
        -0.383464992614299,
        -0.06327461911582566,
        -0.15844777285901923,
        0.36935070016040916,
        0.204219154930798,
        0.17518672178639258,
        0.3642924968306388,
        -0.45447869649222017,
        0.18295287866956333,
        -0.08770894403218986,
        0.21726664022490755,
        -0.1788036435555013,
        -0.1232271478387851,
        -0.016938391516011543,
        0.03555992051181637,
        0.050393022529095936,
        0.0008709545836916782,
        -0.20861611127490984,
        0.36553295675666186,
        0.08820059607256017,
        -0.23805100935673287,
        0.23923588522332362,
        -0.08537170017049268,
        -0.4723971147992735,
        0.12724369745478684,
        -0.09871098091527084,
        -0.20396310015391814,
        -0.1271928852617147,
        -0.06513788628094974,
        -0.03563867147361066,
        -0.14284985764947458,
        -0.17007126850055665,
        -0.0017479015012956244,
        -0.0771695225147039,
        -0.060566131360682,
        -0.015021222730519689,
        0.05682263535266214,
        0.2662164085814636,
        0.2074956803970772,
        -0.34284999456695725,
        0.1270660120578854,
        0.11344449115325082,
        -0.12961608182999773,
        -0.13357092792871278,
        -0.02345330692554135,
        0.057890204871641066,
        0.12410010505321133,
        -0.26769533290063824,
        -0.03767283464225853,
        0.1443661692831072,
        -0.05040909904153197,
        -0.26100407764263034,
        -0.13624445449139053,
        -0.05813711359481239,
        -0.008726341674353233,
        -0.0898154454833895,
        -0.005610513268340616,
        -0.0940057712691062,
        -0.3806918657173191,
        0.21621931812146547,
        0.3316165821298808,
        -0.16365030033842098,
        -0.017032251344104805,
        0.09359860604842833,
        -0.4420658255942787,
        -0.15096671657856842,
        0.08538104610324891,
        -0.46805427842360536,
        -0.11550569714677017,
        0.06267930853885169,
        -0.06392610568826461,
        0.12363781648583372,
        0.15070741428280263,
        0.28432429282136024,
        0.07157778230553948,
        0.03872961831327313,
        0.02170604504254709,
        0.27133895874349956,
        -0.15586776099146007,
        -0.0620134729726962,
        0.18107999921608048,
        0.19374352140834888,
        -0.30647236754911517,
        0.2537852561366105,
        -0.047856466045839104,
        -0.28095797443108295,
        0.12289752014437309,
        0.7246565665440662,
        -0.13841406222224248,
        0.18336806845733505,
        0.23611267162307462,
        0.023921126914720762,
        0.09859110703363667,
        -0.05078794032075138,
        -0.1950601409320059,
        0.17280044426093313,
        0.27316960031899995,
        0.4155642438263381,
        -0.10967196808067124,
        0.33857555131387956,
        -0.02490182891372817,
        0.13967846483377944,
        -0.4327796308332151,
        0.23960342139325888,
        -0.06786298286574347,
        -0.3089124813128566,
        -0.15189531215046173,
        -0.1183997828282515,
        -0.013350161129570751,
        0.44602959772305295,
        0.005634201733818742,
        -0.28574028650502964,
        -0.06221573558300313,
        0.15972680724631205,
        0.09423133999298294,
        0.1905144932623937,
        -0.31913879304019394,
        0.03580729207050838,
        0.2837830396124203,
        -0.2722193401235817,
        -0.008002079470867366,
        -0.04760847492298443,
        0.13101413405776968,
        -0.2153132196974607,
        -0.374277943742287,
        -0.15676349071704307,
        0.03515245839025615,
        -0.07098907020641236,
        -0.07437400737613085,
        0.043997636360195685,
        0.3416487130534016,
        -0.4955757927882515,
        -0.04574908940376556,
        0.06293908651418277,
        0.04985064175276928,
        0.22020337468463422,
        0.24547725619160796,
        0.49014047826628243,
        0.2427769504768842,
