{
    "layers": [
        2,
        32,
        64,
        32,
        1
    ],
    "model_weights": [
        0.4929872389260465,
        -0.08629943960530351,
        -0.4385387846372454,
        0.14091024685543013,
        -0.5385135055458279,
        -0.08348174276842417,
        -0.18140519361697863,
        0.2536446408936923,
        -0.18415881868224224,
        0.6929470835623568,
        0.17058234132946937,
        0.26187205552133,
        0.40912108407175835,
        0.5048702973683907,
        0.19353661129716426,
        -0.08378356985942859,
        -8.799418272001025e-05,
        -0.5187864218125948,
        -0.006292463999360536,
        0.4854112054626403,
        0.0008933849659277847,
        0.5318942566135816,
        0.24230602411602825,
        0.09880989662191311,
        0.01903708284007156,
        -0.16446022279539468,
        -0.4350604529745572,
        -0.5943576398789292,
        0.05415286938842085,
        0.49923717506947535,
        -0.3723003170574196,
        -0.5807935142282186,
        0.029754024236726646,
        -0.23915673233206472,
        0.13169800651574717,
        0.4478599388921045,
        0.5954630931132835,
        0.3988582282128024,
        -0.21005478525515908,
        0.10204724397698507,
        0.27743636821114726,
        0.5707140221189791,
        0.25426248570757054,
        0.28417093306357566,
        -0.398564335052568,
        -0.17980879244101516,
        0.5375159882928807,
        0.2103774381127565,
        -0.23872399177178352,
        0.546107685066752,
        -0.28578188586098546,
        -0.08871562923157798,
        -0.39111154931922504,
        -0.6594733230991063,
        -0.026218418327629157,
        -0.23796443974761963,
        0.1720534344448208,
        0.4231681742762851,
        -0.03893821627934041,
        0.2047455274580267,
        0.38053612420383354,
        0.10342551097289188,
        -0.13482214286694322,
        -0.15171531684784337,
        -0.1946224116664495,
        0.15784555457401397,
        -0.04115308722072029,
        0.2350937215089175,
        -0.6425093833341519,
        -0.35816934290637764,
        0.10527471121225149,
        -0.02839117786052201,
        -0.23386732354999729,
        0.4300719585832055,
        -0.2703062845083334,
        -0.31410028290543285,
        0.5320112403418015,
        -0.5260685169334559,
        0.07225223481609047,
        -0.24157406014745061,
        0.14766269280623479,
        0.5768718697345055,
        0.1265143239619835,
        -0.41577859811977813,
        0.2773948688329829,
        -0.6823239535055363,
        -0.3402136612296498,
        0.1808731479295534,
        0.06090769973170894,
        -0.34348927960614306,
        0.42810862677294376,
        0.8358312889801939,
        -0.10230899049072253,
        -0.027627264909648678,
        -0.19627709617067501,
        -0.04861984966267605,
        0.07985659780699685,
        0.04369498370366836,
        0.030957759280614106,
        0.17677122450129215,
        -0.13504222961654713,
        -0.2993487498315035,
        0.28466744758281276,
        -0.07136099290151955,
        0.0481469630267845,
        -0.4179182609135824,
        -0.3398719480376332,
        0.0414822845183716,
        0.006609232835625837,
        -0.21785431127285923,
        0.284615427779265,
        -0.16425709965540303,
        -0.12654418049231841,
        0.03766362285901976,
        0.23171810249288372,
        0.19327337330812797,
        0.08289158532799837,
        -0.28175871430326815,
        0.019876271198338687,
        -0.1146721004678187,
        0.013903315798662105,
        -0.21324505604999644,
        0.508590625215649,
        0.008980326608055526,
        0.3963493432143935,
        0.11652192393087481,
        0.3487153923403568,
        -0.1365631650226353,
        0.031632623492529176,
        0.14728270381389297,
        -0.16535314015546254,
        -0.22413387276845625,
        -0.10733541444252702,
        -0.3846764127752171,
        -0.7813484800546471,
        0.14983209851269688,
        0.17361024418547774,
        -0.1075093586595142,
        -0.03810587962209418,
        -0.24997899989685868,
        -0.16784845132804607,
        0.1882062125844751,
        -0.38344995032660045,
        -0.0792122900695424,
        -0.21766065669632817,
        0.07088612803485012,
        -0.10342278678310701,
        0.3114280660371676,
        -0.3529361968842674,
        -0.08624653915759824,
        -0.23467454346205857,
        0.14279390457344568,
        0.2681678470621144,
        -0.06966239825267347,
        0.1136060545447475,
        0.036109327531156095,
        -0.02671105062089126,
        -0.30591706869721547,
        -0.043909317329783364,
        0.19813886332647468,
        0.3066498869132418,
        -0.19478447281386338,
        -0.3743876152422046,
        -0.32239939031536785,
        -0.24575596239645459,
        -0.028666530000332483,
        -0.1611327423562283,
        0.13186830959931486,
        -0.18524884299716424,
        -0.06639292636916827,
        -0.1389261027346437,
        0.06073924711522532,
        0.30530175685128375,
        0.1029144713738011,
        -0.04001223555323751,
        0.10459443480927752,
        0.3837553081482262,
        0.18063107559169228,
        -0.032289947817208384,
        0.09177445692608874,
        -0.07512144357896575,
        -0.1992822130425684,
        0.028728196923522197,
        0.004696773451245829,
        -0.0965530073683141,
        -0.05736890796290736,
        -0.032947494518478365,
        0.06392611903738582,
        0.1450063791394749,
        0.06477806672139648,
        0.19026184601628343,
        -0.18438986316141517,
        0.18887253317219457,
        0.31736282096753704,
        0.19341603117882922,
        -0.04108022224458624,
        0.3840366522835697,
        0.08982774836677554,
        0.49973952921403375,
        0.04455003258949945,
        -0.06647895927793507,
        0.12057062977399663,
        0.02304857166332038,
        0.2684656124727664,
        0.004544322060135086,
        -0.27481120153192246,
        0.3698909000794948,
        -0.1560992382832061,
        -0.11505348924961803,
        0.03860938529628562,
        -0.07011913431084155,
        -0.6659603894005585,
        0.24544027251088443,
        -0.11052096616942698,
        0.3714413244985735,
        -0.13475548885107075,
        0.11254645510153487,
        0.1402153753895667,
        0.043923485695639794,
        0.14868627643403462,
        -0.23433960511368554,
        0.019157314330513885,
        -0.23821341100613877,
        -0.005583840970794029,
        -0.1001354616247709,
        0.08593865008227278,
        -0.05140446208872786,
        -0.06555151212324217,
        0.594539660661619,
        0.34045502246364734,
        0.2641231109463007,
        0.05945494910775988,
        -0.2141517381756352,
        -0.22629841006369142,
        0.5073150072825153,
        -0.1203498485474441,
        -0.07440390568078936,
        0.025166995781102725,
        0.17775238911252644,
        0.07801544895442107,
        -0.30114786362012413,
        0.10307663737367712,
        0.06353894746553779,
        -0.09580050408013893,
        0.002262983445545519,
        0.1327829505500701,
        0.03382319533399283,
        0.18085317163276968,
        -0.13231295622425204,
        0.2502960318870487,
        -0.003721026176682799,
        0.30785328342954155,
        -0.19711506487483682,
        -0.10374516726154824,
        -0.3998569830971497,
        0.09773798986447421,
        -0.13541201837601372,
        0.10931182025051923,
        -0.2129039651623642,
        0.11728912478681605,
        -0.3026925622301647,
        0.4047199590078866,
        0.3170463622043206,
        -0.08797988046868377,
        -0.19824589005048207,
        0.08820571384458026,
        0.09565682274776038,
        0.2846907338212993,
        0.16806546312102094,
        0.04068806468967229,
        -0.015222479517643042,
        0.16086545981025782,
        0.12423284823478085,
        -0.34447860690279386,
        0.07477835245375429,
        -0.16817209184901513,
        0.2043624810375112,
        0.20502301636753548,
        0.02647286047593359,
        -0.1993854925186036,
        -0.18868888157154126,
        -0.045462357210119465,
        -0.1823576956633381,
        -0.2974458484211772,
        0.3693882890014378,
        0.16584789776752643,
        -0.02759332036553509,
        0.2947699174225518,
        -0.32086918615906873,
        0.05366397209797087,
        0.08543847909681798,
        -0.032328718523793515,
        -0.14330991658411368,
        -0.06779903519382623,
        0.24203647063589231,
        0.06249244380084369,
        0.16044851196966983,
        -0.15557007369045062,
        0.3197451359168943,
        0.23138818464594282,
        0.022167027563326377,
        -0.09046133178431795,
        0.28135291013132807,
        -0.14083703397722425,
        0.04918060335060609,
        0.09472351100417188,
        0.10989639689156785,
        0.05047485875002037,
        -0.19745300142277147,
        0.027478517926623112,
        0.1204194975933485,
        0.32783017894921196,
        0.23124861170406194,
        -0.06828639901636105,
        0.11047846059137012,
        -0.0562477829564674,
        -0.257906908661871,
        -0.15069911140493258,
        -0.7560385414271099,
        0.08103854981001145,
        -0.10103598764990743,
        0.19768129139387774,
        -0.17633477048708995,
        0.07430548721176815,
        0.17966761497143827,
        0.05719216755158249,
        -0.21272273406740944,
        0.27460630781689604,
        -0.31190660486493715,
        -0.025286423545412683,
        0.06186633743905808,
        -0.1760668245758772,
        0.14779100398044132,
        0.07483173746623568,
        -0.1725546013179153,
        0.5470733574091917,
        -0.018392239329106212,
        0.0700583559679189,
        0.4481774148657314,
        0.03604114638939951,
        -0.18320274925231586,
        0.17644903192473974,
        -0.1830723214363493,
        0.046725775615395884,
        0.3297141143346037,
        0.33763923108779087,
        0.10662347840759184,
        -0.15165302701968456,
        0.133677540757594,
        -0.08595201094535795,
        0.21300640433387338,
        0.3607946318894698,
        0.27372713282386857,
        0.07314178679445404,
        -0.02881233925576514,
        0.1387065997369757,
        0.41603835745435414,
        -0.06856163560651227,
        -0.2071186721890135,
        -0.15245305232529605,
        -0.15172595852010565,
        -0.03565958418405582,
        0.037634429559905445,
        0.21599506239289096,
        -0.24265542219842173,
        -0.09867638674281948,
        -0.12320205581661457,
        -0.04727864667671604,
        -0.29831555120082937,
        0.016897256527304595,
        -0.10857944399335333,
        -0.11301989542601867,
        -0.14948139750061123,
        0.19642171616984408,
        0.26932788744202846,
        0.12424241957656973,
        -0.022872767058645882,
        -0.30516424946197274,
        -0.31419709013157204,
        0.05089743793395004,
        -0.37174096237782045,
        -0.25532986143007946,
        -0.23773061995789038,
        0.06039455964475386,
        -0.12487048328739225,
        0.12622138362992202,
        -0.2538728576996025,
        0.2879835558298088,
        -0.05255943166705601,
        -0.17800392258449252,
        -0.4779826365224,
        -0.09274133952681471,
        0.06745551710174696,
        0.43268044918425325,
        -0.10952469457980997,
        -0.029174084217541692,
        0.2632413535399742,
        -0.10933617751715383,
        0.031013891230220445,
        0.07188541648592696,
        0.4492173581802225,
        -0.19108192588487932,
        0.15749784731140032,
        0.2494546061212667,
        0.40148911084487027,
        0.06098217624365678,
        -0.46636694405915324,
        -0.22823715144606643,
        -0.5160530374734914,
        -0.35071313244660596,
        -0.34922599870666926,
        -0.18705375685315045,
        -0.03426085846558283,
        0.21437022824715746,
        -0.24826598785373652,
        -0.23424168154162853,
        -0.2593899535066777,
        0.10478108901464817,
        0.1944881780077178,
        -0.2326089254775672,
        0.5650910238698479,
        0.272922496845996,
        0.13452684107915538,
        -0.1269288122375285,
        0.1750895243066034,
        -0.2870572145639313,
        0.03962453784611089,
        -0.007765855562214937,
        -0.0017793574596987978,
        -0.07871571042903876,
        0.014826752978479718,
        0.091493308529745,
        -0.4468517060821149,
        0.11083715405725834,
        0.2240166795258556,
        -0.13225656290336063,
        -0.21504517403625462,
        -0.039034719024836524,
        0.0949221936453692,
        0.29420187403779685,
        0.05186497277078533,
        -0.07998577051625241,
        -0.1756697882135962,
        0.24969603991786404,
        -0.2675877600918863,
        -0.02360056566795343,
        0.03051832573946362,
        -0.11204181488628473,
        -0.35225263498033693,
        -0.19616980718669272,
        -0.18409661903130425,
        0.32128655786457805,
        -0.011428578364672471,
        0.059809328849836134,
        -0.4900415071671486,
        0.03984471182591893,
        -0.06276729144648673,
        -0.08847823982571357,
        0.06702003784077848,
        0.12720971522976493,
        0.07465450611600397,
        0.13770725477707535,
        0.023315588615244565,
        0.20158667476972716,
        0.43132666743932585,
        -0.1768991353922646,
        0.08037193656627034,
        0.15525155509352484,
        0.27216013900165187,
        -0.09251111432880908,
        -0.0632318780508086,
        0.09752443986901971,
        -0.0018705815765487103,
        -0.03527071569594543,
        -0.095100549130685,
        -0.24564107712768243,
        0.10586175643197235,
        0.3097098761134506,
        0.07832797831192935,
        0.017576185772008465,
        -0.24415007278590053,
        -0.20479237429670175,
        -0.1556174352079876,
        -0.38939860008869775,
        -0.3683524309721906,
        -0.2563589961470792,
        0.1100186206977799,
        0.4411206767748307,
        0.014218484306218878,
        0.04150020403264993,
        -0.032357217709798373,
        -0.2665009742724926,
        -0.08558721420179037,
        -0.23906004135997233,
        -0.37719775078252893,
        0.15892682321952983,
        0.47359881889880584,
        -0.12289825049199729,
        0.18667059588279225,
        0.40703442602983914,
        -0.021997168532864472,
        -0.09834034102801437,
        0.26761996428204193,
        0.1163747054910856,
        0.08343619037893016,
        0.09623557877190235,
        0.0949253983425793,
        -0.09761941025771674,
        -0.02750807696812521,
        -0.2727773293845218,
        -0.201314544018463,
        0.1845731030412914,
        0.019601014542176574,
        0.2058813365786994,
        0.2879551828619872,
        -0.10627938753240596,
        0.20020249822329894,
        0.22680543226412292,
        0.4363874722388379,
        0.37020342492256214,
        0.08533940679453542,
        -0.3300407534469186,
        0.12470879877974592,
        0.06524550388646881,
        -0.009343242019063943,
        -0.14134207553341288,
        -0.024736731596691014,
        -0.2389632807113396,
        -0.3406289035086709,
        0.25898986593413886,
        -0.08067107516379676,
        -0.23064819577275364,
        -0.057396915231962164,
        0.03957173505481058,
        0.26001431586811263,
        -0.27146726211925726,
        0.2268685701328575,
        0.1136521379582575,
        0.08938396295927543,
        0.22873871668690712,
        -0.016654542906604494,
        -0.001846474748168787,
        -0.06413714615975805,
        -0.2029410553008689,
        -0.11648583658446884,
        0.2883889326225068,
        0.32575804790652924,
        0.27436334439190885,
        0.05248281428351927,
        0.1985918096736904,
        0.08312445779753254,
        -0.34234251751683825,
        0.059389030163969604,
        -0.47002153403469377,
        -0.29251245330013204,
        0.2105712755266296,
        -0.2516492507232839,
        -0.023824011572990487,
        0.03169671609199503,
        0.06933587725294794,
        -0.21941258968833782,
        -0.18716645134850995,
        0.1429946269160723,
        0.10771859681491495,
        -0.1259016415714221,
        0.45531819824402997,
        0.071512076314381,
        0.169024374781256,
        0.05200198023113374,
        -0.29474064733766686,
        -0.04124223783885587,
        -0.11524558868533095,
        -0.1065050737479278,
        0.08956373017816206,
        0.0660613516664161,
        -0.04987373255927843,
        0.13401620824892846,
        -0.22924287064232216,
        -0.12853943068614757,
        -0.03803776106091735,
        -0.16869507598908748,
        -0.11877832246990468,
        -0.1740772394397113,
        0.08485460277283136,
        0.11973939176868453,
        -0.031065884741814556,
        -0.22459070494004754,
        -0.23723728397165944,
        0.3219647248049359,
        0.2705144995961287,
        -0.5188425632992347,
        0.2890587442809651,
        0.18613514812898352,
        0.39269116068537285,
        0.21528516158765804,
        0.6183300721890292,
        -0.19430504856381556,
        -0.22609094986186926,
        -0.3193813943161254,
        0.09579918469510157,
        0.1938553718793633,
        -0.11228544748678691,
        0.23018495447088616,
        -0.030812249653031462,
        0.1459904401267787,
        0.06763285165504664,
        0.12106034249206092,
        0.23934766566641544,
        -0.23041080639555991,
        -0.1655389016635882,
        -0.0738551532562317,
        -0.07303695828969249,
        0.5747249491453943,
        -0.001918695094957757,
        0.1641253512971374,
        -0.1515368539967803,
        0.24913099397247795,
        -0.2507913626715467,
        -0.104327046224928,
        0.07411160810510982,
        -0.09412811575290207,
        0.06846261385731287,
        0.08335787340875268,
        -0.07702312597934356,
        -0.013080858123691199,
        -0.10670765737723671,
        -0.08902299231556526,
        0.12465120236194861,
        -0.04419564633642695,
        -0.01990799734646045,
        -0.04460955356287382,
        -0.0008451212453016761,
        0.32013994921117667,
        -0.09562309367118656,
        -0.0833895514006214,
        -0.019206059099065344,
        -0.24342130394993303,
        -0.19992075955703198,
        -0.31069905227923017,
        0.023385047405725466,
        -0.02059195637109766,
        -0.4184281528768881,
        -0.4139471768679422,
        0.27790321937927914,
        -0.01926876317537402,
        -0.17213169005464338,
        -0.2975656790613688,
        -0.007279746269301489,
        0.04502672210863569,
        0.187703926897117,
        -0.3404896673415172,
        -0.16068906238783606,
        0.22948153555578993,
        0.07718910297471265,
        -0.14813700084041195,
        0.30659691385377297,
        0.20475866930368822,
        -0.007212822966651066,
        0.37711317707653386,
        0.4375979472840738,
        0.2066487432819363,
        -0.14537159997957735,
        -0.08630003114601968,
        0.21013126601896046,
        -0.25964018045606513,
        -0.20792511048168003,
        -0.14923614569669733,
        -0.15307098650129167,
        0.10363004403844173,
        0.20240394042930554,
        0.0991422467827848,
        0.0006067006001932828,
        0.16768476958364717,
        0.1138814813928662,
        0.06896687713575825,
        -0.347605089796086,
        -0.25965248961807835,
        -0.05604625218834777,
        0.10706597686846647,
        0.057770366996855366,
        0.1499852907550479,
        -0.08057029001189316,
        -0.026828631411246563,
        0.1587477601522644,
        -0.13483253063028205,
        0.21341897204844215,
        0.31417778415029524,
        0.05939806042007953,
        0.2179343379658359,
        -0.16974160310544387,
        0.261970393106854,
        0.16872551176149622,
        -0.10292174197999815,
        -0.011685092909116328,
        -0.08031063370034698,
        0.09926593222627707,
        0.14078345053565625,
        0.04421819615873237,
        0.32696168176783125,
        -0.0689949796995752,
        -0.062024179610240635,
        -0.1362585424278307,
        -0.4378776726220172,
        -0.30223701672570263,
        -0.21145953194364567,
        0.01108130221062038,
        0.032183843205642035,
        -0.44896878204209795,
        -0.008297482959036168,
        0.026253910512072303,
        -0.07520523926705452,
        0.14105242774581503,
        -0.1844352462858311,
        -0.321432888598223,
        -0.13740757240516802,
        -0.32781128783145297,
        0.0013573639858009134,
        0.2683185356091801,
        -0.023199571909070404,
        0.175514893361288,
        -0.3581471823401688,
        0.03001991545724206,
        0.05846018079782467,
        -0.005015235611557604,
        -0.13643286299302393,
        -0.14499804987533566,
        0.15886418357647708,
        0.09145665836156437,
        0.4061818998839525,
        0.3596419700382422,
        0.3209383401497882,
        -0.273079869091854,
        0.16448480813980357,
        0.29778185540104557,
        0.2392975126606824,
        -0.038457868279110075,
        -0.2667521263451571,
        -0.027668127276093874,
        0.05321789367764508,
        -0.19191885657182342,
        0.057480530298671215,
        0.14134548306441883,
        0.027565872749846662,
        -0.337121938930607,
        -0.008046391408138474,
        -0.32261158766287384,
        -0.2080867413710447,
        0.23405218007946588,
        -0.08951777815281253,
        0.3614396523658032,
        0.4983327614302264,
        -0.41984459910205485,
        -0.26634779631996663,
        -0.07072064700550361,
        0.026721533173733502,
        -0.3473129575053042,
        -0.08229954552899808,
        0.15996070089409992,
        0.008798502762981317,
        0.3415607381641896,
        0.11032554439664545,
        -0.10132729443015347,
        -0.3371867760080157,
        0.012957544587095315,
        -0.05904062402886174,
        -0.2645490616763621,
        -0.2527120021103307,
        -0.11356574573288743,
        0.35314342448286745,
        0.06558357695806691,
        -0.2547692956088605,
        -0.07711472368640905,
        -0.29690023919410047,
        -0.35379287785110186,
        -0.3822800862986195,
        0.19025620318999348,
        0.09860875550552903,
        -0.10831308067285786,
        -0.15653622558300548,
        0.024750760098137637,
        -0.04859840415135971,
        0.23270522505772592,
        -0.3019635081311211,
        0.30967784295401546,
        -0.016297810157214373,
        0.08638583071257641,
        0.23922008628458902,
        0.5618175482076322,
        -0.1404185743277428,
        -0.2068127389079972,
        0.04616576619420873,
        -0.03239291083383234,
        0.15241173136335728,
        -0.19559911201358612,
        0.2878169855393955,
        -0.009628772018765702,
        0.03268250549631565,
        -0.011071275076790697,
        0.012528035816288597,
        -0.04338215419076083,
        -0.3727848685404214,
        0.1949372286451381,
        -0.015454361555359532,
        0.09354742470619565,
        -0.14910374064426432,
        0.09583659683500366,
        -0.04822500467518168,
        0.020725021636869952,
        0.20366260732303632,
        -0.47253233192404454,
        -0.44435902222203816,
        0.13254808167071372,
        0.15837355110542028,
        -0.15303503394262452,
        0.4013762719213274,
        0.08981682499644646,
        -0.02583092243797656,
        -0.2201521734948296,
        0.11626094518890258,
        0.25510328259691933,
        0.018823538645991587,
        -0.014248431398509178,
        0.07155182964774845,
        0.043046665092875976,
        0.2452035399340982,
        -0.3859121737742513,
        0.06987905860483794,
        -0.10508549474456347,
        -0.16037556058791888,
        -0.06015254219641752,
        0.07469935863759292,
        0.0491559064306142,
        -0.052660335135150095,
        0.0034189594983002215,
        -0.14730162692571597,
        -0.08881749669479484,
        -0.17271320972799772,
        0.12155339931985926,
        -0.5316495111520811,
        0.2520357633808247,
        0.046693491239087954,
        -0.3564959221236723,
        -0.1812068877755724,
        -0.11813269771843707,
        0.2658101548813664,
        0.09319727131511223,
        -0.030635204617213765,
        0.21026910761265352,
        -0.06166368613370204,
        0.11367835943760507,
        -0.08281141226470234,
        0.3602912186052913,
        -0.03890326489085901,
        -0.0744847169442711,
        -0.5392196394548205,
        0.285664765932777,
        0.07065685611540733,
        0.09890524428469576,
        0.2750092033791298,
        -0.060522851014635136,
        -0.0014998794275216114,
        0.21564737941995205,
        -0.12902290098638028,
        -0.1918518357351816,
        0.06109668130040359,
        -0.12895566281757298,
        0.1718629648679991,
        -0.11981912204567005,
        -0.7041434301037178,
        -0.3255131290018208,
        0.37605333667455687,
        0.14149604638458466,
        0.06511651774801396,
        -0.11516857751084343,
        -0.08991370413439945,
        0.3357306468819427,
        -0.017850256551217705,
        0.10812045248038073,
        -0.29801163057316643,
        -0.10557467615675926,
        0.26829293620243577,
        -0.34211238596048427,
        0.1598548931320545,
        -0.030319687244558247,
        -0.2444493787588073,
        0.06919702892868002,
        -0.09396521291250315,
        -0.245760887274521,
        -0.021341500451484075,
        0.16678877096483352,
        0.5164532760834317,
        0.11729960820194803,
        0.46976184563364043,
        0.43626111448571125,
        0.3121059446559251,
        0.09424804796227372,
        0.11703675449841856,
        0.46077001343753565,
        0.23058809457870852,
        -0.5439543289618866,
        0.1063581232131074,
        0.05336544302158906,
        -0.01785603142534533,
        0.2090923950933267,
        0.13644085230105052,
        -0.14354480283885196,
        0.16992048319938902,
        0.3045949594687128,
        0.13954044291537265,
        -0.17417906720088872,
        0.14138486790955004,
        -0.16463151110082647,
        -0.4029015235584728,
        0.36169673050549483,
        -0.2883980480771944,
        -0.18497015766763025,
        0.004860529976012148,
        0.04992008824478581,
        -0.0292010490800521,
        0.05522965342836636,
        0.40270374223649213,
        -0.03443273355864174,
        0.2001615013073374,
        0.0995195690465643,
        0.024984301685057064,
        0.16663036101488918,
        -0.04178993657448471,
        0.14747578019522795,
        0.21244822814322675,
        0.14056820058147235,
        -0.10609664341883447,
        -0.261797696315364,
        -0.09273246333154642,
        -0.0045270031685747305,
        0.1595883102883589,
        -0.3109879067536758,
        0.11347063146626346,
        0.08343533517081568,
        -0.28445687942502096,
        -0.0716788597389396,
        0.0583803810186942,
        -0.2288999054870283,
        -0.2556806126957125,
        0.05989663326650553,
        -0.006150663504424302,
        0.1906219231858378,
        0.06344439302118957,
        0.17633878608107809,
        -0.11939982022487336,
        -0.2890393125012687,
        0.06628050197820881,
        0.005282917760011545,
        -0.22344245569757396,
        -0.14416465747540233,
        0.19250890913624788,
        -0.1522316627020765,
        -0.022740226165550503,
        0.17532788384877707,
        0.457666351429824,
        -0.14301766559536877,
        0.09138468374052638,
        0.05072528884208052,
        -0.37422285321919485,
        -0.17313778129739535,
        0.053053746817059516,
        -0.06039880026828239,
        -0.7138348467815941,
        -0.04717413794014991,
        0.06788686778667787,
        -0.06847563595280662,
        0.008297710340187392,
        -0.12532289394878413,
        -0.10265953463871473,
        0.1924452135377202,
        0.13871568565346412,
        -0.38986679453207335,
        0.010829715651239583,
        -0.03335091187964769,
        0.00924130013531966,
        0.5158240099075883,
        0.09070236831320318,
        -0.2023829240671527,
        -0.20003378626317944,
        -0.10279377914077131,
        -0.11944754011774754,
        0.09548546115745818,
        0.1695101556572967,
        0.11768506759095826,
        -0.09586456885810837,
        -0.003632039313031767,
        0.04357138353886803,
        -0.1573566738380321,
        -0.2890334453241059,
        0.10183203201055673,
        0.17669511562393708,
        -0.05210103457407733,
        0.030885183798045588,
        -0.00370071021813461,
        0.3300990632640687,
        -0.018051349486069325,
        0.22054929571101467,
        -0.26745795631296065,
        0.0711203852375393,
        0.2941209518176567,
        -0.28487043423375974,
        0.11432799791388493,
        0.5533303705712718,
        0.1214725360717077,
        -0.04904873400872748,
        -0.08234780276141401,
        0.1267473068548862,
        -0.48808330959263146,
        0.18962776757148136,
        -0.05870248545807716,
        0.19181386589802482,
        -0.019443137420883064,
        0.19955660395687794,
        0.17460506773152798,
        0.011984687128063765,
        -0.25073171599317245,
        -0.32366721007982113,
        -0.1496650583941722,
        -0.2750526223354064,
        0.21361654573964398,
        -0.16475412343427212,
        0.10803807015774805,
        0.0914094950279556,
        0.014360841983707812,
        0.17277706171946666,
        0.06562843131396118,
        -0.07036482811779168,
        0.5429331988178231,
        0.06545018420665102,
        -0.05981797624681202,
        -0.022093735540532854,
        0.06132233408840034,
        0.18615416515029365,
        0.1241681647922021,
        -0.21196580625497607,
        0.40772967777671953,
        -0.10277896914215548,
        0.03358639090336045,
        0.33120179233518104,
        0.10408917414434225,
        -0.04600653875878523,
        0.13960945060197036,
        0.11495337475730517,
        0.14524687699835198,
        0.011692623978334501,
        0.10690134466175548,
        -0.10780128159711123,
        -0.18110357450940803,
        -0.2044854159176009,
        -0.06638426914450438,
        0.4073304347492351,
        0.08614538884059797,
        -0.21768088086221712,
        0.2982829747777853,
        -0.014752533689004239,
        0.20311923844937055,
        0.35087360426600483,
        0.28820812978427646,
        -0.036350526075793414,
        -0.054097947880024304,
        0.1094656081209742,
        0.06441316610390256,
        -0.05874145844277462,
        -0.13763753330322737,
        -0.08612947770861122,
        0.061176423728140666,
        0.3425464459134909,
        -0.023627262918132705,
        -0.11241523959932692,
        -0.015135492802314349,
        -0.0024070563183984576,
        -0.11192764804913262,
        -0.0056900875794493,
        0.20083096631560163,
        0.14891659247441993,
        0.09645510525345129,
        -0.08665291121956688,
        -0.13436374316116184,
        -0.01915088992473705,
        0.1352176118120991,
        -0.13080182178499097,
        -0.22288281090047235,
        -0.31992428812170565,
        0.24716613308469845,
        -0.2562399826147998,
        -0.24461597989714137,
        -0.12812432531224885,
        0.2966691439399216,
        -0.07720568188849647,
        -0.22142491273568451,
        -0.22396824584239497,
        0.168150163665811,
        -0.09343858396051224,
        0.15444484091658592,
        -0.30212343644741974,
        -0.07807250276372213,
        0.25406367089570386,
        0.18607503393825625,
        -0.37463306540035957,
        0.3757619986818507,
        0.1838958682294743,
        -0.17751058844960638,
        0.39364085407225874,
        0.42114119836970737,
        -0.02763554742993679,
        0.1455507840316461,
        -0.22810217142336858,
        0.28336305709102194,
        -0.1781120274420292,
        -0.061134051960864536,
        -0.36560289846498484,
        -0.09359442684812008,
        0.14691514434353833,
        0.07000375523965986,
        0.20489266951680363,
        -0.01669368885360437,
        -0.14703505581900436,
        -0.004812973921821624,
        -0.12558388264574918,
        -0.23711944872183827,
        -0.477236007678921,
        -0.010250991368016802,
        -0.03585181500357911,
        0.23008672267153135,
        -0.36251949378481274,
        -0.04179347422085349,
        -0.04718660142942982,
        -0.047540409206832404,
        0.07581692257819167,
        -0.1275972279771762,
        -0.14528564588056908,
        0.19268673934304462,
        0.1891191927954987,
        0.17053230856766155,
        0.03447232116684052,
        0.1528011190263024,
        0.08590246934155864,
        -0.005169835848045487,
        -0.08143981697158238,
        -0.07647639531498221,
        -0.10610167937468025,
        0.008908645645858743,
        0.1623898864919633,
        0.12739957105896774,
        0.18363942780852258,
        0.1805065980704947,
        0.2479842476699841,
        0.13440535363542724,
        0.14658123836992848,
        0.31878421474481167,
        0.19668392703379384,
        -0.33969609481516255,
        -0.054983147406655684,
        0.019747536854363833,
        0.4379195640538553,
        0.06663384807773028,
        0.036657095419579434,
        -0.2866745485865254,
        0.19800917457375444,
        0.30701299421398665,
        0.006667916175883673,
        -0.0556384173907745,
        0.02695451369426036,
        -0.3405183168385472,
        -0.5708196468354945,
        0.003463049932418493,
        -0.4704347938026844,
        -0.29675188888052445,
        -0.3236861979161142,
        -0.04235874210137031,
        0.28603027496136485,
        -0.12311349521140631,
        0.059859709045508434,
        -0.028332584479582566,
        -0.0443013413876539,
        -0.2462176343559412,
        0.07299564303755646,
        -0.23676871513659387,
        -0.06630674777308156,
        -0.1467070379010835,
        -0.15012172357815137,
        0.03373834867190343,
        0.021553702632446697,
        0.14451330734240997,
        0.033337506659844404,
        -0.033362234818595064,
        -0.3364181992740035,
        0.1251299394511401,
        0.09720028002661489,
        0.04278627764460052,
        0.28401409063275873,
        -0.07310550763680163,
        0.12191161581805156,
        0.17174717674830473,
        0.0649979127362295,
        -0.19756577987001162,
        -0.101070953223487,
        0.06284726050616961,
        -0.025119448007612077,
        -0.015797053076127984,
        0.40473256042595596,
        0.16494214957795625,
        0.10313536224332477,
        0.06054809162605458,
        0.15459560389727392,
        0.5368583966570084,
        -0.0244164631138594,
        0.2834726703639065,
        -0.2739726098773289,
        -0.3345634218996432,
        -0.5309309862490815,
        0.2955180124484148,
        -0.21217869094748518,
        0.21593127434739243,
        0.15253863185595568,
        0.2795404213210266,
        -0.08601359300393913,
        0.2602576446889495,
        0.5405186754016007,
        -0.061035608371859416,
        -0.09893928784616804,
        0.05245316151593905,
        0.35215153903211965,
        0.24068040387783535,
        -0.003320409272844565,
        0.02536621435002518,
        0.008697526570183838,
        0.5949820541922677,
        0.07944020548372616,
        -0.16776016584390854,
        0.08760995282884208,
        -0.045789932617051554,
        0.5099790875612038,
        0.0779492592626981,
        0.36262854458996135,
        -0.008899515374980895,
        0.042060241075601856,
        0.0040896529216978275,
        -0.18696684824715298,
        -0.06940529620479269,
        0.12976363151048162,
        0.09883946146473706,
        0.19120798949883586,
        0.1162013260959534,
        -0.2626034397170708,
        0.015361431455239613,
        -0.21236422191120247,
        0.08940683722582901,
        -0.4553248002330689,
        -0.03724022519559005,
        -0.09038232742444684,
        -0.191725079393409,
        0.07619450814534748,
        0.1623654130350677,
        -0.18783132169055597,
        -0.042774476422394035,
        0.39733708696886616,
        -0.06997886414074975,
        -0.05734432339814832,
        0.06967053321871948,
        0.11669619295395466,
        -0.2420314697864106,
        -0.10523815119130112,
        -0.0696968613032826,
        -0.2099419108008499,
        -0.017658268583502182,
        -0.00569485166559213,
        0.07083286081556421,
        0.1386548596929775,
        0.02458197962375869,
        0.22456209252979797,
        -0.024394986340575273,
        0.07249905075936064,
        0.21490813089093375,
        0.032445332737360416,
        0.13965726515497784,
        0.20287181475520216,
        0.05285224574327626,
        0.25453380019436533,
        -0.22929748786994647,
        -0.16183521978888063,
        -0.05215734734877846,
        0.3325370659963236,
        0.20623397268862037,
        -0.003910140615214917,
        0.03747088013089986,
        0.2358104420557012,
        -0.0711120384452287,
        -0.07094408278562932,
        -0.00389920223284377,
        -0.19791064784657608,
        -0.148946344185035,
        -0.3372587917666023,
        0.11328851639683485,
        -0.22329958073654316,
        -0.4444365359246411,
        -0.2296027274947131,
        -0.07152185747433933,
        -0.12735531002605072,
        -0.11809728260600923,
        -0.023519557622578863,
        0.13264908814001733,
        0.3537733503570556,
        0.10144861786776029,
        0.013760114054243194,
        -0.1094622426834273,
        -0.14353264665600043,
        -0.08094291443764765,
        -0.22972795160569864,
        -0.17382494067918694,
        -0.2111881522254034,
        -0.22915286224280093,
        0.018782113075750152,
        0.027597108997482533,
        0.1641346450559612,
        -0.19597332941596354,
        0.053095173305068535,
        -0.06947078182619695,
        -0.3398815246278782,
        -0.08438805340636404,
        0.05434351104096365,
        0.02771377692183975,
        0.10672008293933531,
        0.09254929155812337,
        0.0412958344685257,
        -0.2027459720211709,
        -0.024452517437230162,
        0.09482029816225106,
        -0.06348407435366854,
        0.2669824840752979,
        -0.10574222452578812,
        0.11194445829687065,
        -0.15075936741451407,
        -0.51283004548481,
        0.36318112414129794,
        -0.07637016282727682,
        0.2135953406032111,
        0.1504123431242828,
        0.6603802240130655,
        -0.4335543662255967,
        -0.1447539377174525,
        0.1157185667072609,
        -0.07136911429847087,
        -0.0781893978184157,
        0.14822170806721854,
        -0.15620160806089603,
        -0.31741117952802955,
        0.13535825116749442,
        -0.016187259372567448,
        -0.1364601281244525,
        -0.19364948859052197,
        -0.14697216636073313,
        -0.015728659726359284,
        0.16040767163757846,
        -0.04858148079619311,
        -0.3633294819943252,
        -0.3129801824500826,
        0.15908634857284423,
        -0.20400145786897467,
        0.3751531582453629,
        -0.3544372418641665,
        -0.15985936601743125,
        0.0820440121276729,
        0.08109745578239307,
        0.18743704603634434,
        0.06565769684516666,
        0.40364277995737385,
        -0.11076909572533125,
        0.016920431226917245,
        -0.3011400046369603,
        0.04444411077783105,
        -0.07107452488981879,
        0.05182118016427048,
        -0.16048527192241652,
        -0.13641597357612056,
        0.0034731529062506194,
        0.029431531458027512,
        -0.19147355502154198,
        -0.30496952299475866,
        0.38449979778753957,
        0.12047531278298391,
        0.501031890394788,
        -0.11365098974299273,
        -0.04163195749307657,
        -0.1091168475507059,
        -0.0027679396903756296,
        -0.48638161855762024,
        -0.2866348225138748,
        0.13931913736160478,
        -0.19074886880072559,
        -0.15478617624109853,
        0.1731232186111416,
        0.01969512916736996,
        0.3496773631811967,
        -0.2795005314480352,
        0.1092984192644853,
        -0.18012552875922763,
        0.1470747190646814,
        0.1701954967088881,
        -0.24169906417674664,
        0.12028442069899484,
        0.001979444091070546,
        0.6153782240503592,
        -0.11112894610058399,
        0.07674321266150515,
        -0.03791516634937961,
        0.16363294479103385,
        -0.08300275593353786,
        0.00258460078772606,
        -0.06990758348633609,
        0.09172028390894636,
        -0.30106575365557875,
        0.07896987114793243,
        0.08267515285067503,
        0.16243062144474826,
        0.2639293057827118,
        -0.29011347844955854,
        -0.5166490258484705,
        0.29579197933664086,
        -0.4671308824499494,
        -0.020216789297827657,
        -0.016901436413256744,
        -0.4982168602820862,
        -0.06361202068272234,
        0.23697825723906038,
        0.2643520113394541,
        0.056203750635436554,
        0.05777185010750373,
        -0.2002667154616806,
        -0.14252326767978463,
        0.14129004451986396,
        0.004134180804835995,
        -0.24439133115504688,
        0.1923961763243536,
        -0.05109275907856387,
        -0.10244476014540282,
        0.13409832857578996,
        0.1738952761819797,
        0.215582989082418,
        0.037647945789542676,
        -0.3677035885139889,
        -0.3996126709684032,
        -0.06439153757979763,
        -0.3456437455910725,
        0.04841773682408977,
        0.15831580134898948,
        -0.2759979311228741,
        0.009962113584747424,
        -0.08968096125380316,
        -0.1870082339394017,
        -0.33431547546475127,
        0.03482719485927208,
        -0.10405858133646188,
        -0.07276821883683138,
        0.057735314776257714,
        0.2583145105897476,
        -0.12672900523802433,
        -0.18672647310032622,
        -0.07379134954210621,
        0.02611871596891652,
        -0.15296832337075758,
        -0.3782656242511969,
        0.06172820622432781,
        -0.2004086041874798,
        0.12356749528379987,
        0.3286872150064536,
        0.5510087789911868,
        -0.4437284058582153,
        -0.12785061286200494,
        -0.06777911630395153,
        0.020027799733143763,
        -0.036683210889458286,
        0.016563931609841976,
        -0.3841403695817731,
        -0.650528690325225,
        -0.13771493360183718,
        0.17103518125121392,
        -0.011824534545916358,
        -0.25343553901598054,
        -0.08067039308341092,
        -0.14116544279545787,
        0.2184942013909887,
        0.24952963512414428,
        -0.10502942048518049,
        0.17047035805148883,
        -0.1368674413191009,
        -0.6766122354707172,
        0.058699363985249456,
        -0.14047986962725226,
        0.050393277454282584,
        -0.07095068997556002,
        0.1812257561993133,
        0.17063280946279577,
        0.17870089198720765,
        0.05542192976863296,
        0.1065516903987764,
        -0.09915455289046413,
        -0.11561288558070425,
        -0.07674567497940382,
        -0.26387700341193626,
        -0.16351423781150357,
        -0.0358572110973566,
        -0.20335287009216207,
        -0.16900594920098652,
        -0.28320632132834606,
        0.22678774498280554,
        0.07950595304729731,
        -0.3780989847522406,
        0.020755025282704665,
        -0.2938897435677987,
        -0.42092202600130035,
        0.10673848194438021,
        -0.07929851920206896,
        0.09570741747525735,
        0.1267611035947508,
        -0.03817574605109648,
        0.05259341336715678,
        -0.18703689120653644,
        0.35728677552093274,
        0.384467196233799,
        -0.15448567438430805,
        0.1879670734505505,
        0.07851315608632196,
        0.05568194388786946,
        0.09395510477784666,
        -0.4668736892323187,
        0.3314367117579666,
        -0.10397698873392036,
        -0.11112791022188906,
        -0.24985725312328716,
        0.4683271454368384,
        -0.23019120491849862,
        0.3260190642926905,
        -0.20285389430804088,
        -0.217198593712461,
        0.11686046342225506,
        -0.18344265031850496,
        -0.1674764483176608,
        -0.34801365780026255,
        0.08348896659811311,
        -0.08135087422661416,
        0.11596558646572556,
        -0.14406032066274335,
        -0.2105267100962681,
        -0.07851076844697912,
        0.4276798953895256,
        -0.22659937330463398,
        -0.265237168307655,
        -0.08398765587004789,
        0.20850032652815667,
        0.014895110371332197,
        0.23879306394494135,
        -0.3194159317380095,
        -0.11974345919834746,
        -0.19338901705732361,
        0.30654190134245896,
        0.1474156866735689,
        0.008414498674663139,
        0.15204921088662848,
        0.3233193355500259,
        -0.00013836973516270684,
        -0.06513353908144423,
        -0.41321506563491006,
        -0.010802672625414261,
        0.3097029959635884,
        0.22307122343279415,
        -0.040998281796733926,
        -0.2742900281311589,
        -0.5175310527705878,
        -0.3323488531876644,
        -0.09452260598998258,
        0.31074854467988067,
        -0.08951970063449927,
        0.1193682488893136,
        -0.21531005007907209,
        -0.2654877495333868,
        0.2622051198392959,
        -0.08545948286827222,
        -0.2658187468753192,
        -0.07096638283811356,
        -0.009493422319611547,
        0.1410805735947971,
        -0.01710494720806032,
        0.16833304436958127,
        -0.15479410150347622,
        -0.27271536080530256,
        0.3184586460685083,
        -0.1491057955266241,
        -0.20061460027573635,
        0.15346603951979604,
        0.11593698302808698,
        0.1457832614879103,
        0.3154235627676579,
        0.13800542795204127,
        0.6850434134726869,
        -0.161481974743251,
        0.09597891869007583,
        0.3043270802834872,
        0.10264625984047834,
        -0.12517649301245726,
        0.2036468432933535,
        -0.14613081037013254,
        0.3259285116178766,
        -0.21720815649117137,
        0.038181603295440576,
        0.036497630815898255,
        0.11150032602081356,
        0.32433011751819296,
        -0.0661407348080866,
        -0.38587684695290053,
        0.06642993037074892,
        -0.4422343779159744,
        -0.1641624044923126,
        -0.1357779093246407,
        -0.4455663783832095,
        0.1831666080446345,
        0.064353023600515,
        -0.12420154530825821,
        0.08518099516280309,
        -0.09043828820771971,
        0.031809996452618325,
        -0.024644312303757673,
        0.302397279065305,
        0.07622681230891648,
        0.016107430573426566,
        -0.1028762029262721,
        0.13750770768974935,
        -0.06435046792392661,
        -0.11828250884065077,
        0.21864256736193266,
        0.0553492797432228,
        0.25419798012981093,
        0.37197446951128965,
        0.20787297520226602,
        -0.13259257059143842,
        -0.051101199552068766,
        0.05175668325800801,
        -0.01415549090721571,
        0.34172071256220776,
        -0.14355809933406127,
        -0.197225202836236,
        0.16971797891252713,
        0.20216510743289873,
        -0.25222262077364016,
        -0.26460505218003966,
        -0.0005694882705289143,
        0.12487561460729973,
        -0.2999664523370043,
        0.060714295242610454,
        -0.12300702407079318,
        0.1497832366196617,
        0.4097453237460835,
        0.09907124225547911,
        -0.17879931808867228,
        -0.1842717933706742,
        0.15031569319242924,
        0.033594741236438026,
        -0.15245208961298037,
        -0.1922902425949158,
        0.028012352785294962,
        -0.058158270205867536,
        -0.08767354651959061,
        0.04988762232484463,
        0.03792178226529418,
        -0.24258269005829944,
        0.17170316881451334,
        -0.40129561905055566,
        -0.020885575510421913,
        -0.12301738553871991,
        0.09971203563129431,
        -0.09864042398498352,
        -0.3008817776232596,
        0.17047788978586154,
        0.08633448089127824,
        0.007158320481598486,
        0.2339034737553314,
        0.09414394257160384,
        -0.31095264355481245,
        0.25421318686077027,
        0.05705948393968801,
        -0.058529773560343834,
        -0.15353087535565013,
        -0.06277846218944162,
        0.06158588605763164,
        0.14202283925469023,
        -0.04667994825439634,
        -0.027676475127776882,
        -0.02042452386748318,
        0.29555505737065085,
        0.13447674423669,
        0.08569729438639706,
        0.06460985349456598,
        0.04991652675633781,
        0.08371144683833473,
        0.06251276913422767,
        0.19772165463790844,
        0.8434360683069199,
        0.15934911703238128,
        -0.2145965912100282,
        -0.12103628583811978,
        -0.07573602941158564,
        -0.09506260793513688,
        0.15727403427834946,
        -0.28212510288318715,
        -0.053024354888806954,
        -0.15334482509313713,
        0.15299096723042047,
        -0.12188253038547758,
        -0.29091618902309757,
        -0.027313092805939788,
        0.08144244903079353,
        0.06807586040201163,
        -0.12611024887810274,
        0.34460199126901886,
        0.25812894554814364,
        0.10255170006354718,
        0.1869510840339921,
        -0.212030400243755,
        -0.1024738269568158,
        -0.1080646613919787,
        0.007126709176743899,
        -0.06770168260412367,
        0.0725148842293957,
        0.016451896875114832,
        -0.06296603913006373,
        -0.3567751240379332,
        -0.38872201584964255,
        0.04461527788499284,
        -0.06622192425406676,
        -0.1535550630898882,
        -0.4408570910372693,
        -0.26770007281358604,
        0.006048124936088046,
        0.16570319053285015,
        -0.18009195259238034,
        -0.24394539501871385,
        0.10901931185429974,
        0.1484538873214818,
        0.1747923404936983,
        0.029147176229071082,
        0.4759116006730634,
        -0.30356001273761823,
        0.06524574074459677,
        0.36591145791857055,
        -0.06670139343181974,
        -0.0249393024941214,
        -0.48264201963856374,
        -0.11438656810392235,
        -0.34879445402383424,
        0.22531228635594225,
        -0.2440128755953583,
        0.05016131757544747,
        -0.030867313527982655,
        -0.018318842284808616,
        -0.02487766563854781,
        0.2693062379774517,
        0.10816835216266425,
        -0.06481879770692248,
        0.016114675054273865,
        -0.28552647284250776,
        -0.05575572494069514,
        0.021254758445828147,
        0.12585229564424755,
        0.17584010159349564,
        -0.07762527207069427,
        -0.08358945931887206,
        0.3428961853763889,
        0.048143471020191786,
        -0.058389461607657615,
        -0.040391150595103946,
        0.16413149029976973,
        -0.05276927464790611,
        0.061124383207959966,
        -0.009806716697169749,
        -0.09434173237064913,
        -0.23613567865017807,
        0.22642510059005796,
        -0.3120815123952737,
        0.36503282938996834,
        0.14941004167315428,
        0.10546960089881555,
        0.3915326987598509,
        0.1706928363789968,
        0.352466251593391,
        -0.09685891921742185,
        -0.2162138618666067,
        -0.396985299264934,
        0.11884214859517249,
        -0.09151648100604005,
        -0.23789263439169378,
        0.0762215378743553,
        -0.030626404620669335,
        -0.18787676035330897,
        0.25621663260622757,
        0.7702609706774814,
        0.1449425210949892,
        0.010117442895143842,
        0.09684628790326588,
        0.10596284662484498,
        0.009977450157932015,
        0.07789734804982655,
        -0.36287301190897847,
        0.06373213929094977,
        0.26555382752681816,
        -0.0026604393967564885,
        -0.14330993616775284,
        0.07259528947729538,
        -0.5216350178876201,
        0.06711085031403553,
        -0.07371395343375378,
        0.36627695383499836,
        -0.10762197786468808,
        0.04927423225722402,
        -0.039818933935457566,
        0.12943641641484077,
        -0.14956613874327238,
        -0.11621034896674762,
        0.0665532953103291,
        0.031698132186396166,
        0.02806518441718447,
        0.25583387356330334,
        -0.15684012020680888,
        -0.06210335769687058,
        0.1359071862437811,
        0.19279367942496428,
        0.22219474700415998,
        0.31622445882875294,
        -0.005104040559035814,
        0.13955198826560825,
        0.03654854724938117,
        0.36837420106046403,
        -0.17332416800092879,
        -0.052902909523427355,
        0.0926492883959513,
        -0.1270814345301267,
        -0.07992099145939122,
        0.19426063087553408,
        0.17648870853743537,
        0.19548882525691277,
        -0.07685279351050266,
        0.4793503788612238,
        0.105797240450375,
        0.043587492012197665,
        -0.009983059119034654,
        -0.09605996994367326,
        0.4959847138180435,
        -0.23055700229886214,
        0.05221704172640987,
        -0.1853815730013353,
        -0.0525802181708708,
        -0.5896746982723745,
        0.07816169264546266,
        0.019431427957703803,
        0.127011683237805,
        0.23115224896152686,
        0.1897962204461675,
        0.15645643083702881,
        0.20454183962692174,
        0.6919783551929638,
        -0.02215776835322856,
        -0.07186466324124884,
        0.11842751551957281,
        -0.012485014630524526,
        0.06429371756464652,
        -0.16061991226961334,
        -0.43815859190295375,
        -0.007787587394184777,
        0.257036670339395,
        -0.17402160051235113,
        0.007205932559804549,
        0.2878747670414387,
        -0.4692069630210315,
        0.24199145731257662,
        0.04693030037656275,
        0.03476394719460009,
        -0.11783153995526198,
        -0.3808705399157145,
        -0.2434509251835761,
        0.11949573242991064,
        -0.03467898121344463,
        0.2544963692103855,
        -0.10556186156334044,
        0.14172327528305262,
        0.33034208448583824,
        -0.6606197809877848,
        -0.01684961183449492,
        0.16645122898968628,
        -0.08859174190987339,
        0.18035018564388924,
        0.21256636423191863,
        -0.04014052597773697,
        -0.326727097776983,
        -0.020494689771237435,
        -0.38733293118338347,
        -0.011257866387166941,
        -0.0236574364787237,
        -0.14015469931562208,
        0.344250674020343,
        0.36225676072576024,
        -0.12498548767654383,
        0.21466999737952933,
        -0.08962367224976395,
        0.32120513276014245,
        -0.07310514544720793,
        0.07614954629189992,
        0.04263196805169013,
        0.12687130945358815,
        -0.018508277650508085,
        -0.009615077148314971,
        -0.07543364513290626,
        0.24375443095667518,
        0.004426101028610819,
        -0.005472489050974734,
        -0.19455206036086162,
        -0.7404015981925324,
        0.12856406495090333,
        0.19240569335899785,
        -0.14032185950405657,
        0.05665026960380029,
        -0.13720761067093476,
        -0.0876149337423007,
        -0.12457418748779123,
        -0.15497932353060667,
        0.38025474403517096,
        0.09242481729493157,
        -0.3096302593382202,
        0.05519152096386944,
        -0.0017068070237081358,
        -0.13100519542671343,
        0.11376479512427093,
        -0.10465096129538998,
        0.4187636476755968,
        0.03034335404674687,
        0.1438989668180432,
        0.4776682343608814,
        0.017292531878942523,
        -0.22959356923204766,
        0.11909143759842933,
        0.002271708924775283,
        -0.047107045216169194,
        0.21508900246943202,
        -0.09526852083878423,
        -0.019148348951813436,
        0.024802646391943746,
        -0.11978181488742215,
        0.06050902010061671,
        0.14272373060755666,
        -0.09709491892332826,
        -0.2956188154722624,
        0.21559358973971307,
        0.07319085322956584,
        -0.0859675731532036,
        0.058987041400677266,
        -0.11936269247445105,
        -0.05510299503676525,
        -0.12685730718062022,
        0.3131414548347718,
        -0.022633133669250533,
        -0.29502672321302564,
        0.24136216691934845,
        0.18503445462941998,
        0.1750190348923694,
        0.30794045979351203,
        -0.03501624766712309,
        0.08005765184162575,
        -0.14987005476123796,
        0.22780925689656212,
        0.06928229137310926,
        -0.004398386513630231,
        0.003670589949611074,
        0.26383301307141493,
        -0.032394221052791716,
        0.06900517258058261,
        -0.30413703220559146,
        0.17315034314965677,
        -0.12099511924035306,
        0.11639502069031889,
        -0.1837755835145496,
        0.1919423500665967,
        0.10246759716390176,
        -0.19150167653141692,
        -0.11938400127683275,
        -0.4516967657828589,
        -0.24216674715731631,
        -0.09926320541267114,
        -0.0938859146722903,
        -0.34866660023102997,
        0.2982804824317963,
        -0.2500985965484645,
        -0.28660080872996474,
        -0.30269427819515793,
        -0.18263342643218716,
        0.2402597359515263,
        0.1297963975931015,
        -0.15443861520841978,
        0.1580316927048658,
        -0.13232187622134342,
        0.1819510629219091,
        0.08705698837607533,
        0.36999852145125844,
        -0.1367207362952667,
        0.01041751530603828,
        -0.11455400569832923,
        0.14777998327562955,
        0.426408768677287,
        -0.29041265256294957,
        0.32659777203422297,
        0.1300955254784229,
        -0.025636917289114373,
        0.03728535918108894,
        0.3613360494400006,
        0.10303070534401136,
        0.11480768989171233,
        -0.07633260036609417,
        -0.20042331009341638,
        -0.1539253454642076,
        0.10627085098755296,
        0.2483314528229457,
        -0.26380554171549514,
        -0.05138367297698711,
        -0.22554549862520992,
        0.4110630619734251,
        0.013048675039848913,
        -0.6429800301373216,
        0.14947484264391822,
        -0.23795762229326545,
        -0.6147852887048482,
        0.18361285857536394,
        -0.16187761928220382,
        0.07428292532479344,
        -0.31777777930345263,
        0.20229477808691024,
        0.046377690874058186,
        -0.3950549949660808,
        -0.308113839187707,
        -0.1209446088128391,
        0.0009488963808628513,
        -0.05335871291764728,
        -0.45197861364654257,
        0.1254268149476763,
        0.007447307676673993,
        0.15391695715774809,
        0.12092087434613107,
        -0.011656086403254554,
        0.10548005751847753,
        0.13892347624649293,
        -0.004418470850206842,
        0.4388373408731134,
        -0.11490674629201873,
        0.2221995925912844,
        0.4073991842133159,
        -0.12405006940438698,
        -0.037178912075791666,
        0.18755884411101348,
        0.4044183931346599,
        0.12393754442342957,
        0.11147112170402455,
        -0.3408327206880735,
        0.3000097186393201,
        -0.21034623625722024,
        0.40790307038770485,
        -0.4232098617147395,
        -0.15078786685855877,
        -0.15226608654702112,
        0.34476319089654933,
        0.3374120741148457,
        0.12551344035484488,
        -0.139806856536176,
        -0.27346690042174804,
        -0.025096776780695124,
        -0.001387690752424901,
        0.008419141043403626,
        -0.025079324005034733,
        0.09842806246053162,
        0.04799312240514288,
        -0.25556261035891487,
        0.18838971298253385,
        0.11345013939673769,
        -0.05311779670625499,
        -0.10413214220413058,
        0.38108903052415266,
        -0.00941157863664766,
        -0.23014309270418853,
        0.005843607156142368,
        -0.009139035743085324,
        0.277016938467823,
        0.3473445334174697,
        -0.289888265231087,
        -0.23128764801691382,
        -0.168323615679632,
        -0.5033137775708595,
        0.2505054631005942,
        0.27658377522992866,
        0.15678230259347473,
        -0.3035701055691551,
        -0.08722833059463286,
        0.13603858159955654,
        -0.2616015968815186,
        -0.26435262849150515,
        0.009144084376776452,
        -0.19697837325734155,
        -0.04369128615759839,
        -0.4966702463901925,
        0.0919908376084243,
        -0.15449530962655997,
        0.27833262856619817,
        0.2569642539215068,
        -0.09157954665507378,
        0.19609067612261466,
        -0.019604557261382567,
        0.09917255444704831,
        0.22750065369058842,
        0.06505826134627143,
        -0.048076332649861754,
        0.27680794503289624,
        -0.12764743834513348,
        0.176788789657967,
        0.29927263402436693,
        -0.10132326463723722,
        0.03134174480352665,
        0.012020600593469558,
        -0.3129244290004775,
        0.1750728683512758,
        -0.29146562024137046,
        0.2607834007023793,
        -0.2502239736427258,
        -0.15110880910014282,
        -0.539801289705512,
        0.05729991497904578,
        0.10279336045597835,
        0.18235217002319967,
        0.2342635373154681,
        -0.4400579629576141,
        -0.1534933871974765,
        0.17237832466836914,
        -0.004612779548380321,
        -0.1717873581977088,
        -0.028041246534005707,
        -0.46243186379740997,
        0.18085489418648296,
        0.07001461380454166,
        -0.025140903628443456,
        -0.06668861021254635,
        -0.014979989487125927,
        -0.3477687219372779,
        -0.09335977829383882,
        0.17009297352404856,
        0.12582300435235114,
        0.09694129073196067,
        0.12062187382648194,
        -0.017900445839263153,
        0.006552920693886299,
        -0.03805962567997285,
        0.02658725995735979,
        -0.08750962807421533,
        -0.010186342448561399,
        0.25848242253790044,
        -0.09333278365644257,
        0.046472825325496576,
        -0.08186502320968059,
        0.11123460017010632,
        0.19032127350357061,
        -0.08657350594521393,
        -0.1283108188875324,
        -0.06928200434806361,
        0.20875625476540477,
        0.12657159175796445,
        0.08678306203366305,
        0.27017831671158765,
        -0.06086869159190311,
        -0.3087083938336056,
        0.09347805093340006,
        0.17933081151385968,
        0.20266670006581683,
        0.3389332551590271,
        0.010597170305715725,
        0.06526703447935077,
        0.21696439284714683,
        0.48236116495176135,
        -0.13453445272169834,
        -0.32945278517441584,
        -0.021525916518227127,
        0.05669345967952112,
        -0.2093202308019645,
        -0.1476555037474594,
        -0.31438930371683244,
        -0.013285546651111816,
        0.12341075288906043,
        -0.4820658565653296,
        0.2503242618090592,
        -0.1152692914026693,
        -0.3080649946112727,
        0.055992173111279006,
        0.017929127506652116,
        0.15931508789409768,
        -0.05083689210527945,
        0.10822139472038377,
        0.0046579654019532684,
        -0.016786149321720446,
        -0.040901021421224364,
        -0.04320491093673206,
        -0.058836350045527806,
        0.17225656390196786,
        0.08056319887037919,
        -0.06321317514810774,
        -0.2339643904475903,
        -0.27922551953051605,
        -0.1964768108147329,
        0.041237820782980765,
        -0.17791778684576395,
        -0.11191363757651818,
        -0.16778652951133327,
        -0.1363622711026176,
        -0.4141257149891078,
        -0.37466508074893523,
        -0.1867146151040883,
        0.12876921209637948,
        -0.1444949807857897,
        -0.15949267451980387,
        0.29782199004633614,
        -0.031413184419808116,
        -0.0580933692344463,
        -0.18022183549656534,
        -0.030741476477986005,
        0.08997188691081001,
        0.2435682524647652,
        -0.12588940449676914,
        0.026726171914447313,
        0.15529354845881357,
        -0.37831633267060333,
        -0.2649425763162063,
        -0.6081861901255708,
        0.2805041472435406,
        -0.19090193176312342,
        -0.059618200757028054,
        0.18068832574639446,
        -0.4310446916704983,
        0.0714874853456254,
        0.21447218101972507,
        -0.05387561336516573,
        0.0525659261588852,
        0.29370466447223265,
        0.19090394894524784,
        -0.04578310767270389,
        0.2899383001080435,
        0.13077914234212457,
        -0.02377616788690069,
        -0.1865330019239697,
        0.045190901255257654,
        0.029985293146523265,
        -0.0710175208295391,
        0.0492071798151337,
        -0.08366630571920533,
        0.14013048362172706,
        0.12768713402582518,
        0.11942894402933522,
        0.17726858263611758,
        -0.2718665131125185,
        0.1257042451059258,
        -0.10340963565404074,
        0.2515371731561447,
        -0.14116026937983267,
        0.23956588274608526,
        0.08053656345673665,
        0.32846943331130485,
        -0.19209021293373615,
        0.027121480294820928,
        0.06223802947847458,
        -0.2839776537282216,
        0.19774449922640994,
        0.17115586671182492,
        -0.03495797581628401,
        -0.34196265743512233,
        -0.21940558327580673,
        -0.25401056766988933,
        -0.3635093362125244,
        0.31322293448779787,
        -0.12672276579840672,
        -0.0726989372712747,
        -0.23774293456460724,
        0.234939793791613,
        -0.20468199920269128,
        0.0919277026691989,
        0.05254745474088951,
        -0.11974054735404474,
        0.13678253810550062,
        0.018978817831860118,
        0.012393405948612496,
        0.14366169945098053,
        0.004922441854847539,
        0.1704263223560989,
        -0.25302830555295963,
        0.14330383306121325,
        0.07032060357663972,
        0.040749559420358676,
        -0.1242338861080631,
        0.07396441282943268,
        -0.3200023474295101,
        0.23268559143952222,
        0.1623026031394188,
        0.09502424427304962,
        0.3461829797693119,
        0.3965596220924398,
        -0.16503955897121245,
        -0.22682327321079035,
        0.056226722591157886,
        0.16097964249471053,
        -0.14482923478816292,
        0.2698361466674454,
        0.04388438089395202,
        0.020888695468354965,
        0.0256970171739709,
        -0.019328160261675775,
        -0.18630938000606645,
        0.23449407269268788,
        -0.08025379788231453,
        -0.31407166459288577,
        -0.09447704534868738,
        -0.010968933085153038,
        0.040095907631182794,
        0.4223477294355442,
        -0.14508986041656222,
        -0.26890049769174584,
        0.02639630615282295,
        0.14198669766997668,
        0.13420133071876722,
        0.17581822682698167,
        0.08606635431775822,
        -0.051218786037436285,
        0.02222170133569413,
        -0.21053618639522861,
        0.07792057734941873,
        0.09907138517172173,
        0.34884630201174205,
        0.30242246939628253,
        0.11716684669501536,
        -0.08253332701911877,
        0.5569406601174225,
        0.11671371539117018,
        -0.7091010844461748,
        -0.03314813884801124,
        -0.1443315846019777,
        0.2408103216740695,
        -0.3134695630421523,
        0.3018366202097212,
        -0.025378962668120123,
        0.05119908626981333,
        -0.07826545032876536,
        -0.5482896201101084,
        0.5326925279597307,
        -0.12434142662175343,
        0.09365441682445688,
        0.1915708441940891,
        -0.10192195439152907,
        0.08279451928808601,
        0.02397791387264311,
        -0.15240887979324075,
        0.1947181243587228,
        0.4593189875750891,
        -0.14243487131488916,
        0.025043744660361425,
        -0.004776884021959434,
        0.23724719094979957,
        -0.04673056907195092,
        0.006384335016723919,
        0.255228297040271,
        0.2623852513784061,
        0.06994162175744775,
        -0.1822490502965409,
        0.22499114966228687,
        0.11149091974835623,
        -0.1940429089376999,
        0.11149011773445183,
        0.21079038600967132,
        0.18655771585460307,
        -0.46240127129958125,
        0.013726961936003,
        -0.21164934707373181,
        0.20853285658730558,
        0.3237144948663472,
        -0.22800257563052026,
        0.14696335928575316,
        0.2490641559608607,
        -0.044013371050047066,
        0.2971215566051862,
        -0.11141650238195447,
        0.09929933283125711,
        -0.14853128004965288,
        -0.206830877709868,
        0.050437894341461675,
        0.14970154932559893,
        0.042638509043321,
        0.10342926722890773,
        -0.015306434331315157,
        -0.046302903796946245,
        0.12562343145924332,
        -0.24857543677197871,
        -0.020130386967635243,
        0.008036447386636144,
        0.2860444475124778,
        0.15743566876884701,
        0.09799325435253446,
        -0.25302348745359343,
        -0.21389134696506631,
        0.07406726159580734,
        0.07180585482007665,
        0.24179950243522597,
        -0.004593496882768941,
        -0.0713590583502395,
        -0.08790289806345222,
        -0.10419333750557236,
        0.17821937374021823,
        0.21409238072285436,
        0.30635421032488386,
        0.14215428438734234,
        0.3522547401434898,
        -0.18147942330219383,
        -0.013989625813797753,
        0.15613780068109281,
        -0.22521039439055046,
        0.0019274515991653347,
        0.30951527858161676,
        0.37286448509041936,
        0.20738672993019602,
        -0.2132492232728581,
        -0.30387607862415733,
        -0.3865649106472702,
        0.22633000538256287,
        0.4665535504334408,
        -0.19726056390347585,
        -0.04074471069386206,
        0.03419611611065515,
        0.17107264979757308,
        0.08865075263509918,
        0.37781882067485967,
        0.4835687665557761,
        0.040549508198678016,
        0.2059418117594005,
        0.20327417352726454,
        -0.01690320887158622,
        -0.10649778878516689,
        0.2257062459564583,
        0.3993521975531697,
        -0.40198599579020494,
        0.26260609642454374,
        -0.16597453606613977,
        0.0390296819269459,
        -0.26982793828547585,
        -0.22441365774392408,
        0.23195432921910059,
        -0.2338038641450668,
        0.2638084403056125,
        0.07252508371998606,
        0.016307715995918286,
        -0.41056749756761335,
        -0.15271797173769627,
        -0.14770290820039192,
        0.06781079920992313,
        0.17766421764619053,
        -0.1435079867568496,
        -0.17754813299207992,
        0.06597643887854762,
        -0.034196998792877735,
        0.04857583245133102,
        -0.19852281805457136,
        0.20525751964072297,
        -0.013489897095955068,
        -0.36179274668369926,
        0.2388456495371158,
        -0.029659495618520278,
        0.02934896414784488,
        -0.11473704662170943,
        0.043773727948974175,
        -0.13376530200519002,
        -0.24644615859142235,
        0.13983405979474264,
        0.04125569769293486,
        0.19614810309963154,
        0.24430521638859887,
        0.1051138518957775,
        0.22962388955069196,
        -0.23833040579518913,
        -0.00870561618650925,
        -0.42142935283990257,
        0.3304819923222173,
        -0.04907260469122415,
        0.13822153923283875,
        0.11253156790883953,
        0.29725251484163534,
        -0.22015205422018436,
        0.25024590065350116,
        0.2079563439857516,
        -0.373988172419115,
        0.07030958695455332,
        0.12368290253659221,
        -0.3311460657489594,
        -0.005732999707991906,
        0.07169938110916373,
        -0.31929608604420634,
        0.2949196173761017,
        -0.2187743733543706,
        -0.39021862234455396,
        -0.17921566734926955,
        -0.2376039433410431,
        -0.1831856737288473,
        -0.09402049600767183,
        -0.33470985267788816,
        0.337631641688223,
        0.09005959469020063,
        -0.1007466854999201,
        -0.2029304871680823,
        -0.07379266409238555,
        0.05191113782282027,
        0.10688755924846505,
        0.002787134127597869,
        0.2788187943560545,
        -0.16851603565054057,
        -0.5219229592401367,
        -0.4441329646774763,
        -0.33352854318293146,
        0.24860035041801395,
        0.42365706065107284,
        -0.16751888531045067,
        -0.5318193822073041,
        0.1241456767638297,
        0.2917911967218612,
        0.016410907556241004,
        0.13621038862851179,
        -0.2019024623860026,
        -0.02728485657953454,
        -0.2590081159252322,
        0.27104492182497764,
        -0.12322979693405163,
        0.2044962894099188,
        0.1015627906762089,
        -0.27250422330352325,
        -0.17107132101330969,
        -0.2419255051735039,
        0.7042241399223871,
        0.36144458386352,
        -0.44431155002935196,
        0.3879293733966155,
        0.2958840187998542,
        0.27929205385144523,
        -0.2240696603185083,
        -0.21536869215597312,
        -0.03595804910362874,
        0.0008696152701249775,
        -0.3858054163559696,
        -0.2308353272339185,
        -0.32405265016214213,
        0.11904680166813363,
        -0.27252614582654433,
        -0.002411787073973976,
        -0.29650740153161453,
        0.10208948766626116,
        -0.09574326817428151,
        0.03467149702165278,
        -0.18232025931029638,
        0.38241978586178377,
        0.0337093109648026,
        0.004632075677270721,
        0.013156419070448466,
        -0.47732224990063965,
        0.4254357294597737,
        -0.08787488564380472,
        0.2965817022792687,
        -0.04231479903065744,
        0.1126795029335551,
        0.06451889652615941,
        0.07003209333424584,
        -0.055698961252684684,
        0.04696417168551919,
        0.3592739943426236,
        0.2563295926034489,
        0.1344303166987928,
        -0.055933249901622586,
        0.2194358888677436,
        0.057329114235379466,
        -0.3636160858699014,
        0.1410835444486016,
        0.0069809541649212565,
        0.290648830207431,
        0.2655332263279504,
        -0.21057267982953645,
        -0.4075409903295225,
        -0.3748248997385879,
        0.21940691136235843,
        0.20031564950942934,
        -0.37686065640962485,
        -0.36412931461993864,
        -0.07517307597100034,
        -0.05013091913451725,
        -0.016340980873696682,
        -0.05431064313688804,
        0.1885058047984514,
        -0.3804332839912087,
        -0.22675072419893014,
        -0.18433384086587484,
        0.15346543855376119,
        -0.20918667162107937,
        0.2331528725174308,
        -0.20883141893083706,
        -0.1474998829476793,
        0.05955434022321092,
        -0.1989876198048221,
        -0.19554717911005945,
        -0.15618289317405207,
        -0.017069317406436545,
        -0.20344804724318952,
        -0.29063342129476505,
        0.1173453621231536,
        -0.24445379521785912,
        0.16976251273528073,
        -0.25509675623792083,
        0.2672985683303757,
        -0.21734443424425146,
        -0.1731334537616213,
        -0.0785858267884852,
        0.04515319060524559,
        -0.06576196984677023,
        0.45076855748678507,
        0.09141053327863395,
        0.3955298538157121,
        -0.27452817562957094,
        0.12128190935995954,
        -0.06029706118591234,
        -0.36825351852599364,
        -0.022011592456075046,
        0.09214147902540823,
        0.14491594949626538,
        -0.32253298395684393,
        0.21955620671363898,
        -0.20879709581962222,
        0.24760972584836186,
        -0.0790045531870221,
        0.08861312106450181,
        0.12344713380960731,
        0.21434482569979793,
        0.2602837138545524,
        0.11088279798876345,
        -0.27565487606983013,
        0.19705610699458923,
        -0.14814797040125632,
        0.17604780468256362,
        0.31112338237514614,
        -0.08391696520094177,
        0.014692823759107937,
        0.30390681802301,
        0.04726721850987052,
        0.10717695395273762,
        0.0716560857597377,
        0.6731676799933872,
        0.12197910717657721,
        -0.06501409419877266,
        0.06770489017593609,
        0.1756090360490182,
        -0.21743081955930318,
        0.11219590972038515,
        -0.43853803078576475,
        -0.236184842353913,
        0.2743020256099932,
        0.42605333892754754,
        0.014169938845215663,
        0.2946642930139196,
        0.0683533973306085,
        0.6370311218045267,
        -0.43916592602528537,
        -0.03759898014525217,
        -0.30464798746767824,
        0.2777225413123266,
        0.29276049160716816,
        0.10215454638080104,
        0.051801302851613176,
        -0.06324951049020477,
        0.0414994553618305,
        0.30398776420649426,
        0.21092618744623245,
        0.1442274614006304,
        0.5482386102121917,
        0.17239086193912498,
        0.2268061681354559,
        0.5199651440416685,
        0.39897412659266673,
        0.1269257495248081,
        -0.20675940514770555,
        0.010814683028282916,
        0.06219195528884353,
        0.0022189640173150105,
        -0.2129302606538631,
        0.0004596647944959755,
        0.4398559341148449,
        -0.19630106925669624,
        -0.29630284071583446,
        -0.20542498426207065,
        0.03715392687564935,
        -0.19672090806126802,
        0.016324973504911557,
        -0.2029953248549916,
        -0.19546511860858556,
        0.21802887786948888,
        -0.11277187816662412,
        -0.18463894253409152,
        -0.31791352715527754,
        -0.21037701538184878,
        0.24007157353543576,
        -0.27751856766837,
        -0.029173106406403707,
        -0.39478188660596325,
        -0.018504350642622267,
        -0.20870425716497942,
        0.1493082588361639,
        -0.2945178510100535,
        -0.0011103928076636649,
        0.11581706034064264,
        -0.25923995023836266,
        0.03679992140361685,
        0.05036422453270613,
        -0.4149840478617165,
        -0.1190784399022573,
        0.22708514122651569,
        -0.2636914849294337,
        0.11153822590251629,
        0.3597334497943045,
        -0.50719784742224,
        0.2819474225770792,
        0.1356382438668853,
        0.43203910289697,
        -0.33070976230036925,
        0.30161931137178627,
        -0.12943424717126342,
        -0.08842266232083906,
        0.19737395143682096,
        -0.15709747698180823,
        -0.2575099824889923,
        0.2394507932958066,
        -0.16106266516431678,
        0.14470901819844365,
        -0.02694854550592237,
        0.22311419823013334,
        -0.11343159582527934,
        -0.2597813300863255,
        -0.22032881782875413,
        0.2782376362317271,
        -0.17181782821235214,
        0.2105008893828587,
        -0.21368317744955984,
        -0.3473730851389216,
        0.22558946821091966,
        -0.06599324942455707,
        0.23541509891605158,
        -0.05392816586786216,
        0.03388598814555985,
        0.18341991919455664,
        0.36177642190808473,
        0.35187232150822034,
        -0.14286102716320312,
        0.07175375822234177,
        -0.1391431221988553,
        -0.1914554441823006,
        -0.10954774159286192,
        0.029141960537350516,
        0.26764057288749765,
        -0.24773099022432796,
        -0.36252310474813076,
        -0.21733326725696991,
        -0.21864218413396544,
        0.00029427364077817293,
        -0.1396898207254042,
        -0.304682609262958,
        -0.17270897720253298,
        -0.06805156718353844,
        -0.0028248959316054295,
        -0.10465036181631932,
        -0.23637153590618795,
        -0.08092107066342315,
        0.08280640237603379,
        0.2610453162825418,
        0.1098688098248768,
        -0.05128576774520169,
        -0.20382720302629545,
        0.060340837099866575,
        -0.05812776214955084,
        -0.3386654464281203,
        -0.009557830433933828,
        0.17616168561634765,
        0.0773145255767484,
        -0.38485652591782854,
        0.3150315441213941,
        0.26525532496896165,
        0.21490003287773984,
        -0.23109938543440744,
        -0.09180427793882665,
        0.15176334678506623,
        0.025491513300916115,
        -0.05961876486489312,
        -0.09918822423299872,
        0.322878913223916,
        0.12385059836635488,
        0.2226231750026891,
        0.5785695396796635,
        0.21236681317786332,
        -0.10251069577968085,
        -0.0390640209856478,
        0.21813073024434618,
        0.2804147346475891,
        0.3089892142723146,
        0.10749963627070902,
        0.14263432679820506,
        -0.439879194943394,
        -0.050653221060988365,
        -0.09283988154656782,
        -0.12527675115898684,
        -0.0718700812295908,
        -0.1139235352228523,
        0.14378518554836556,
        0.41797753286944805,
        -0.14073110778924156,
        -0.49005156688428947,
        -0.26433698648152293,
        -0.1651039536279229,
        0.06159865739190252,
        0.4520259102009907,
        0.22711486133300848,
        0.10007370354773452,
        0.359640003026727,
        -0.2984694134918323,
        0.017529536947802155,
        0.36506734521932643,
        0.002898149611065977,
        -0.050309413119238054,
        -0.0327520140493963,
        -0.21713206407931832,
        0.470974574744027,
        -0.04807044134489962,
        -0.03487164507918617,
        -0.05495784727584565,
        -0.20554562530864953,
        0.11270286848377364,
        -0.228932985620098,
        0.11266838495856223,
        0.01688777376761206,
        -0.349170413281177,
        0.12266770030228136,
        0.41908218805125214,
        -0.0355486944740571,
        0.19120146101322627,
        -0.08655167475291721,
        -0.3588639827973794,
        0.2654016628692549,
        0.0902777276861362,
        0.25034227067600273,
        -0.13971579523907432,
        0.07241528786154512,
        -0.2569834487960388,
        -0.12497422764149399,
        -0.11302405420661385,
        -0.24674276242030982,
        0.18429596870659176,
        -0.13418488213917068,
        -0.4850363968743395,
        -0.1565321241397296,
        -0.08041939600634042,
        -0.12395228085760708,
        0.0020509293072378952,
        -0.2875361303614943,
        -0.21099863155639367,
        0.10980153116097938,
        -0.054038308917701776,
        -0.1683995116926192,
        0.07059586828159814,
        -5.799418367981863e-05,
        0.2034865594982669,
        0.49438938287325734,
        0.22690325861096508,
        -0.309343055263116,
        0.07476470557893762,
        0.23144586660601257,
        0.15730373534358083,
        0.11882847204477892,
        -0.11151611123480416,
        0.2228436643165743,
        -0.1651520436286872,
        -0.40724934084178255,
        0.3114160153840712,
        0.2684967718491331,
        -0.04486832412999898,
        -0.052919499034990054,
        0.07552258155880716,
        -0.17201717966841967,
        -0.03147583690212379,
        0.05052439308766805,
        0.12781125622885414,
        0.14452377099120925,
        0.3290861160561802,
        0.31645418183127905,
        0.11821011839379655,
        -0.18378504905968718,
        0.07259573908118212,
        -0.3690550111745385,
        0.07857352931092285,
        0.09441498953429557,
        0.008927419864654566,
        -0.032045209086881375,
        0.21034841887313335,
        0.07743300934035985,
        0.18751812721115035,
        0.03486163272005344,
        -0.05245193979349636,
        0.031661312628692456,
        0.13445723104796534,
        0.14538420056756876,
        -0.3831385423038474,
        0.13837825791000055,
        0.11299326499288834,
        -0.0730822997331235,
        0.5023384427461091,
        0.1452500666682996,
        0.004343595591158194,
        -0.13379480170640753,
        0.1585479723167741,
        -0.11426552627081005,
        0.07056608611107966,
        -0.017023336420873527,
        0.16360936036969653,
        0.12039813403414262,
        0.13478781385871402,
        0.16113350752459182,
        0.14251520157176004,
        -0.10142093544602343,
        0.02479628841225036,
        -0.05520321385070129,
        0.24821381591797592,
        0.2166567129100008,
        0.08043840798995569,
        0.0626320990099697,
        -0.25979148366959953,
        -0.017523451471933845,
        0.09601954975342544,
        0.22300677251715623,
        -0.0030625981563458253,
        0.2250213318210888,
        0.2631149074158648,
        0.03289669440729899,
        0.15846669129771637,
        0.37332309666673225,
        0.05381557743154538,
        -0.23936511792379134,
        0.12688937688354301,
        0.003252730102771656,
        0.2803768786844119,
        -0.21040558092161454,
        0.18590181605731337,
        -0.17591467975607208,
        0.04200321688925072,
        0.28052120445404727,
        -0.1080351761706684,
        0.16035286588119793,
        0.05451232794311592,
        0.03177477384562062,
        -0.0343684895183161,
        -0.017187412783844634,
        0.205982252554285,
        -0.020625996269560742,
        0.06950656895750523,
        0.40425473713975035,
        0.18179437786159208,
        -0.07763797371064288,
        0.1423716096453532,
        -0.12657667240280715,
        -0.11720392454078377,
        0.061130598658480986,
        -0.14628838194575253,
        0.1624001507649066,
        0.13999164749886323,
        0.1497654031261442,
        -0.32510789538370705,
        0.18441208342009388,
        0.21906935513074002,
        -0.288381587195528,
        0.16253658610114882,
        0.10844253342979789,
        0.3681614766875218,
        -0.1103327156082922,
        0.26139817937040954,
        -0.08555243155567963,
        0.22897179265727924,
        0.18704768675729505,
        -0.20198201900994076,
        -0.015310834954114911,
        0.028641371840266033,
        0.41729125608588963,
        0.21743362531883564,
        -0.19526745813885124,
        0.3170792875009389,
        -0.3237392318588343,
        0.24074905934568344,
        0.13028309789381262,
        0.2501665639918922,
        0.24155931944696876,
        -0.02396935476162993,
        0.11349524952339678,
        0.12028292237032763,
        0.17821767647174006,
        0.2950829152360888,
        -0.07523025285249667,
        -0.08219457418948557,
        0.24286005417658424,
        0.09765325393078672,
        0.34347377844885263,
        0.3512997856096,
        0.26226784180054313,
        -0.2202735757735074,
        0.2906897394505717,
        0.14136520019932552,
        0.0722039952175246,
        -0.3692299882935541,
        -0.0284869373844883,
        0.38426208971711545,
        -0.2336315945579458,
        0.22927203130274873,
        -0.18222425827721664,
        0.01199260516064777,
        -0.13283174896068542,
        -0.19207338752964012,
        -0.14616658024807927,
        -0.04370103449560428,
        0.31425204266938317,
        -0.47311301338356754,
        -0.002475176770413608,
        -0.2361565606476957,
        -0.005459865586350259,
        -0.5964119447605694,
        0.5332715346782546,
        0.012929946323480901,
        -0.29773741481800226,
        -0.0020744661483734998,
        -0.21999382596452682,
        -0.144891256997126,
        0.07524812508253316,
        0.23964699872523648,
        -0.06654294630028249,
        -0.3811092444132775,
        -0.17586634395965822,
        0.09513519069403123,
        0.3336238889832313,
        0.13372475663979957,
        0.10032133137193533,
        -0.4978381738292002,
        0.043696709611065615,
        0.06513103423139362,
        0.6298715523696704,
        0.0954015758868862,
        0.20407721313674848,
        0.33326465884164347,
        0.28913016064461217,
        0.09284888268063128,
        -0.11566415920855833,
        0.0606334073275132,
        0.06038401295717202,
        -0.3674125005397156,
        0.3634804883857831,
        -0.12733615968141287,
        0.300803414764057,
        -0.23470536590699126,
        0.09371999396851852,
        -0.06545777203607564,
        -0.277796220368545,
        0.4869578444527117,
        0.045489599088048074,
        0.1958653808838893,
        -0.27654906109659744,
        -0.08524937338368956,
        0.022593779288296652,
        0.33524813109957136,
        0.23300251582283596,
        -0.20973604559957718,
        0.19942201229955428,
        -0.4033463568746011,
        -0.12475823333494575,
        -0.274110375474161,
        -0.4047357156161484,
        0.28396084954275075,
        -0.05813320157621391,
        -0.18086143458772802,
        0.1390816815222729,
        -0.060220088193588796,
        -0.15584904566549274,
        -0.005873366371970811,
        0.011970010988229059,
        -0.22913598651830724,
        0.21026203511879954,
        0.09496762593267678,
        -0.030429109494700436,
        0.05137878048307074,
        -0.04216607259763959,
        0.15711324766714493,
        0.11025633184982665,
        0.14825615332857153,
        0.021024987277125432,
        -0.12028736616428583,
        -0.3123931778430251,
        -0.19036461451572056,
        0.10032344007416256,
        0.1556141338593474,
        -0.286221387112289,
        -0.13286259229588943,
        -0.00277253796819451,
        -0.1117184903398441,
        -0.04160398975528237,
        -0.17327159236446865,
        0.22270834529845182,
        -0.1118884786300057,
        0.38820666208472904,
        0.04609278682354266,
        -0.047585892895643835,
        0.05365999778599973,
        -0.4870101944617451,
        -0.3624722886981772,
        -0.41051433796860554,
        -0.08432404697428277,
        0.20614249082704522,
        -0.1540547588609396,
        0.0027645929534554307,
        0.28274790503270264,
        -0.06656061235658536,
        0.1765817479298787,
        -0.21376406296467024,
        0.02832338142330036,
        0.2707666539115645,
        0.3450560639010046,
        -0.028462621379709636,
        -0.2377855657405238,
        -0.27309818184569185,
        -0.09954491266310245,
        0.09289901939596032,
        0.10519404542643997,
        0.005569629714299887,
        -0.13765624095027937,
        0.03677784713067987,
        -0.13225906610325378,
        -0.37481523902574804,
        -0.11646626801744223,
        0.2595016032764663,
        -0.017122647393197493,
        0.20616226208748362,
        -0.1750111201615612,
        0.12076706726486552,
        -0.22329265246094224,
        0.09806356024463635,
        -0.38686701651854316,
        -0.11216813569609241,
        -0.12944514062150944,
        0.14038837085981948,
        0.011939525448097654,
        0.07936475580923295,
        -0.21080050061685637,
        0.036409742055752904,
        0.02670209585269303,
        -0.30258688479073087,
        -0.25485567279373694,
        0.1494818753591408,
        0.039170158906168026,
        0.006120109972578556,
        -0.09656361124011689,
        -0.018958722510618305,
        -0.46529126325646136,
        -0.040576117092501335,
        -0.1048597826881061,
        0.0919102175491319,
        -0.023926135462136244,
        -0.9224105627407039,
        0.7137850119433806,
        -0.3013258501260346,
        -0.06489850406470479,
        0.0984299565098068,
        -0.17327407876881964,
        -0.2239616445162062,
        -0.34755166986763936,
        -0.16652692873320268,
        0.16248772038874565,
        0.6734056025634242,
        0.0161752542405493,
        -0.4768677406877595,
        -0.054719286266542634,
        0.1358752060060541,
        -0.052192870274261026,
        -0.013622827112706215,
        -0.15391719147560307,
        0.047305936532461845,
        0.8746688490647077,
        -0.40481594300268703,
        0.05275325849671726,
        0.07041918894359556,
        -0.032444019588646004,
        0.18264973117799566,
        0.002699393048253069,
        0.026618379850640975,
        -0.049304682255969144,
        0.12116218450825557,
        -0.14252060047305348,
        0.07319560317651953,
        -0.2635270542176999,
        0.061686610109654046,
        0.1481173495636751,
        0.42483069895305825,
        0.43332402317544105,
        -0.3386913687484864,
        -0.11537914953195244,
        -0.5825740233595107,
        0.26817467902593817,
        0.21709713822450008,
        -0.1833092434429541,
        0.051939001222095306,
        0.20909054430617785,
        0.020075324564467086,
        0.0168267038276319,
        -0.27869451647121757,
        -0.2348817891574586,
        0.01740105906583076,
        -0.3281857365477692,
        0.343144251458411,
        0.13244519657870718,
        0.011661705756677035,
        0.029804143555768037,
        0.1473590828512188,
        0.16859382567715236,
        -0.24538426944764263,
        -0.14930438402940205,
        -0.40195302129700294,
        -0.33080265985373347,
        -0.2320528438394633,
        0.18462559672084208,
        -0.04153064114839289,
        -0.18097452583464899,
        0.2703767927560185,
        -0.166416779263115,
        -0.2482288151533989,
        -0.32037908870679366,
        0.22161868038335858,
        -0.31754905718670656,
        -0.06541051808586962,
        -0.13520249391648465,
        -0.022215454517339688,
        0.24277738450657818,
        0.12860402038106222,
        -0.17329158027482483,
        0.06791594558029328,
        -0.1582349966779954,
        0.03191196407091251,
        -0.3820426721784164,
        -0.09984004677351564,
        0.018542848439841327,
        -0.15257075068616888,
        -0.05563838370753145,
        -0.1268617213139566,
        -0.12472069941269828,
        0.26261336347606923,
        0.10271997240615853,
        0.1539678192848782,
        -0.011806340090370345,
        -0.5177702583602143,
        -0.20231585360521792,
        -0.01970464818587938,
        0.40556084298273126,
        0.041623251922681334,
        0.38179909999141975,
        0.2515051507954531,
        -0.4320320557193245,
        0.040899863744155135,
        0.17326427199608094,
        0.09392688648824585,
        -0.12355473544139993,
        0.1949441460453671,
        -0.1135135997376976,
        -0.04281017866964672,
        0.4712782541400143,
        -0.28222905938634013,
        -0.15069992276532698,
        -0.07344367513135241,
        -0.3546033307636152,
        0.05032355578482703,
        -0.14637343844836379,
        0.38965571090184886,
        -0.23143576863123105,
        -0.2091481316817647,
        -0.14818488466345642,
        0.13742577449963983,
        -0.3691880757661595,
        0.15196870952130082,
        -0.05919885689403097,
        -0.06700889679019932,
        0.2995416849859975,
        -0.11070694879280095,
        -0.03900749242339617,
        -0.016017763170411554,
        0.42190693516523375,
        -0.02827161860716116,
        0.08793276520526916,
        0.4178547652175028,
        -0.14163263055163502,
        -0.1601840707006721,
        0.02087396850321144,
        0.23452848520362776,
        -0.08842342726405811,
        0.11790395811935087,
        0.02966783744582083,
        -0.2459692335495156,
        0.04456055770050102,
        -0.29862739102044084,
        -0.05356188702581863,
        -0.14004512671329797,
        -0.6700453466200065,
        0.25357047442140684,
        -0.3726828242750129,
        0.24932859013062603,
        -0.27103845819719014,
        -0.11331718805297893,
        -0.23033100147745558,
        -0.28918610578137405,
        -0.6068732416074489,
        -0.012794031058681134,
        -0.04633275800452247,
        0.10149661691196361,
        0.4135506244457567,
        0.27929981846737645,
        0.05988458067908018,
        -0.029165326192552316,
        0.21258931779234125,
        0.34786945530736296,
        0.2545674959005408,
        -0.17955483436313724,
        -0.018181927092208335,
        0.29285120699274725,
        0.06456522441540125,
        -0.1662689126230712,
        -0.009435448586081013,
        0.011945900344741578,
        0.30282002963101956,
        -0.12575753293319217,
        -0.21558866969828852,
        -0.16514043814690268,
        -0.2595120304690992,
        -0.3692175492171542,
        -0.30030072652250056,
        -0.1928121877091607,
        -0.35319139279133754,
        0.09256756301757393,
        0.46700110625558666,
        0.0020360344872172175,
        0.17581311746042963,
        -0.2230200545303868,
        0.526921504951045,
        0.23226696289817975,
        0.31058149852025047,
        -0.04810986735197931,
        0.23649411179999758,
        -0.14559310670913622,
        -0.24738245690020147,
        -0.10708756646344599,
        0.08514080558252157,
        -0.241384574262531,
        0.007550626728374283,
        0.15937272915242173,
        -0.26708726556549384,
        -0.19623898157757094,
        -0.05228997349972468,
        0.14478399972801637,
        -0.2665806999328521,
        0.05871804266888169,
        -0.14682953441677316,
        -0.2847474452252041,
        0.05567130332569288,
        -0.21321175855579863,
        0.07829292313268595,
        -0.09521103548472094,
        -0.2147516056327409,
        0.20796292092883897,
        -0.046785863286554596,
        0.005423978350230579,
        -0.25800866595004435,
        -0.0025968264153078614,
        -0.19179868488279056,
        0.04378043010710772,
        -0.4067458857749349,
        0.023586243084518687,
        0.36753569818277665,
        -0.11012720289874732,
        0.5177448787437292,
        0.0499115174037138,
        0.41333212082657106,
        0.1310782754401556,
        -0.23202990829851736,
        0.20188091318519244,
        0.007078987773848599,
        0.3513543923886828,
        0.0021299099482730475,
        0.2307967201657652,
        -0.16475852454448192,
        -0.08343835359638627,
        -0.39539307515585315,
        -0.008308777208688507,
