{
    "layers": [
        2,
        128,
        128,
        128,
        128,
        1
    ],
    "model_weights": [
        -0.11175186932086945,
        -0.22298923134803772,
        -0.23900306224822998,
        0.4115866422653198,
        -0.31791484355926514,
        0.15467706322669983,
        -0.25711771845817566,
        -0.45802727341651917,
        0.16262635588645935,
        0.284294068813324,
        -0.1748242974281311,
        0.3427709639072418,
        -0.1275358945131302,
        -0.17731626331806183,
        -0.29857927560806274,
        0.24085578322410583,
        -0.1417515128850937,
        0.2892802953720093,
        -0.1393076777458191,
        0.20164157450199127,
        -0.13217176496982574,
        0.19468852877616882,
        -0.5002082586288452,
        -0.28125402331352234,
        0.22153206169605255,
        -0.16400699317455292,
        -0.3080088496208191,
        0.2747366428375244,
        0.2600759267807007,
        -0.01600160263478756,
        0.20794110000133514,
        0.3008715808391571,
        0.28484439849853516,
        -0.21037757396697998,
        0.3009066879749298,
        -0.3340896964073181,
        0.278439462184906,
        0.26983022689819336,
        -0.19052670896053314,
        0.04574955999851227,
        -0.40847310423851013,
        -0.16169102489948273,
        0.4182586371898651,
        -0.3257772624492645,
        0.27805274724960327,
        -0.30725377798080444,
        -0.4142628312110901,
        0.2309705913066864,
        0.18590182065963745,
        0.007787041831761599,
        -0.3016361892223358,
        0.1319088488817215,
        0.34529221057891846,
        0.3186136484146118,
        -0.08104180544614792,
        0.37274566292762756,
        -0.18344853818416595,
        0.23776598274707794,
        0.1262139528989792,
        -0.23950397968292236,
        0.24928797781467438,
        -0.20380952954292297,
        0.24016974866390228,
        0.4149085581302643,
        0.32246434688568115,
        -0.19805589318275452,
        -0.12471799552440643,
        0.42901143431663513,
        0.06640104949474335,
        -0.43636825680732727,
        -0.3191455006599426,
        -0.3981941044330597,
        -0.06916583329439163,
        0.03396693989634514,
        0.16623501479625702,
        -0.316506952047348,
        -0.10997535288333893,
        -0.061448708176612854,
        0.30610761046409607,
        -0.1527552604675293,
        -0.1867445558309555,
        0.377323716878891,
        -0.2161218672990799,
        -0.1780654489994049,
        -0.21562114357948303,
        -0.37062332034111023,
        0.39134103059768677,
        -0.46005210280418396,
        -0.1400264948606491,
        0.17362704873085022,
        -0.2720162272453308,
        -0.06076882407069206,
        0.1447077989578247,
        -0.12132129818201065,
        0.3418290913105011,
        -0.25657084584236145,
        -0.2647899091243744,
        -0.37625500559806824,
        -0.3327004909515381,
        0.3380785286426544,
        0.25263580679893494,
        -0.27267637848854065,
        0.40167340636253357,
        -0.3941492736339569,
        -0.25384655594825745,
        0.354005366563797,
        -0.31748154759407043,
        -0.2907164692878723,
        0.1561112403869629,
        -0.4253462553024292,
        0.21850167214870453,
        0.31229516863822937,
        -0.17632007598876953,
        -0.36065322160720825,
        -0.1810160130262375,
        -0.45818236470222473,
        -0.29235419631004333,
        -0.17691925168037415,
        -0.37005653977394104,
        0.07682443410158157,
        0.12253012508153915,
        -0.11718810349702835,
        -0.1843073070049286,
        -0.1429317593574524,
        0.3242841064929962,
        0.32879623770713806,
        -0.0329432338476181,
        -0.03848789259791374,
        -0.3335515558719635,
        0.3329540491104126,
        0.2727753221988678,
        -0.14620693027973175,
        0.0867311954498291,
        -0.4533640742301941,
        0.33107203245162964,
        0.12944208085536957,
        0.1975795179605484,
        -0.19911441206932068,
        -0.469090074300766,
        0.07405851036310196,
        0.08657439798116684,
        -0.0644635483622551,
        0.1986374408006668,
        0.2038583755493164,
        -0.17499858140945435,
        0.08017560094594955,
        -0.617466390132904,
        -0.07094909250736237,
        -0.11885534226894379,
        -0.09978075325489044,
        -0.15506741404533386,
        0.08199086040258408,
        0.05641990900039673,
        0.8195521235466003,
        0.20279930531978607,
        -0.1766752451658249,
        0.05645425245165825,
        0.0698891133069992,
        -0.048111945390701294,
        0.021966667845845222,
        -0.14377303421497345,
        -0.06519077718257904,
        -0.256312757730484,
        0.04948258772492409,
        0.027844790369272232,
        -0.13976135849952698,
        0.08437513560056686,
        0.013743535615503788,
        -0.034655217081308365,
        -0.31957903504371643,
        0.07267292588949203,
        -0.1437375247478485,
        -0.01047370582818985,
        0.19360019266605377,
        -0.260302871465683,
        -0.014132696203887463,
        0.08801259100437164,
        0.1853037029504776,
        0.24449816346168518,
        -0.03863922134041786,
        -0.004896444734185934,
        0.2629414498806,
        -0.5665982961654663,
        0.21565642952919006,
        -0.21651588380336761,
        0.019323598593473434,
        0.045284710824489594,
        0.6019902229309082,
        -0.20660178363323212,
        0.014892295934259892,
        0.0656522884964943,
        -0.06124822050333023,
        0.19538375735282898,
        1.4442710876464844,
        0.17916986346244812,
        0.08097048848867416,
        0.40979471802711487,
        0.4069342613220215,
        -0.06986691057682037,
        -0.10155221819877625,
        -0.019449353218078613,
        0.07127494364976883,
        -0.508758544921875,
        -0.14754730463027954,
        -0.2591777443885803,
        -5.354440212249756,
        -0.035190481692552567,
        -0.04125325381755829,
        -0.4055550694465637,
        0.04625933989882469,
        -0.19387505948543549,
        -0.6497435569763184,
        0.15694904327392578,
        0.0761420950293541,
        -0.10279566794633865,
        -0.009207653813064098,
        -0.2657691240310669,
        0.1333898901939392,
        -0.31217631697654724,
        -0.0012903823517262936,
        -0.12322104722261429,
        0.11352218687534332,
        -0.12213392555713654,
        0.16865278780460358,
        -0.18083970248699188,
        0.2419133484363556,
        -0.029351437464356422,
        0.04845261201262474,
        0.09361491352319717,
        -0.18047663569450378,
        0.1309775859117508,
        0.2050924301147461,
        -0.44721776247024536,
        0.13870769739151,
        0.20986594259738922,
        0.1337444931268692,
        -0.37684366106987,
        0.05540323629975319,
        0.1542186290025711,
        0.36928871273994446,
        -0.039618007838726044,
        0.11099310219287872,
        -0.2697600722312927,
        0.1053185909986496,
        -0.48901957273483276,
        0.17698220908641815,
        -0.09799478948116302,
        0.3117946684360504,
        0.04830808565020561,
        0.12372903525829315,
        -0.2930324375629425,
        -0.07125774770975113,
        0.03429660201072693,
        0.03420771658420563,
        -1.6536012887954712,
        -0.05692083388566971,
        -0.11357089877128601,
        0.008727136068046093,
        0.06950730830430984,
        0.1322706788778305,
        0.2603909373283386,
        -0.2481197714805603,
        0.13113555312156677,
        -0.16823525726795197,
        0.109445720911026,
        -0.00021399605611804873,
        -0.008374995552003384,
        0.0131656713783741,
        0.4339818060398102,
        0.08937828242778778,
        0.03227168321609497,
        0.18797177076339722,
        -0.29094642400741577,
        -0.12095283716917038,
        0.2300727665424347,
        0.008022423833608627,
        0.025295570492744446,
        -0.17325429618358612,
        -0.012668966315686703,
        -0.017296485602855682,
        0.04372778534889221,
        -0.591941773891449,
        0.2538515329360962,
        0.09055265039205551,
        -0.2684960961341858,
        0.005840376019477844,
        0.2115870863199234,
        -0.32860708236694336,
        0.09116015583276749,
        -0.04875793680548668,
        -0.11629893630743027,
        0.12991896271705627,
        0.04317554831504822,
        0.04221498593688011,
        -0.03891056776046753,
        0.08754836767911911,
        0.1375914365053177,
        0.42412030696868896,
        -0.06755387783050537,
        0.08291050046682358,
        0.14677296578884125,
        -0.2560496926307678,
        0.041488248854875565,
        0.03360716998577118,
        0.189562126994133,
        -0.06924699246883392,
        -0.09926386177539825,
        0.06491000205278397,
        0.2261023223400116,
        0.04563445970416069,
        0.31589365005493164,
        -0.05899367108941078,
        -0.2778583765029907,
        -0.16124539077281952,
        -0.38199278712272644,
        -0.2996458113193512,
        -0.33023759722709656,
        -0.09731300920248032,
        -0.022215595468878746,
        -0.09168905764818192,
        -0.07609119266271591,
        0.20358285307884216,
        0.1510043740272522,
        -0.056134842336177826,
        -0.31395411491394043,
        -0.3009316027164459,
        0.14876528084278107,
        0.012165947817265987,
        -0.009928821586072445,
        -0.13220399618148804,
        -0.046672191470861435,
        -0.10653424263000488,
        -0.1184685081243515,
        -0.4508861303329468,
        -0.0005854433984495699,
        0.1950564682483673,
        0.08937112987041473,
        -0.12913838028907776,
        0.04400366544723511,
        -0.24586282670497894,
        0.20584513247013092,
        0.06053127720952034,
        0.007155570201575756,
        0.10322406142950058,
        -0.08801012486219406,
        -0.15901686251163483,
        -0.10850199311971664,
        -0.0816676989197731,
        0.5831999182701111,
        -0.16183336079120636,
        0.06619767844676971,
        0.1626790314912796,
        0.18633626401424408,
        0.059636324644088745,
        0.048604872077703476,
        0.050134140998125076,
        -0.007061808370053768,
        -0.34072592854499817,
        -0.029755782335996628,
        0.03296991437673569,
        0.26961496472358704,
        -0.06430412083864212,
        0.15628939867019653,
        0.20695683360099792,
        0.19665443897247314,
        0.03455772250890732,
        0.20187918841838837,
        -0.10359253734350204,
        -0.019011832773685455,
        0.10979495197534561,
        0.21565303206443787,
        0.060063425451517105,
        -0.03719402104616165,
        -0.027215303853154182,
        0.09640751779079437,
        0.17915119230747223,
        0.05117937549948692,
        -0.09732389450073242,
        -0.0936257615685463,
        -0.13590890169143677,
        -0.05378939211368561,
        -0.16356520354747772,
        -0.274416446685791,
        -0.18176282942295074,
        0.06799685955047607,
        -0.05691168084740639,
        0.17667636275291443,
        -0.12982352077960968,
        0.033190760761499405,
        -0.12831884622573853,
        0.0644611269235611,
        0.22646358609199524,
        -0.08656465262174606,
        0.025302782654762268,
        -0.15722879767417908,
        -0.04836241900920868,
        -0.032872673124074936,
        0.09576408565044403,
        0.13171261548995972,
        -0.051686841994524,
        -0.04761548340320587,
        -0.04733503237366676,
        -0.024884093552827835,
        -0.03571516275405884,
        0.16160838305950165,
        0.09224431961774826,
        -0.2282247543334961,
        0.06661659479141235,
        0.046334121376276016,
        0.11021377146244049,
        0.05007157474756241,
        0.1763697862625122,
        0.07619884610176086,
        0.05988302826881409,
        0.22349001467227936,
        -0.16753119230270386,
        0.06580714136362076,
        -0.012084503658115864,
        -0.03743948042392731,
        0.0006955107091926038,
        0.1204061508178711,
        -0.02515290677547455,
        -0.13274268805980682,
        0.10331614315509796,
        -0.16840559244155884,
        0.05514087155461311,
        -0.19861134886741638,
        -0.0655713602900505,
        -0.0005614761030301452,
        -0.0618739053606987,
        -0.18581649661064148,
        -0.09788018465042114,
        -0.08070376515388489,
        -0.1448848694562912,
        -0.04091661423444748,
        0.0355367511510849,
        -0.1431923508644104,
        -0.17247432470321655,
        0.06024002283811569,
        0.022923575714230537,
        -0.2614840567111969,
        0.12993153929710388,
        -0.01332771871238947,
        -0.03062031790614128,
        -0.1929575353860855,
        0.10635250806808472,
        0.0932897999882698,
        0.2642226815223694,
        -0.20892825722694397,
        -0.011515147052705288,
        0.13555017113685608,
        -0.03775673732161522,
        -0.25620099902153015,
        -0.043115001171827316,
        -0.1110207810997963,
        0.08818402886390686,
        -0.03793352469801903,
        0.15613651275634766,
        -0.07170839607715607,
        0.05308857187628746,
        -0.24941936135292053,
        -0.06007365137338638,
        0.17590156197547913,
        -0.27080926299095154,
        0.06252556294202805,
        0.053356532007455826,
        0.052818961441516876,
        0.17205266654491425,
        0.10948130488395691,
        0.017423171550035477,
        -0.132145494222641,
        0.13259662687778473,
        0.15411342680454254,
        0.0825335681438446,
        -0.23861907422542572,
        0.26211631298065186,
        -0.0796235054731369,
        0.10859054327011108,
        -0.030572012066841125,
        0.2857700288295746,
        -0.11149389296770096,
        0.08386868238449097,
        -0.06938204914331436,
        -0.13567136228084564,
        0.03518152981996536,
        0.0064475960098207,
        0.19859057664871216,
        0.16520307958126068,
        -0.04629130661487579,
        -0.01773201674222946,
        0.13354718685150146,
        -0.26430103182792664,
        0.17002132534980774,
        -0.042641084641218185,
        0.09500385820865631,
        0.031134411692619324,
        0.15877608954906464,
        -0.24870091676712036,
        -0.010630760341882706,
        0.20140287280082703,
        0.16231201589107513,
        -0.1484760344028473,
        -0.12882483005523682,
        -0.16855305433273315,
        -0.07863040268421173,
        -0.08290722966194153,
        0.1474018394947052,
        -0.07152291387319565,
        0.17709119617938995,
        0.012505421414971352,
        0.08643855154514313,
        -0.12313485890626907,
        0.11158351600170135,
        -0.18803907930850983,
        0.22852590680122375,
        0.24945351481437683,
        0.0639510527253151,
        0.20569531619548798,
        0.026536056771874428,
        -0.07542484253644943,
        0.17970417439937592,
        0.030926985666155815,
        -0.34329304099082947,
        0.08086804300546646,
        -0.21931149065494537,
        -0.06474129110574722,
        0.07882926613092422,
        0.05273588001728058,
        0.09809048473834991,
        -0.10214174538850784,
        -0.04714681953191757,
        0.284604549407959,
        0.05659778416156769,
        0.15694725513458252,
        -0.1005413681268692,
        -0.018622206524014473,
        0.20389212667942047,
        0.05279896408319473,
        0.06707249581813812,
        0.2715708911418915,
        -0.062236323952674866,
        0.12308494001626968,
        -0.048057056963443756,
        -0.19147077202796936,
        0.11407488584518433,
        -0.11905568093061447,
        -0.009124679490923882,
        -0.13838432729244232,
        0.22315026819705963,
        -0.21810634434223175,
        -0.19551245868206024,
        0.2339065968990326,
        0.3385017514228821,
        -0.19886945188045502,
        -0.138188436627388,
        0.07984726130962372,
        0.19943922758102417,
        0.0444336012005806,
        -0.07317700237035751,
        -0.003695019753649831,
        0.16219504177570343,
        -0.09490302205085754,
        -0.2536667585372925,
        -0.1917964667081833,
        -0.2212754338979721,
        -0.1410706639289856,
        -0.12119527906179428,
        -0.02577923610806465,
        0.10708935558795929,
        0.11671701818704605,
        -0.16217954456806183,
        -0.2533046305179596,
        0.05056459456682205,
        0.06562694907188416,
        0.18200527131557465,
        -0.05871172994375229,
        -0.3787250518798828,
        0.10853041708469391,
        0.08111271262168884,
        -0.06315518915653229,
        -0.19333329796791077,
        0.06729350984096527,
        0.15413296222686768,
        0.16435566544532776,
        -0.15210628509521484,
        -0.20346496999263763,
        0.09872691333293915,
        0.15898267924785614,
        0.09322066605091095,
        -0.020425064489245415,
        0.16992685198783875,
        0.20645850896835327,
        -0.0792752131819725,
        -0.15371103584766388,
        0.057309284806251526,
        -0.014797898009419441,
        0.09151796996593475,
        -0.308194637298584,
        -0.2890366315841675,
        0.16954666376113892,
        -0.09414206445217133,
        0.01209657359868288,
        -0.16158244013786316,
        0.08227639645338058,
        0.11344976723194122,
        0.0805036649107933,
        0.30905237793922424,
        -0.23526860773563385,
        0.05809253081679344,
        -0.1539740413427353,
        0.30859437584877014,
        0.18966785073280334,
        0.17913423478603363,
        0.040130455046892166,
        0.026353146880865097,
        0.1334730088710785,
        -0.10612213611602783,
        0.1118582934141159,
        -0.017535170540213585,
        -0.0853026807308197,
        0.04446997493505478,
        -0.10809113830327988,
        -0.0388265997171402,
        0.11078311502933502,
        -0.17541013658046722,
        0.038160134106874466,
        -0.11168328672647476,
        -0.06699622422456741,
        0.17092150449752808,
        -0.26338350772857666,
        0.09266988933086395,
        -0.07794638723134995,
        0.0885295569896698,
        0.030034568160772324,
        -0.07684103399515152,
        -0.11390793323516846,
        -0.25867152214050293,
        -0.13209636509418488,
        -0.23827911913394928,
        -0.03141460567712784,
        0.15031856298446655,
        -0.04743828997015953,
        0.11026696115732193,
        0.13592442870140076,
        0.2713094651699066,
        0.01185863371938467,
        0.07227444648742676,
        -0.09246499091386795,
        0.1512175351381302,
        0.22209258377552032,
        -0.11769036948680878,
        0.10190925002098083,
        -0.1155359297990799,
        0.016419868916273117,
        0.018078671768307686,
        0.06280965358018875,
        -0.06814597547054291,
        -0.0787077397108078,
        -0.10853645205497742,
        0.18100254237651825,
        0.07393968850374222,
        0.11115498840808868,
        0.0032463930547237396,
        -0.2223362773656845,
        0.1562892645597458,
        0.020647529512643814,
        0.1231968030333519,
        0.11036480963230133,
        -0.254472941160202,
        -0.12832137942314148,
        -0.005554543808102608,
        0.11835330724716187,
        -0.08559426665306091,
        0.08724004030227661,
        -0.06282847374677658,
        -0.10463026911020279,
        0.1715317666530609,
        -0.21738924086093903,
        -0.2180677354335785,
        0.38700637221336365,
        0.0011575102107599378,
        0.016333255916833878,
        0.046527404338121414,
        -0.023107660934329033,
        0.12543433904647827,
        0.07152343541383743,
        -0.015231315046548843,
        -0.009577008895576,
        0.13541732728481293,
        -0.06082526221871376,
        -0.2607297897338867,
        -0.3510567247867584,
        -0.06977614015340805,
        -0.13690489530563354,
        -0.06833711266517639,
        -0.15273654460906982,
        -0.07244939357042313,
        0.23601211607456207,
        0.1318369209766388,
        -0.009338107891380787,
        -0.014835319481790066,
        -0.0766538754105568,
        0.15921470522880554,
        0.029757775366306305,
        -0.2495192140340805,
        0.11868499964475632,
        0.19403953850269318,
        -0.186056450009346,
        -0.28529980778694153,
        0.00507078692317009,
        -0.026838213205337524,
        0.13479071855545044,
        -0.07820989191532135,
        -0.15494634211063385,
        0.017658885568380356,
        0.2092958241701126,
        -0.04397503286600113,
        -0.015808701515197754,
        0.1649961620569229,
        -0.15363860130310059,
        0.06299545615911484,
        -0.1636558324098587,
        0.06104761362075806,
        -0.053338900208473206,
        0.13573919236660004,
        -0.036452945321798325,
        -0.2147684246301651,
        0.17853355407714844,
        -0.12186262756586075,
        0.2688458561897278,
        -0.27028530836105347,
        0.09111820161342621,
        0.18685345351696014,
        0.25508275628089905,
        0.22472549974918365,
        -0.16771630942821503,
        0.11287737637758255,
        -0.01628146320581436,
        0.2885703146457672,
        0.19612790644168854,
        -0.03716682270169258,
        0.1855461597442627,
        0.02896118350327015,
        0.11107183247804642,
        -0.14195036888122559,
        0.06714558601379395,
        -0.09065607935190201,
        -0.009019549936056137,
        0.06129368767142296,
        0.09565757215023041,
        0.07418687641620636,
        0.0579497404396534,
        -0.10890490561723709,
        0.014495217241346836,
        -0.016671590507030487,
        0.06196746975183487,
        0.22860819101333618,
        -0.24015162885189056,
        0.008685938082635403,
        0.010090864263474941,
        0.15250395238399506,
        -0.1268259435892105,
        0.009180796332657337,
        0.016764985397458076,
        -0.12801839411258698,
        -0.06254621595144272,
        -0.1446840912103653,
        -0.1027965322136879,
        -0.1346748024225235,
        0.13816195726394653,
        -0.1003623977303505,
        -0.05914255231618881,
        -0.20550259947776794,
        -0.019289396703243256,
        -0.041724592447280884,
        0.24401219189167023,
        -0.0577537976205349,
        -0.11033651977777481,
        0.30914512276649475,
        -0.14906558394432068,
        0.21862344443798065,
        0.15049278736114502,
        -0.14331981539726257,
        -0.22608044743537903,
        -0.26843294501304626,
        0.09888891130685806,
        0.04748775437474251,
        -0.14197222888469696,
        -0.1765807569026947,
        -0.22836053371429443,
        0.13473892211914062,
        -0.01750914566218853,
        -0.05626063793897629,
        -0.3261280655860901,
        0.10886574536561966,
        -0.3160025477409363,
        0.16583053767681122,
        0.12754370272159576,
        -0.05247063934803009,
        0.08936262130737305,
        -0.3575352728366852,
        0.17312391102313995,
        0.0915227010846138,
        -0.11292263865470886,
        -0.2034003883600235,
        0.19147877395153046,
        0.11227666586637497,
        -0.06181532144546509,
        -0.11421032249927521,
        0.10527744889259338,
        -0.1886843591928482,
        0.06395317614078522,
        -0.1258334368467331,
        -0.02725394070148468,
        -0.10144656151533127,
        -0.20385286211967468,
        -0.3798692524433136,
        0.06803780794143677,
        0.09920565783977509,
        0.028720032423734665,
        0.13130973279476166,
        0.15611019730567932,
        0.15122456848621368,
        0.3244837522506714,
        0.2536916732788086,
        -0.18275168538093567,
        -0.17214441299438477,
        0.10155733674764633,
        -0.06997642666101456,
        0.38739946484565735,
        0.05523430183529854,
        0.25885313749313354,
        0.23474405705928802,
        -0.11344330757856369,
        -0.30744093656539917,
        -0.14193199574947357,
        0.29805946350097656,
        0.20555910468101501,
        0.049591973423957825,
        -0.06516095995903015,
        0.08539281040430069,
        0.3244243562221527,
        -0.09733795374631882,
        -0.1039738655090332,
        0.010688208974897861,
        -0.01951662078499794,
        -0.027118008583784103,
        -0.06201816722750664,
        0.34749913215637207,
        0.11414864659309387,
        0.07200454920530319,
        -0.05940747261047363,
        -0.26262664794921875,
        0.2397392839193344,
        0.09394299983978271,
        -0.1805683821439743,
        0.10455131530761719,
        -0.11093274503946304,
        0.08719737082719803,
        -0.3022765517234802,
        0.16238684952259064,
        -0.15983760356903076,
        -0.08001530915498734,
        -0.11733981221914291,
        -0.2665465474128723,
        0.14849288761615753,
        -0.2218097597360611,
        0.05694451183080673,
        -0.2711523175239563,
        -0.08952157199382782,
        0.18124745786190033,
        -0.2784879505634308,
        0.17310753464698792,
        -0.11975015699863434,
        0.055312380194664,
        0.03176605701446533,
        -0.1839517205953598,
        -0.09730781614780426,
        -0.05958160385489464,
        0.1478913426399231,
        -0.005325790029019117,
        -0.15969274938106537,
        -0.015041927807033062,
        0.002317441161721945,
        -0.020688092336058617,
        0.1692804992198944,
        0.11031641811132431,
        0.23374834656715393,
        0.02827521786093712,
        -0.09554624557495117,
        -0.064524807035923,
        -0.10130386054515839,
        0.1048545241355896,
        0.031504083424806595,
        0.17279990017414093,
        -0.02697724662721157,
        0.2426370084285736,
        -0.014457358047366142,
        0.20229239761829376,
        0.31201761960983276,
        0.24915307760238647,
        0.17865504324436188,
        -0.05833578482270241,
        -0.19232136011123657,
        0.2650050222873688,
        0.31200143694877625,
        -0.07477083057165146,
        0.23976777493953705,
        -0.43295952677726746,
        0.009864307008683681,
        0.009170269593596458,
        0.17838700115680695,
        -0.0354246087372303,
        0.2099313586950302,
        -0.009729375131428242,
        0.10516528785228729,
        0.1352418214082718,
        0.10221577435731888,
        0.18138013780117035,
        -0.1685236692428589,
        0.19713133573532104,
        -0.00022195694327820092,
        -0.06413019448518753,
        0.0014290072722360492,
        -0.07000330835580826,
        -0.15656018257141113,
        0.021565202623605728,
        -0.04858384653925896,
        0.06193307042121887,
        -0.17967292666435242,
        -0.3627412021160126,
        -0.10585491359233856,
        0.30508938431739807,
        -0.0002478419919498265,
        0.08311823755502701,
        0.28012320399284363,
        0.1312006264925003,
        -0.16230224072933197,
        0.1513260304927826,
        0.12319087982177734,
        0.3304796516895294,
        -0.3378130793571472,
        0.11155298352241516,
        0.08842280507087708,
        -0.1930428296327591,
        -0.007792768068611622,
        0.08195360749959946,
        -0.20123478770256042,
        -0.18840521574020386,
        -0.21193364262580872,
        -0.2370322048664093,
        -0.1735391467809677,
        0.057816144078969955,
        0.05593007057905197,
        0.11557786166667938,
        0.06919804960489273,
        0.17482559382915497,
        -0.18809881806373596,
        0.16875366866588593,
        -0.22797459363937378,
        -0.031024504452943802,
        0.14374957978725433,
        0.2661466598510742,
        -0.09223410487174988,
        -0.09375127404928207,
        -0.22126290202140808,
        -0.078802190721035,
        0.005856604781001806,
        -0.03599335625767708,
        -0.2407124787569046,
        0.10496331006288528,
        0.32356297969818115,
        0.15641739964485168,
        -0.39070022106170654,
        0.2963559627532959,
        0.15091578662395477,
        -0.00031314120860770345,
        0.2735864818096161,
        -0.2742815315723419,
        -0.34815216064453125,
        -0.25702881813049316,
        -0.27106353640556335,
        -0.1231885552406311,
        0.33308833837509155,
        -0.055287301540374756,
        0.28211674094200134,
        -0.23473455011844635,
        0.03127986192703247,
        -0.09799636900424957,
        -0.009278088808059692,
        0.10641345381736755,
        -0.13725803792476654,
        0.2603743076324463,
        -0.019998636096715927,
        -0.04532885178923607,
        0.14056669175624847,
        0.03128953278064728,
        0.2917521297931671,
        -0.19230856001377106,
        0.03651529923081398,
        -0.2967451512813568,
        0.09776776283979416,
        -0.17443038523197174,
        -0.11824411898851395,
        -0.026341618970036507,
        -0.07325554639101028,
        -0.10827763378620148,
        -0.33553558588027954,
        -0.10481484979391098,
        0.09681849926710129,
        -0.3676705062389374,
        -0.09998754411935806,
        0.011650468222796917,
        -0.0734611302614212,
        0.16037923097610474,
        -0.1313895434141159,
        -0.06845082342624664,
        0.1552819311618805,
        0.0046907830983400345,
        0.12411912530660629,
        -0.16218793392181396,
        -0.1284576654434204,
        -0.2709624767303467,
        -0.031087730079889297,
        -0.06670975685119629,
        0.21707239747047424,
        -0.15415041148662567,
        -0.08151457458734512,
        -0.14765529334545135,
        -0.1584167778491974,
        0.02229655534029007,
        0.14577814936637878,
        -0.24607741832733154,
        -0.2362832874059677,
        0.10984566807746887,
        -0.12074518948793411,
        0.1723833829164505,
        0.16572734713554382,
        0.11146192997694016,
        -0.0014568341430276632,
        -0.010058552026748657,
        -0.17275740206241608,
        -0.15858563780784607,
        -0.17678949236869812,
        0.11706846207380295,
        -0.08730427920818329,
        -0.09349779784679413,
        0.16367043554782867,
        -0.30031734704971313,
        0.112999327480793,
        -0.13286961615085602,
        -0.02581661380827427,
        0.0729401484131813,
        -0.07792934030294418,
        0.11443348228931427,
        -0.15210476517677307,
        0.11548872292041779,
        0.1552836298942566,
        0.22108912467956543,
        0.26438674330711365,
        -0.06957956403493881,
        0.2891496419906616,
        0.17796660959720612,
        -0.2535596191883087,
        -0.2648155391216278,
        0.1552588790655136,
        -0.01758979819715023,
        -0.11897775530815125,
        -0.19266590476036072,
        0.3136468231678009,
        0.011667675338685513,
        -0.23089228570461273,
        -0.07814960926771164,
        -0.020910069346427917,
        0.0889626145362854,
        0.26126235723495483,
        0.20654621720314026,
        0.10907738655805588,
        0.17404909431934357,
        0.06187459081411362,
        -0.2291584014892578,
        0.23171105980873108,
        -0.13131023943424225,
        -0.1708662062883377,
        -0.23568317294120789,
        0.26771843433380127,
        -0.3362194299697876,
        0.3180791437625885,
        -0.06521406024694443,
        -0.013702367432415485,
        0.20975305140018463,
        0.0908338725566864,
        0.1289760321378708,
        0.13937082886695862,
        -0.044076237827539444,
        -0.03766351565718651,
        0.006760444026440382,
        0.4600106477737427,
        -0.2583784759044647,
        -0.34354281425476074,
        -0.22397302091121674,
        0.476197212934494,
        -0.12233644723892212,
        -0.17447856068611145,
        -0.20244503021240234,
        -0.18421055376529694,
        0.02792547643184662,
        0.17653848230838776,
        0.06381218880414963,
        -0.07538945972919464,
        0.0809239074587822,
        -0.10024845600128174,
        -0.06733031570911407,
        -0.04515702277421951,
        0.12223801016807556,
        -0.057425424456596375,
        -0.178538516163826,
        -0.0955139696598053,
        -0.4388863444328308,
        0.13023348152637482,
        -0.04062731936573982,
        -0.1292012333869934,
        0.038009174168109894,
        0.022870246320962906,
        -0.048395149409770966,
        -0.1310081034898758,
        0.1346067488193512,
        -0.03403694927692413,
        0.33686721324920654,
        -0.31924718618392944,
        0.003504911670461297,
        -0.11610700190067291,
        0.14974890649318695,
        0.008387514390051365,
        -0.22815431654453278,
        0.2200888991355896,
        0.1281343400478363,
        -0.19355830550193787,
        0.11822589486837387,
        0.127341628074646,
        0.06575394421815872,
        0.19777421653270721,
        0.08489149808883667,
        -0.1742473840713501,
        -0.11663421988487244,
        -0.006334900390356779,
        0.11217636615037918,
        0.1511944979429245,
        0.2534940242767334,
        0.24511826038360596,
        0.17442989349365234,
        0.3432125151157379,
        0.1463358849287033,
        -0.32649946212768555,
        0.07250891625881195,
        0.26318109035491943,
        0.008691156283020973,
        0.033907450735569,
        -0.08012781292200089,
        -0.08481273055076599,
        0.1920156627893448,
        0.06816022098064423,
        -0.17316459119319916,
        0.18644261360168457,
        -0.19589737057685852,
        -0.20217201113700867,
        -0.06373351067304611,
        0.22883106768131256,
        0.17560355365276337,
        0.1398395150899887,
        -0.0204301904886961,
        0.035934820771217346,
        -0.09447876363992691,
        0.025512127205729485,
        0.0660235732793808,
        -0.0047353338450193405,
        0.01624116487801075,
        -0.19182173907756805,
        -0.13986137509346008,
        -0.03232504054903984,
        -0.11199430376291275,
        -0.2395915687084198,
        -0.11185634136199951,
        0.1297614723443985,
        0.06089138984680176,
        -0.030807366594672203,
        -0.07772450894117355,
        0.2014736384153366,
        0.22196295857429504,
        0.07987634092569351,
        0.12286478281021118,
        0.04838969558477402,
        0.43242648243904114,
        -0.12128345668315887,
        0.1157427728176117,
        0.004283763933926821,
        -0.003738648956641555,
        -0.15351253747940063,
        0.1140761524438858,
        0.0655064731836319,
        -0.03238408640027046,
        -0.005241820123046637,
        0.05248185992240906,
        -0.09636635333299637,
        -0.16182585060596466,
        0.014239314943552017,
        -0.3952830135822296,
        0.10965509712696075,
        -0.042485520243644714,
        0.054065119475126266,
        0.1765391081571579,
        0.03400441259145737,
        0.18518108129501343,
        -0.17435559630393982,
        -0.032593730837106705,
        -0.12109972536563873,
        -0.048814915120601654,
        0.006544162053614855,
        0.12099376320838928,
        -0.21163178980350494,
        -0.10679659247398376,
        -0.1276915967464447,
        -0.05962851271033287,
        -0.0052393595688045025,
        0.24527134001255035,
        -0.3578159511089325,
        0.22097130119800568,
        0.10887330025434494,
        0.12187427282333374,
        -0.07308800518512726,
        0.07984072715044022,
        0.1770714819431305,
        0.01658271625638008,
        0.07756337523460388,
        -0.2059715986251831,
        -0.17404882609844208,
        -0.15901169180870056,
        0.15912790596485138,
        -0.22367602586746216,
        0.206224262714386,
        -0.13363459706306458,
        0.1698482483625412,
        0.2260124385356903,
        -0.15693964064121246,
        0.045364219695329666,
        -0.12925663590431213,
        0.20480231940746307,
        -0.14935845136642456,
        0.2353096455335617,
        0.028168536722660065,
        -0.0634414479136467,
        0.21199870109558105,
        0.08489961177110672,
        0.10860107839107513,
        -0.10622699558734894,
        -0.05976271256804466,
        -0.07029033452272415,
        0.19754339754581451,
        -0.034018103033304214,
        0.07762079685926437,
        -0.02348105050623417,
        0.3437177538871765,
        -0.05250304564833641,
        -0.0974579006433487,
        0.13181103765964508,
        0.04033308103680611,
        -0.21025003492832184,
        -0.05382794141769409,
        0.11855374276638031,
        0.2045656144618988,
        0.08561570942401886,
        -0.002522786846384406,
        -0.1264856904745102,
        0.008785508573055267,
        0.05134914442896843,
        0.06119808182120323,
        -0.10757244378328323,
        0.02039126120507717,
        -0.1252874732017517,
        -0.09879660606384277,
        0.23406460881233215,
        -0.00297032343223691,
        0.10092650353908539,
        0.1871068924665451,
        0.055052902549505234,
        0.12138248980045319,
        -0.3223440647125244,
        -0.24958887696266174,
        0.03802481293678284,
        0.06837823987007141,
        -0.24175870418548584,
        -0.09001410752534866,
        -0.4045352637767792,
        -0.10185140371322632,
        -0.045267365872859955,
        0.2111853063106537,
        0.07246332615613937,
        -0.13442429900169373,
        0.026922307908535004,
        0.18733981251716614,
        0.38359007239341736,
        0.26635390520095825,
        -0.31318411231040955,
        -0.1843930333852768,
        -0.008429771289229393,
        0.13508674502372742,
        -0.2611778676509857,
        0.18199995160102844,
        -0.24765679240226746,
        -0.05993778258562088,
        0.09412331879138947,
        -0.339863657951355,
        0.1623287945985794,
        -0.19591374695301056,
        -0.15480908751487732,
        -0.09473710507154465,
        0.3648790419101715,
        0.074018694460392,
        -0.2993817925453186,
        0.10531751066446304,
        0.08973736315965652,
        -0.09025982022285461,
        0.34338638186454773,
        -0.016209052875638008,
        0.153485506772995,
        -0.23256585001945496,
        -0.06473617255687714,
        0.2564435601234436,
        -0.007516738958656788,
        -0.3273940086364746,
        -0.18478181958198547,
        -0.017658691853284836,
        -0.20302963256835938,
        -0.2737771272659302,
        -0.2888355851173401,
        -0.2423350065946579,
        -0.28523388504981995,
        0.38522082567214966,
        0.09232218563556671,
        0.11185178905725479,
        0.14410848915576935,
        -0.3375011384487152,
        0.053159382194280624,
        -0.17320263385772705,
        0.09670949727296829,
        0.18874245882034302,
        0.4105566442012787,
        -0.005821392871439457,
        -0.08444057404994965,
        -0.19940409064292908,
        -0.06679036468267441,
        -0.08434969931840897,
        -0.19743295013904572,
        -0.34900540113449097,
        0.12992097437381744,
        0.20094425976276398,
        0.18870072066783905,
        -0.03975974768400192,
        -0.11386430263519287,
        0.20416483283042908,
        -0.29927343130111694,
        0.19285769760608673,
        -0.18737395107746124,
        -0.07117217779159546,
        -0.11255352199077606,
        -0.35523584485054016,
        -0.1682380884885788,
        0.08163949102163315,
        -0.05126546323299408,
        -0.07317597419023514,
        0.11335605382919312,
        0.12659943103790283,
        -0.014546006917953491,
        -0.15447191894054413,
        0.16705197095870972,
        0.007464979309588671,
        0.027732746675610542,
        -0.23162613809108734,
        0.18396104872226715,
        -0.03651365637779236,
        0.28622716665267944,
        0.047104936093091965,
        -0.1941080540418625,
        0.3304368257522583,
        -0.06326345354318619,
        0.12526476383209229,
        -0.1749676614999771,
        -0.030190501362085342,
        0.3542967438697815,
        0.09109371900558472,
        -0.22610056400299072,
        -0.18789127469062805,
        -0.00463841063901782,
        0.18221773207187653,
        -0.09835962951183319,
        -0.23355808854103088,
        -0.06506896018981934,
        -0.1385563760995865,
        -0.1296161711215973,
        -0.041935063898563385,
        -0.07889504730701447,
        -0.034897781908512115,
        -0.05147106945514679,
        0.19025681912899017,
        -0.2568745017051697,
        -0.24904121458530426,
        -0.22972998023033142,
        0.09834545850753784,
        0.0038174346555024385,
        -0.026479572057724,
        -0.12231066823005676,
        0.09099873155355453,
        -0.14881601929664612,
        -0.03214214742183685,
        -0.18795371055603027,
        -0.2609424889087677,
        0.12018689513206482,
        -0.08950059860944748,
        -0.010752531699836254,
        -0.043107770383358,
        0.10992315411567688,
        -0.019543666392564774,
        -0.2254035770893097,
        0.035311684012413025,
        -0.01013078074902296,
        0.11536099761724472,
        0.19816717505455017,
        -0.13037677109241486,
        -0.31553688645362854,
        -0.11725202947854996,
        0.06139430031180382,
        -0.08429831266403198,
        -0.06468049436807632,
        -0.2545197904109955,
        -0.1482473760843277,
        -0.08371572196483612,
        0.08956240862607956,
        -0.3154079020023346,
        -0.016731135547161102,
        0.11967124789953232,
        -0.1192735880613327,
        -0.1211182102560997,
        -0.23126210272312164,
        0.23791085183620453,
        -0.1286383718252182,
        0.22591403126716614,
        0.038378845900297165,
        -0.11945095658302307,
        0.008296993561089039,
        0.10863660275936127,
        0.08588661253452301,
        0.016985498368740082,
        -0.21331658959388733,
        0.01944402977824211,
        0.07634474337100983,
        0.14285853505134583,
        -0.06613025069236755,
        0.1920284479856491,
        0.20017628371715546,
        -0.07250721007585526,
        0.06058713421225548,
        0.16288895905017853,
        -0.12491697818040848,
        0.15237222611904144,
        0.2687682807445526,
        -0.22657333314418793,
        0.12423375993967056,
        0.19720956683158875,
        0.09556940197944641,
        -0.26439937949180603,
        0.06457307934761047,
        -0.14051923155784607,
        0.05190114304423332,
        -0.14339837431907654,
        -0.15022338926792145,
        -0.12388814240694046,
        0.1262381225824356,
        -0.01758326031267643,
        0.1490565836429596,
        -0.2712404131889343,
        0.04953772574663162,
        -0.14738179743289948,
        0.20182469487190247,
        -0.23601657152175903,
        -0.005046481266617775,
        0.1827220469713211,
        -0.055721722543239594,
        0.17907559871673584,
        -0.08324871957302094,
        0.13264715671539307,
        -0.20528124272823334,
        0.036881767213344574,
        -0.1505964994430542,
        0.16165046393871307,
        -0.02015078440308571,
        -0.07055949419736862,
        -0.2137140929698944,
        -0.03799108415842056,
        0.2835734784603119,
        -0.12699352204799652,
        0.076296865940094,
        -0.10312467068433762,
        -0.01990046538412571,
        -0.08876290172338486,
        0.26433947682380676,
        -0.010794245637953281,
        -0.14909134805202484,
        -0.0561220608651638,
        -0.16934266686439514,
        -0.010766137391328812,
        -0.18351319432258606,
        -0.00582843367010355,
        0.1562047302722931,
        -0.1520313322544098,
        -0.05714104697108269,
        0.028989944607019424,
        -0.02899749204516411,
        0.2535558044910431,
        -0.10324718803167343,
        -0.07587874680757523,
        0.17119546234607697,
        0.09493283927440643,
        0.05642859637737274,
        -0.060938283801078796,
        -0.06779303401708603,
        0.04919113591313362,
        0.008021180517971516,
        0.22516556084156036,
        0.10098929703235626,
        0.11459355056285858,
        0.06343282759189606,
        0.04276556521654129,
        0.14839407801628113,
        -0.06482309103012085,
        -0.08535165339708328,
        0.12894047796726227,
        -0.22620339691638947,
        0.12966980040073395,
        -0.2751789391040802,
        -0.27566078305244446,
        -0.09775125980377197,
        -0.08777822554111481,
        0.11311439424753189,
        0.2686719596385956,
        -0.014036918058991432,
        -0.015305387787520885,
        0.33727481961250305,
        -0.2261953353881836,
        0.18440406024456024,
        0.1958940625190735,
        0.10951464623212814,
        -0.22152328491210938,
        -0.0626656711101532,
        0.14274831116199493,
        -0.0444987416267395,
        0.08759035170078278,
        -0.26501190662384033,
        0.018323658034205437,
        0.07899212092161179,
        -0.02643958292901516,
        -0.029892345890402794,
        -0.05224373936653137,
        -0.09167075157165527,
        -0.001506578060798347,
        0.22894129157066345,
        0.1795041561126709,
        0.019088970497250557,
        0.12208718061447144,
        -0.28819340467453003,
        0.20189450681209564,
        -0.021536268293857574,
        0.08620062470436096,
        -0.3378586769104004,
        0.12427535653114319,
        0.17631690204143524,
        -0.1517314314842224,
        -0.12942805886268616,
        0.085659921169281,
        -0.06370006501674652,
        -0.10957036167383194,
        -0.284539133310318,
        0.04611729830503464,
        0.0996524766087532,
        -0.1531388908624649,
        -0.20062382519245148,
        0.14553411304950714,
        0.11464101076126099,
        -0.044977784156799316,
        0.08209793269634247,
        0.031215576454997063,
        0.17722494900226593,
        0.0782817080616951,
        0.09527137875556946,
        0.0158257856965065,
        -0.3430940508842468,
        0.16818839311599731,
        -0.007938847877085209,
        0.21083436906337738,
        -0.06628149002790451,
        0.13304133713245392,
        0.20537465810775757,
        0.03521775081753731,
        -0.2070988565683365,
        0.05795111134648323,
        0.1817423552274704,
        0.06737581640481949,
        -0.03639078512787819,
        -0.09836746752262115,
        0.27048367261886597,
        0.2443387359380722,
        -0.051671870052814484,
        -0.25629323720932007,
        -0.08619909733533859,
        0.11263284832239151,
        -0.12788665294647217,
        0.08899528533220291,
        0.057834967970848083,
        -0.08812283724546432,
        0.24123194813728333,
        0.020673342049121857,
        -0.11628587543964386,
        0.19901743531227112,
        0.18543529510498047,
        -0.12270811945199966,
        0.0008985513122752309,
        -0.09077024459838867,
        0.1460685431957245,
        -0.08044101297855377,
        -0.07870332896709442,
        -0.3252388834953308,
        -0.1672125607728958,
        0.015053896233439445,
        -0.04372090473771095,
        0.08048306405544281,
        -0.1653643697500229,
        -0.07334134727716446,
        -0.08365210890769958,
        -0.17235368490219116,
        0.3157144784927368,
        -0.14114795625209808,
        0.1973932832479477,
        -0.06956860423088074,
        -0.005835915915668011,
        0.04055093601346016,
        -0.09278284758329391,
        -0.1400877982378006,
        0.06542377918958664,
        -0.014718789607286453,
        -0.044990986585617065,
        -0.34967121481895447,
        0.16678915917873383,
        0.05979422479867935,
        -0.17701689898967743,
        0.07922200858592987,
        -0.04185187444090843,
        0.04339355230331421,
        0.018484776839613914,
        -0.09159161895513535,
        0.12662553787231445,
        -0.022795673459768295,
        0.16492193937301636,
        0.0930224135518074,
        0.11345775425434113,
        0.01492589432746172,
        0.05438756197690964,
        -0.011368888430297375,
        -0.01600637286901474,
        -0.021851936355233192,
        -0.009440661408007145,
        0.029546160250902176,
        0.08655072748661041,
        -0.043160684406757355,
        0.02001217193901539,
        0.2584560811519623,
        -0.16076985001564026,
        -0.058821942657232285,
        -0.21745756268501282,
        0.0344056636095047,
        0.0016681611305102706,
        0.013431920669972897,
        0.048838142305612564,
        -0.09801584482192993,
        0.12412990629673004,
        0.11146103590726852,
        0.3427293598651886,
        0.19956043362617493,
        -0.12786203622817993,
        -0.058810681104660034,
        -0.001420357613824308,
        0.14727649092674255,
        0.14834481477737427,
        0.19549411535263062,
        0.06229451298713684,
        0.023422706872224808,
        0.1221393570303917,
        -0.11606893688440323,
        0.28230467438697815,
        -0.003774228971451521,
        0.0864633172750473,
        -0.01283776294440031,
        0.03872678056359291,
        -0.07639128714799881,
        -0.09200116246938705,
        0.2578961253166199,
        0.05087786540389061,
        -0.011145418509840965,
        -0.20622415840625763,
        -0.06876331567764282,
        0.08429984748363495,
        0.018482867628335953,
        -0.14667584002017975,
        0.18025948107242584,
        0.1431947499513626,
        -0.07342664897441864,
        -0.02376382052898407,
        -0.25741681456565857,
        0.11209721118211746,
        -0.3231806457042694,
        -0.09161754697561264,
        -0.0394822359085083,
        -0.13146817684173584,
        0.10608288645744324,
        -0.12950259447097778,
        -0.18144086003303528,
        -0.16015301644802094,
        0.05524474382400513,
        0.33649733662605286,
        -0.05680951103568077,
        -0.29636186361312866,
        0.036113493144512177,
        0.3344544768333435,
        -0.1474485546350479,
        -0.16603703796863556,
        0.11422296613454819,
        -0.1658458262681961,
        0.14595070481300354,
        -0.07697708904743195,
        -0.1172785758972168,
        -0.1645137369632721,
        0.2898581624031067,
        0.05603168532252312,
        -0.269321471452713,
        0.14528785645961761,
        -0.09063874930143356,
        -0.1609005630016327,
        -0.07943200320005417,
        0.3309745192527771,
        0.11001947522163391,
        0.30907294154167175,
        -0.12776274979114532,
        -0.2636110782623291,
        0.27815595269203186,
        0.07986344397068024,
        0.05991310626268387,
        -0.32075273990631104,
        0.2824895679950714,
        -0.10098663717508316,
        0.21679450571537018,
        0.04385770112276077,
        -0.011625106446444988,
        -0.00018498873396310955,
        -0.0822954773902893,
        0.2625921964645386,
        0.039329975843429565,
        0.17984172701835632,
        0.3098262548446655,
        -0.013838992454111576,
        -0.05514977499842644,
        -0.22375662624835968,
        -0.03639622777700424,
        -0.016392575576901436,
        -0.30726364254951477,
        0.1539487987756729,
        -0.07142134010791779,
        0.06989514827728271,
        0.05147416517138481,
        0.048831336200237274,
        -0.023922326043248177,
        0.10501440614461899,
        -0.08217010647058487,
        0.12980712950229645,
        -0.011497230269014835,
        0.21371324360370636,
        -0.0516241081058979,
        0.09826450049877167,
        0.1087721437215805,
        0.10212691873311996,
        -0.09297482669353485,
        -0.22010280191898346,
        -0.02098628506064415,
        0.125899538397789,
        0.027456508949398994,
        -0.21931849420070648,
        0.10095750540494919,
        -0.16734763979911804,
        -0.0913216695189476,
        -0.08625822514295578,
        -0.10702456533908844,
        0.10700376331806183,
        0.21618187427520752,
        -0.07693623751401901,
        -0.09254652261734009,
        0.26322391629219055,
        0.0213908888399601,
        0.1662353277206421,
        -0.16289359331130981,
        -0.13383474946022034,
        -0.03378308191895485,
        -0.0661659985780716,
        0.14741216599941254,
        0.26203635334968567,
        -0.09779728204011917,
        -0.2272319495677948,
        -0.2169221192598343,
        0.15907332301139832,
        0.17922420799732208,
        -0.08970309048891068,
        -0.13385197520256042,
        -0.1912955343723297,
        -0.10500065237283707,
        0.03938475623726845,
        -0.008264259435236454,
        -0.020851435139775276,
        0.2913520336151123,
        -0.23715917766094208,
        -0.0011125885648652911,
        0.08398675173521042,
        0.027037346735596657,
        -0.3089279532432556,
        0.16010043025016785,
        0.10054893791675568,
        -0.2892070710659027,
        -0.10501210391521454,
        0.24780473113059998,
        0.07748574018478394,
        0.2226976603269577,
        -0.28402605652809143,
        0.209706649184227,
        -0.15126949548721313,
        -0.10261251032352448,
        -0.11257760226726532,
        0.12501877546310425,
        0.10371288657188416,
        0.1922002136707306,
        0.35167327523231506,
        0.19653314352035522,
        0.09481795877218246,
        0.16420617699623108,
        0.14403454959392548,
        -0.06473488360643387,
        0.026376493275165558,
        0.10928955674171448,
        -0.07086560875177383,
        0.075332410633564,
        -0.2448876053094864,
        0.22938087582588196,
        0.30191758275032043,
        -0.09413271397352219,
        -0.23438864946365356,
        -0.1085292249917984,
        0.13671423494815826,
        0.005488152615725994,
        0.08155100047588348,
        -0.12407106906175613,
        0.16421201825141907,
        0.18723008036613464,
        -0.04865342006087303,
        -0.3567766845226288,
        -0.007793355267494917,
        0.11110436171293259,
        -0.2112852782011032,
        0.05945364758372307,
        0.08729128539562225,
        -0.003625615732744336,
        0.014850101433694363,
        0.17247742414474487,
        -0.1009603887796402,
        0.2518331706523895,
        0.2154516875743866,
        -0.1807658076286316,
        0.1687755137681961,
        -0.21726791560649872,
        0.260490745306015,
        -0.20992563664913177,
        -0.011281957849860191,
        -0.3074144124984741,
        0.10498974472284317,
        -0.08078429102897644,
        -0.07021631300449371,
        0.04318159446120262,
        -0.19077354669570923,
        -0.035943303257226944,
        -0.30001547932624817,
        0.009325905703008175,
        -0.01781465858221054,
        -0.25912243127822876,
        0.06205233559012413,
        -0.14989545941352844,
        0.07948891073465347,
        -0.08266862481832504,
        -0.14200009405612946,
        -0.1322268694639206,
        -0.05981867387890816,
        0.059139955788850784,
        -0.13040123879909515,
        -0.07760012149810791,
        0.19482113420963287,
        -0.02637328952550888,
        -0.18969154357910156,
        0.07295727729797363,
        -0.12922261655330658,
        0.19468238949775696,
        0.05866812542080879,
        -0.1366242617368698,
        -0.06540534645318985,
        -0.22123579680919647,
        0.106215700507164,
        0.0636792853474617,
        0.02179199829697609,
        0.05682097002863884,
        0.03360487148165703,
        -0.3262110650539398,
        0.08329600095748901,
        0.26992470026016235,
        0.25817883014678955,
        0.22232840955257416,
        -0.16872332990169525,
        -0.36733168363571167,
        0.3738674223423004,
        0.2792145907878876,
        -0.09631465375423431,
        0.558660089969635,
        -0.06376329809427261,
        0.14841672778129578,
        0.019806548953056335,
        0.22889560461044312,
        -0.10385245084762573,
        0.45292410254478455,
        0.3628964126110077,
        0.02636835165321827,
        -0.1007758304476738,
        -0.26238447427749634,
        0.2272779792547226,
        -0.11098621040582657,
        0.15583617985248566,
        -0.2451370656490326,
        -0.06773829460144043,
        -0.14520330727100372,
        0.2061338573694229,
        -0.06411516666412354,
        0.05585234984755516,
        0.48883330821990967,
        -0.232765793800354,
        0.06657492369413376,
        -0.20698899030685425,
        -0.09078741818666458,
        0.06371720880270004,
        0.09227381646633148,
        0.3184987008571625,
        0.29300132393836975,
        0.11487607657909393,
        -0.0618073008954525,
        0.15951256453990936,
        0.28844794631004333,
        0.34202083945274353,
        -0.2760079503059387,
        -0.12108922749757767,
        0.07070518285036087,
        -0.19865936040878296,
        0.2807646095752716,
        0.20382387936115265,
        -0.35749351978302,
        -0.2993273437023163,
        0.09172875434160233,
        -0.12225224822759628,
        0.34592247009277344,
        0.2900005877017975,
        -0.3759508728981018,
        0.17652510106563568,
        0.13262948393821716,
        0.20603173971176147,
        -0.26039767265319824,
        0.25876304507255554,
        -0.21904507279396057,
        0.1390335112810135,
        -0.13853831589221954,
        -0.26456892490386963,
        -0.11501602828502655,
        0.20906151831150055,
        -0.2987883388996124,
        -0.07416343688964844,
        0.024428777396678925,
        0.22809484601020813,
        -0.34419792890548706,
        0.11977749317884445,
        0.08067603409290314,
        0.1940298080444336,
        -0.49724411964416504,
        0.2236640304327011,
        -0.01800578646361828,
        0.2510368227958679,
        0.2900136411190033,
        -0.2238781452178955,
        -0.3712444305419922,
        -0.04342595860362053,
        0.3014066815376282,
        -0.4249415993690491,
        0.011727897450327873,
        0.14599108695983887,
        -0.007170593366026878,
        -0.1815330535173416,
        -0.26752620935440063,
        -0.02644549496471882,
        -0.16625772416591644,
        0.3709494173526764,
        -0.40706777572631836,
        0.08374907821416855,
        0.43308621644973755,
        -0.10227329283952713,
        0.1839299201965332,
        -0.14962850511074066,
        0.5713064074516296,
        -0.3547113835811615,
        -0.36186107993125916,
        -0.3589845895767212,
        -0.010435746982693672,
        -0.42694035172462463,
        -0.30170997977256775,
        -0.4078124463558197,
        0.09161804616451263,
        -0.2331121861934662,
        -0.20509332418441772,
        -0.13809844851493835,
        0.20918142795562744,
        -0.12199682742357254,
        -0.2029932290315628,
        0.11890498548746109,
        -0.0067044952884316444,
        0.3042697608470917,
        0.2782967686653137,
        -0.02783885784447193,
        0.10950947552919388,
        0.028317689895629883,
        0.12307509779930115,
        -0.2581898868083954,
        -0.30065450072288513,
        -0.09222632646560669,
        -0.12951740622520447,
        0.06997741013765335,
        0.05581919476389885,
        -0.04334156960248947,
        0.21367281675338745,
        0.02247973158955574,
        0.04739634320139885,
        -0.1490396410226822,
        -0.15577784180641174,
        0.037469539791345596,
        0.23110708594322205,
        -0.1848856508731842,
        0.21186792850494385,
        -0.08838753402233124,
        0.014912137761712074,
        -0.011988946236670017,
        0.06284766644239426,
        -0.0473906509578228,
        -0.11015032976865768,
        -0.03643643856048584,
        0.09865739941596985,
        0.04225870594382286,
        0.21336109936237335,
        0.04312819987535477,
        0.0019490380072966218,
        0.003779358696192503,
        0.17114712297916412,
        0.03329484537243843,
        0.04410938546061516,
        -0.0036095594987273216,
        0.031054992228746414,
        0.12091267853975296,
        0.0060596344992518425,
        0.21949975192546844,
        -0.14909705519676208,
        -0.10412834584712982,
        -0.08693486452102661,
        0.11744079738855362,
        -0.14590482413768768,
        -0.15455929934978485,
        0.1294943392276764,
        0.22847354412078857,
        -0.24699026346206665,
        -0.06210127845406532,
        0.03387528657913208,
        0.2933270335197449,
        -0.09830257296562195,
        0.15665684640407562,
        0.0840352401137352,
        -0.010275411419570446,
        -0.05260629579424858,
        -0.05867728218436241,
        -0.25146251916885376,
        -0.029788238927721977,
        -0.24353823065757751,
        0.02841874025762081,
        -0.08964937925338745,
        -0.25163042545318604,
        0.17663423717021942,
        -0.06606170535087585,
        -0.14034056663513184,
        0.1153278648853302,
        -0.16221459209918976,
        0.23689785599708557,
        -0.11752288043498993,
        -0.10047758370637894,
        0.06572829186916351,
        0.12087592482566833,
        -0.12460056692361832,
        -0.06925305724143982,
        -0.1472131907939911,
        -0.03779861703515053,
        0.17669862508773804,
        -0.09772377461194992,
        -0.10434076935052872,
        0.00010523737728362903,
        0.24571974575519562,
        0.048965975642204285,
        -0.25761154294013977,
        0.2601311206817627,
        0.012004470452666283,
        -0.061033450067043304,
        0.11046956479549408,
        -0.008810755796730518,
        0.17968665063381195,
        0.24725785851478577,
        -0.17451460659503937,
        -0.0731184184551239,
        0.21771462261676788,
        -0.18296325206756592,
        0.09220289438962936,
        -0.19970659911632538,
        0.21892188489437103,
        -0.052288029342889786,
        0.1100669875741005,
        0.010802620090544224,
        -0.18832314014434814,
        -0.03834760561585426,
        0.03245897591114044,
        0.1748516857624054,
        0.1945633739233017,
        0.17257195711135864,
        0.22396035492420197,
        -0.09353511035442352,
        0.22428777813911438,
        -0.1752890795469284,
        -0.005942876450717449,
        0.10201828926801682,
        -0.09257881343364716,
        0.09056500345468521,
        0.06040620803833008,
        0.09423396736383438,
        0.008252788335084915,
        0.003864537924528122,
        0.2014990895986557,
        -0.05373350903391838,
        -0.10726919025182724,
        0.11736362427473068,
        -0.25167545676231384,
        0.11261309683322906,
        -0.1613728404045105,
        0.1313391625881195,
        0.03880217298865318,
        0.03597954660654068,
        0.008229920640587807,
        -0.0847102701663971,
        -0.07392987608909607,
        -0.09933112561702728,
        -0.05616447702050209,
        0.17155414819717407,
        -0.052268147468566895,
        0.0396435372531414,
        0.1603509485721588,
        -0.008841773495078087,
        0.06803684681653976,
        0.0505511611700058,
        -0.22238314151763916,
        0.022762877866625786,
        0.07031330466270447,
        -0.06939724087715149,
        0.19062413275241852,
        -0.21043750643730164,
        -0.3184458613395691,
        0.06312679499387741,
        0.31802254915237427,
        0.2101752758026123,
        0.11850619316101074,
        0.0016600656090304255,
        -0.07852376997470856,
        -0.19810150563716888,
        -0.037820156663656235,
        0.0839894488453865,
        0.07174566388130188,
        0.007856124080717564,
        -0.0719483345746994,
        -0.319131076335907,
        0.035674843937158585,
        -0.02199055626988411,
        -0.19093313813209534,
        0.06746386736631393,
        -0.11503402143716812,
        -0.12759441137313843,
        -0.15664389729499817,
        -0.1184154823422432,
        -0.024181706830859184,
        0.2923910319805145,
        -0.023599429056048393,
        0.04852013289928436,
        0.08926060050725937,
        0.2680783271789551,
        -0.14289839565753937,
        0.1111437976360321,
        -0.07135257124900818,
        -0.1434822380542755,
        -0.03940152749419212,
        0.0915149673819542,
        0.1400880664587021,
        0.06089388579130173,
        0.04866688698530197,
        -0.16643349826335907,
        -0.014409013092517853,
        -0.24701018631458282,
        0.137497216463089,
        -0.2489730715751648,
        0.1110345795750618,
        -0.11538169533014297,
        0.11926483362913132,
        0.17235419154167175,
        0.10877364873886108,
        0.22325925529003143,
        -0.07019350677728653,
        0.08483250439167023,
        -0.23017117381095886,
        0.16358749568462372,
        -0.08231712132692337,
        0.3349786698818207,
        0.15867365896701813,
        -0.031312767416238785,
        -0.30771350860595703,
        -0.08862338960170746,
        0.002833561273291707,
        0.18225687742233276,
        -0.014206431806087494,
        0.3438771963119507,
        0.0629742294549942,
        0.10547352582216263,
        0.05800039693713188,
        -0.11886680871248245,
        0.10255791991949081,
        -0.17195630073547363,
        0.10876623541116714,
        -0.24837784469127655,
        -0.034008823335170746,
        -0.16077224910259247,
        -0.15170443058013916,
        -0.18894456326961517,
        0.22170111536979675,
        -0.047854069620370865,
        0.12075547873973846,
        0.023610351607203484,
        0.07914289087057114,
        -0.17815595865249634,
        -0.0024064674507826567,
        0.21990583837032318,
        -0.31491851806640625,
        0.06947208195924759,
        -0.10993868112564087,
        -0.24295176565647125,
        0.09823177754878998,
        0.0727265402674675,
        0.013984824530780315,
        -0.16688083112239838,
        -0.14460062980651855,
        0.05113442987203598,
        0.27282461524009705,
        -0.3700394928455353,
        -0.08345723152160645,
        -0.0044794268906116486,
        0.057463254779577255,
        0.008979909121990204,
        -0.1287817358970642,
        -0.10221432149410248,
        0.11494952440261841,
        -0.1823979765176773,
        -0.1799970269203186,
        -0.15232691168785095,
        0.10761398822069168,
        -0.002850795164704323,
        -0.13875047862529755,
        -0.2117520272731781,
        0.004396788310259581,
        0.018160149455070496,
        0.04614275321364403,
        -0.3013840615749359,
        -0.08769220113754272,
        -0.11055100709199905,
        0.035348229110240936,
        -0.2794031500816345,
        0.017196498811244965,
        -0.14827699959278107,
        -0.07611365616321564,
        0.06965091824531555,
        0.07274159789085388,
        -0.07224229723215103,
        0.16853800415992737,
        0.1280735582113266,
        0.25628775358200073,
        0.1683966964483261,
        0.10888613760471344,
        0.19697894155979156,
        0.07763411849737167,
        0.012137209065258503,
        -0.010852491483092308,
        -0.11626513302326202,
        0.2505780756473541,
        0.17941473424434662,
        0.0026962144766002893,
        -0.1995142549276352,
        -0.12401547282934189,
        0.20971643924713135,
        -0.01596767082810402,
        0.03718271106481552,
        -0.06474243849515915,
        0.027600938454270363,
        -0.1673816442489624,
        0.14820531010627747,
        -0.030685799196362495,
        -0.05117875337600708,
        0.40046921372413635,
        -0.14989957213401794,
        -0.0625784620642662,
        -0.044867418706417084,
        0.00541604682803154,
        -0.18808819353580475,
        0.07795839756727219,
        0.24858398735523224,
        0.054534830152988434,
        0.015165111981332302,
        -0.04810258373618126,
        0.04828587919473648,
        0.16534675657749176,
        -0.08107603341341019,
        -0.07355056703090668,
        0.020980993285775185,
        -0.042659007012844086,
        -0.02989090234041214,
        0.17109356820583344,
        0.19827401638031006,
        -0.011187802068889141,
        0.024439672008156776,
        0.33788636326789856,
        0.09511931985616684,
        0.18497632443904877,
        0.5141857266426086,
        -0.38497811555862427,
        0.09622740745544434,
        0.2745344042778015,
        0.048659153282642365,
        0.06321360170841217,
        0.09422977268695831,
        -0.2045280635356903,
        0.30443304777145386,
        -0.04692986607551575,
        -0.32922953367233276,
        0.15631015598773956,
        0.17426414787769318,
        -0.09784622490406036,
        -0.1645800769329071,
        -0.09960248321294785,
        0.09723559021949768,
        0.08760032802820206,
        0.0016326663317158818,
        -0.08191408962011337,
        0.12712571024894714,
        -0.07304637879133224,
        0.07587021589279175,
        0.0840265080332756,
        0.4372488558292389,
        0.07547397911548615,
        -0.18890880048274994,
        0.13937538862228394,
        -0.25774648785591125,
        0.27463364601135254,
        0.17433735728263855,
        -0.11363638937473297,
        0.1720333844423294,
        -0.1728345900774002,
        -0.017205484211444855,
        -0.2381957471370697,
        0.10927409678697586,
        -0.26158806681632996,
        0.08690806478261948,
        0.12418334931135178,
        0.01934412308037281,
        0.24984033405780792,
        -0.37579572200775146,
        -0.10395525395870209,
        -0.15856091678142548,
        -0.005485352594405413,
        -0.06838640570640564,
        -0.1209266260266304,
        0.09997541457414627,
        0.012338795699179173,
        -0.13170284032821655,
        0.15041698515415192,
        -0.23910944163799286,
        0.029925890266895294,
        -0.07371740788221359,
        -0.22238728404045105,
        0.0337597131729126,
        0.25724369287490845,
        -0.07353225350379944,
        -0.0918310135602951,
        -0.07338313013315201,
        0.25585514307022095,
        -0.08426979184150696,
        0.01820153370499611,
        0.11942459642887115,
        -0.037484630942344666,
        -0.010142534971237183,
        -0.2456044852733612,
        -0.07265286147594452,
        -0.05165819823741913,
        0.014982876367866993,
        -0.07410755008459091,
        0.1365901380777359,
        0.2018514722585678,
        -0.04215112701058388,
        0.09316032379865646,
        -0.05245647579431534,
        0.04828542470932007,
        0.1969268023967743,
        0.12103475630283356,
        -0.16650870442390442,
        -0.1805078089237213,
        -0.03455400839447975,
        -0.09493590891361237,
        -0.17016074061393738,
        0.032863516360521317,
        0.09204694628715515,
        -0.11729686707258224,
        -0.007337172515690327,
        -0.09145757555961609,
        -0.13239768147468567,
        -0.0879269689321518,
        0.19928474724292755,
        0.19970367848873138,
        -0.23878704011440277,
        0.133848637342453,
        -0.08884187787771225,
        0.12583938241004944,
        0.22630733251571655,
        0.3689083158969879,
        -0.09617091715335846,
        0.2232614904642105,
        0.0418148897588253,
        -0.4085276424884796,
        0.2635389268398285,
        0.11286274343729019,
        -0.005256937816739082,
        0.009019377641379833,
        0.1053541898727417,
        0.010313018225133419,
        -0.3639715015888214,
        -0.0549081526696682,
        0.0003021349257323891,
        0.1276847869157791,
        -0.20011597871780396,
        0.003844383405521512,
        -0.1528540998697281,
        0.15645550191402435,
        0.0037777142133563757,
        -0.1544455885887146,
        0.23645426332950592,
        -0.18563300371170044,
        -0.07231052964925766,
        0.11997928470373154,
        0.02703133225440979,
        -0.07206567376852036,
        -0.0026048964355140924,
        -0.14754676818847656,
        -0.23202411830425262,
        0.12735389173030853,
        -0.05681805685162544,
        -0.10192446410655975,
        -0.13537390530109406,
        0.15581126511096954,
        -0.16537126898765564,
        0.3005334138870239,
        -0.3531331419944763,
        0.26259011030197144,
        0.34840384125709534,
        0.014364087954163551,
        -0.25889861583709717,
        0.0739123523235321,
        -0.057485196739435196,
        0.16641975939273834,
        -0.17173723876476288,
        -0.04184730350971222,
        0.12034934759140015,
        0.12775439023971558,
        -0.23292729258537292,
        -0.002379154786467552,
        -0.2351018190383911,
        -0.1701284795999527,
        -0.0901293009519577,
        -0.09165658056735992,
        0.002618303755298257,
        0.34223419427871704,
        0.1802569031715393,
        -0.2524939179420471,
        -0.08570273220539093,
        0.03604910895228386,
        -0.10623903572559357,
        0.17135873436927795,
        0.052413031458854675,
        0.24701198935508728,
        0.051146168261766434,
        0.4107508361339569,
        -0.34468820691108704,
        0.09191367775201797,
        0.0860547423362732,
        -0.14504234492778778,
        0.13403849303722382,
        -0.04546765983104706,
        0.3544436991214752,
        -0.19514919817447662,
        0.10069973021745682,
        0.3480975925922394,
        -0.03858882561326027,
        0.11425270885229111,
        0.005085637792944908,
        0.006180147640407085,
        0.33540934324264526,
        0.05795174092054367,
        0.0679241493344307,
        0.03160298988223076,
        0.20986570417881012,
        -0.28718239068984985,
        0.05805668607354164,
        0.2305026352405548,
        0.009991227649152279,
        -0.1464897096157074,
        0.0024340935051441193,
        -0.028065668419003487,
        0.043404169380664825,
        -0.21818561851978302,
        0.05613527074456215,
        0.0082094082608819,
        0.24730658531188965,
        0.27179890871047974,
        0.1390206664800644,
        -0.1855269968509674,
        -0.23648324608802795,
        -0.022308673709630966,
        0.14516417682170868,
        -0.2071848213672638,
        -0.16454444825649261,
        -0.16591769456863403,
        0.1614692062139511,
        0.11901380121707916,
        -0.1830403059720993,
        -0.006528107915073633,
        0.20378533005714417,
        -0.3424365222454071,
        0.22089609503746033,
        0.16271954774856567,
        -0.07348716259002686,
        -0.2682265043258667,
        0.02273751236498356,
        -0.07898145914077759,
        0.046560999006032944,
        0.00038650957867503166,
        0.033185288310050964,
        -0.02695605903863907,
        -0.25319594144821167,
        0.21740971505641937,
        -0.14780732989311218,
        0.04750311002135277,
        0.21417900919914246,
        0.22706453502178192,
        0.06660676747560501,
        0.3061217963695526,
        -0.05725926533341408,
        0.008307010866701603,
        0.0333130843937397,
        0.04715016111731529,
        0.15850307047367096,
        -0.06840958446264267,
        -0.3532245457172394,
        -0.14088886976242065,
        -0.24070508778095245,
        0.07743017375469208,
        -0.2743939757347107,
        0.06504286080598831,
        -0.3789796531200409,
        0.1769566833972931,
        0.0399264395236969,
        0.2134624421596527,
        -0.30653125047683716,
        -0.11136750131845474,
        -0.03744686394929886,
        0.1179860457777977,
        -0.015062754042446613,
        0.08853516727685928,
        0.2590450942516327,
        0.07991690188646317,
        0.20244310796260834,
        0.0033904232550412416,
        -0.03015175275504589,
        -0.2000824213027954,
        -0.13832466304302216,
        -0.1560371071100235,
        -0.030031612142920494,
        0.3281339406967163,
        -0.21649006009101868,
        0.2839808166027069,
        -0.01759239099919796,
        0.0751408040523529,
        -0.16210100054740906,
        0.09113988280296326,
        -0.0906618982553482,
        0.13217175006866455,
        0.036106228828430176,
        -0.009711991995573044,
        -0.06823763996362686,
        0.265174001455307,
        0.00827597826719284,
        -0.1953825056552887,
        -0.20624472200870514,
        -0.0616687573492527,
        0.047774434089660645,
        -0.09598791599273682,
        0.15609882771968842,
        -0.21912021934986115,
        0.2218484878540039,
        0.33827900886535645,
        0.21273063123226166,
        0.18002864718437195,
        0.27778133749961853,
        -0.2906838059425354,
        0.1290448009967804,
        -0.056476302444934845,
        0.07789096981287003,
        -0.021649697795510292,
        0.09338705986738205,
        0.1332075446844101,
        -0.007270435336977243,
        0.22803784906864166,
        -0.1637452244758606,
        -0.17333397269248962,
        0.1553938090801239,
        -0.10326385498046875,
        -0.37606194615364075,
        -0.027311040088534355,
        0.06315833330154419,
        0.07571058720350266,
        -0.012509080581367016,
        -0.07804536074399948,
        0.14986655116081238,
        -0.027368878945708275,
        0.12255167961120605,
        -0.2390945702791214,
        0.27664756774902344,
        0.10264260321855545,
        -0.045392174273729324,
        -0.20982883870601654,
        0.29285067319869995,
        0.04186692088842392,
        -0.05891067907214165,
        -0.07852134853601456,
        -0.05514634773135185,
        0.1802317351102829,
        0.0077551305294036865,
        -0.1487138271331787,
        -0.06935040652751923,
        -0.16481220722198486,
        0.048393089324235916,
        0.1308199018239975,
        0.08901418000459671,
        -0.0006967250956222415,
        -0.12331954389810562,
        -0.14172285795211792,
        -0.2457076907157898,
        -0.02191089279949665,
        0.1666744500398636,
        0.16893650591373444,
        -0.2119150608778,
        -0.1332419216632843,
        0.2063864916563034,
        -0.008028144016861916,
        -0.10148155689239502,
        0.19828739762306213,
        0.03886153921484947,
        -0.04863966628909111,
        0.4102874994277954,
        0.030230214819312096,
        -0.10362003743648529,
        0.20807556807994843,
        0.09443707764148712,
        -0.12778082489967346,
        0.3099806308746338,
        -0.33117228746414185,
        0.3390054404735565,
        -0.1298295259475708,
        0.15685401856899261,
        -0.06609658151865005,
        -0.14448580145835876,
        -0.3410206735134125,
        0.25067946314811707,
        -0.13709259033203125,
        0.5322758555412292,
        0.15779070556163788,
        -0.1387711614370346,
        0.11131241917610168,
        -0.37263739109039307,
        0.1371217668056488,
        0.03963261470198631,
        0.26476696133613586,
        0.276910662651062,
        0.0605354905128479,
        0.10511839389801025,
        0.16137373447418213,
        0.2531195878982544,
        -0.04281367361545563,
        0.29880329966545105,
        -0.19975440204143524,
        0.2751007080078125,
        -0.03335823118686676,
        -0.09063663333654404,
        -0.06827732920646667,
        0.1554109901189804,
        -0.3072470724582672,
        0.05653474107384682,
        -0.1820301115512848,
        -0.1879674792289734,
        -0.09052322804927826,
        0.0929098129272461,
        -0.09271895885467529,
        0.11484454572200775,
        0.12862582504749298,
        0.2959647476673126,
        -0.043560970574617386,
        0.2920125722885132,
        -0.25618982315063477,
        0.19654114544391632,
        -0.1679159253835678,
        0.07235140353441238,
        -0.4443976879119873,
        0.3890584409236908,
        -0.29393306374549866,
        -0.2988069951534271,
        -0.24023574590682983,
        0.1599561721086502,
        -0.28067541122436523,
        0.048511359840631485,
        -0.13830019533634186,
        0.08496534079313278,
        -0.0950389876961708,
        0.18873904645442963,
        -0.16673129796981812,
        -0.23986531794071198,
        0.2675200402736664,
        -0.27459725737571716,
        -0.2783431112766266,
        -0.16284093260765076,
        0.0455952063202858,
        -0.1551518738269806,
        0.16125383973121643,
        0.21490073204040527,
        -0.10544560849666595,
        -0.17434412240982056,
        -0.006911394186317921,
        -0.27867233753204346,
        -0.24275048077106476,
        0.0785810649394989,
        -0.1736139953136444,
        0.2348756045103073,
        0.0988282635807991,
        0.0496082678437233,
        0.17581817507743835,
        0.24212463200092316,
        0.08204330503940582,
        -0.08672390878200531,
        -0.26702624559402466,
        0.02776113711297512,
        -0.2857452929019928,
        -0.244940847158432,
        -0.41036316752433777,
        -0.12358640879392624,
        0.12406547367572784,
        -0.1407165676355362,
        -0.1756284236907959,
        0.07976346462965012,
        0.20146512985229492,
        -0.27359282970428467,
        -0.16040050983428955,
        0.2647448778152466,
        0.22670389711856842,
        0.6171368956565857,
        -0.20267347991466522,
        -0.13246861100196838,
        0.4411395788192749,
        0.18548494577407837,
        0.4029962718486786,
        -0.04896661639213562,
        -0.19753706455230713,
        -0.07455303519964218,
        -0.07597561925649643,
        -0.10023141652345657,
        0.05075879767537117,
        -0.1812766045331955,
        0.05267755314707756,
        -0.09965067356824875,
        -0.06617778539657593,
        -0.005469402763992548,
        0.09613160789012909,
        -0.07197815179824829,
        -0.11090906709432602,
        0.18708407878875732,
        -0.027578528970479965,
        0.07657887041568756,
        0.12992922961711884,
        -0.10563737154006958,
        -0.03907792270183563,
        -0.0804666206240654,
        0.22171509265899658,
        0.0775224044919014,
        -0.036122918128967285,
        -0.3084832429885864,
        -0.0640704557299614,
        0.250276654958725,
        0.206717386841774,
        -0.09416867047548294,
        -0.2241102159023285,
        -0.19050152599811554,
        -0.03082944080233574,
        0.05429705232381821,
        -0.02629905380308628,
        -0.07679041475057602,
        0.22128862142562866,
        -0.028091030195355415,
        0.08885764330625534,
        -0.04868290200829506,
        0.2859926223754883,
        -0.0509629063308239,
        0.21624208986759186,
        0.20414169132709503,
        -0.3256298005580902,
        0.08643252402544022,
        -0.07496196031570435,
        0.2468739002943039,
        -0.07977624237537384,
        -0.30313432216644287,
        0.13619808852672577,
        0.027269691228866577,
        0.03577735647559166,
        -0.23354601860046387,
        -0.008615155704319477,
        -0.09312604367733002,
        0.0027848337776958942,
        0.23429648578166962,
        0.15330766141414642,
        0.07057132571935654,
        -0.026779796928167343,
        0.12155882269144058,
        -0.1560056358575821,
        0.12218345701694489,
        0.03662858158349991,
        -0.013429316692054272,
        0.015694521367549896,
        -0.11860601603984833,
        0.23633746802806854,
        0.1581893414258957,
        -0.2963424623012543,
        -0.03814401850104332,
        0.015813665464520454,
        0.20495162904262543,
        -0.021358782425522804,
        0.037282545119524,
        -0.08870896697044373,
        0.05238143727183342,
        0.16127343475818634,
        0.14706668257713318,
        -0.16420002281665802,
        0.10626764595508575,
        0.32244396209716797,
        -0.15833576023578644,
        0.18125155568122864,
        0.19427382946014404,
        0.036358438432216644,
        -0.06645020097494125,
        -0.06185692548751831,
        -0.0600246787071228,
        0.11783895641565323,
        0.2044641673564911,
        -0.1005440279841423,
        -0.07597663253545761,
        -0.10766227543354034,
        0.26549941301345825,
        -0.2238643616437912,
        -0.0885765552520752,
        -0.15077660977840424,
        -0.14824599027633667,
        -0.041805051267147064,
        0.099880650639534,
        0.22375433146953583,
        -0.14534632861614227,
        -0.13080884516239166,
        -0.14305150508880615,
        -0.1660102903842926,
        -0.22685758769512177,
        -0.09087412804365158,
        0.2773073613643646,
        -0.08327038586139679,
        0.07379438728094101,
        -0.045736901462078094,
        -0.001977380597963929,
        0.15796512365341187,
        0.00632386514917016,
        -0.07240567356348038,
        -0.04053478688001633,
        0.17551933228969574,
        0.09645035862922668,
        -0.03806573897600174,
        -0.184288889169693,
        0.0870121493935585,
        -0.01789896748960018,
        -0.10362318903207779,
        -0.049839649349451065,
        0.04920398071408272,
        0.20555764436721802,
        0.007453933358192444,
        0.2584749162197113,
        -0.10741686075925827,
        0.2205631285905838,
        0.06510414928197861,
        0.06803476065397263,
        -0.10959268361330032,
        -0.029925139620900154,
        0.005912745371460915,
        0.017236504703760147,
        -0.027209172025322914,
        -0.31286564469337463,
        -0.01965876668691635,
        0.14901228249073029,
        0.03689802438020706,
        -0.08683554828166962,
        0.07719296962022781,
        -0.18512722849845886,
        -0.1611492931842804,
        0.0646466389298439,
        0.04636353626847267,
        0.09557012468576431,
        0.09901159256696701,
        0.00965768750756979,
        0.05362054705619812,
        -0.03670294210314751,
        -0.006062773987650871,
        -0.1377497762441635,
        0.177320197224617,
        -0.20494064688682556,
        -0.13532565534114838,
        -0.13272467255592346,
        -0.26788055896759033,
        -0.1063322201371193,
        -0.014842769131064415,
        -0.05823889374732971,
        -0.18784742057323456,
        0.03203782066702843,
        -0.06432007253170013,
        -0.1182689294219017,
        0.09265979379415512,
        0.05630527436733246,
        -0.019365409389138222,
        0.04313976317644119,
        -0.1448901742696762,
        -0.01312168873846531,
        -0.046000342816114426,
        0.17109210789203644,
        -0.04132173955440521,
        -0.1085766926407814,
        -0.05593462660908699,
        0.1999656707048416,
        0.056784432381391525,
        -0.01883380115032196,
        0.17696624994277954,
        0.01752164587378502,
        -0.09625713527202606,
        0.09486663341522217,
        0.08920684456825256,
        -0.0008355706231668591,
        0.05710956081748009,
        -0.04706723242998123,
        0.15517066419124603,
        0.10478678345680237,
        0.1749894917011261,
        0.20697198808193207,
        -0.14211851358413696,
        -0.07719454914331436,
        -0.16676190495491028,
        0.23484309017658234,
        -0.10145009309053421,
        0.3172282576560974,
        -0.12126721441745758,
        0.09278374165296555,
        -0.3053286075592041,
        -0.2432132065296173,
        -0.06996442377567291,
        0.03493071347475052,
        -0.11484280228614807,
        0.19349610805511475,
        -0.07409846037626266,
        -0.07936492562294006,
        -0.008320655673742294,
        0.023507246747612953,
        0.016971172764897346,
        -0.25794270634651184,
        0.10199066251516342,
        -0.09980721026659012,
        -0.22519586980342865,
        -0.15367045998573303,
        0.028163300827145576,
        0.014052378945052624,
        -0.030747821554541588,
        0.06280269473791122,
        -0.05112994834780693,
        0.19003859162330627,
        0.045707397162914276,
        -0.06690787523984909,
        -0.11920660734176636,
        0.14954236149787903,
        -0.06356064975261688,
        0.19813786447048187,
        -0.09824368357658386,
        -0.18855619430541992,
        0.003131914185360074,
        -0.04131476208567619,
        -0.07016319036483765,
        -0.2410949021577835,
        -0.06457868963479996,
        0.19609983265399933,
        0.0512784905731678,
        -0.1457039713859558,
        0.061309777200222015,
        -0.14307959377765656,
        0.18909308314323425,
        -0.10103805363178253,
        -0.14587950706481934,
        -0.10711951553821564,
        0.24407470226287842,
        -0.10560166835784912,
        -0.21405772864818573,
        -0.04008994624018669,
        0.08875621110200882,
        0.12225046008825302,
        -0.05569848045706749,
        0.12188941240310669,
        0.075505830347538,
        -0.14357545971870422,
        0.30219566822052,
        0.03399109095335007,
        -0.1382245421409607,
        -0.12522348761558533,
        0.06824866682291031,
        -0.10727503150701523,
        0.085105299949646,
        -0.14082485437393188,
        -0.10708720982074738,
        -0.11081541329622269,
        -0.025414710864424706,
        -0.0730537623167038,
        0.1436963826417923,
        -0.0927836075425148,
        -0.27261897921562195,
        0.03465978801250458,
        -0.170575812458992,
        0.25315308570861816,
        -0.15214113891124725,
        0.002851488534361124,
        -0.03387162461876869,
        -0.07525774091482162,
        -0.05816415324807167,
        -0.06427320837974548,
        0.07756181806325912,
        -0.16571980714797974,
        -0.10792170464992523,
        0.23347263038158417,
        0.26051878929138184,
        -0.21534942090511322,
        -0.18694458901882172,
        -0.1952192187309265,
        -0.13258910179138184,
        -0.10639635473489761,
        0.006476977374404669,
        -0.004610335920006037,
        -0.07406500726938248,
        -0.03978496789932251,
        0.12672199308872223,
        -0.0026183302979916334,
        0.1507796198129654,
        -0.15850403904914856,
        0.15269191563129425,
        0.09723920375108719,
        -0.3506026566028595,
        -0.19253459572792053,
        0.23342448472976685,
        0.209800124168396,
        -0.08796285092830658,
        -0.2236694097518921,
        -0.06747215986251831,
        0.03163541480898857,
        -0.15476468205451965,
        -0.09011439979076385,
        -0.11557675898075104,
        0.0766037181019783,
        0.35445767641067505,
        0.1821317970752716,
        0.13636769354343414,
        -0.004523742478340864,
        0.1867530792951584,
        0.026916833594441414,
        0.02745083160698414,
        -0.024456508457660675,
        0.14423584938049316,
        0.08097675442695618,
        -0.021334310993552208,
        -0.36088261008262634,
        0.09095516800880432,
        0.047255754470825195,
        -0.10879915952682495,
        -0.12772811949253082,
        0.28536492586135864,
        0.2239828258752823,
        -0.07517321407794952,
        0.21273013949394226,
        -0.034016553312540054,
        0.16025441884994507,
        0.18342521786689758,
        -0.05118303373456001,
        -0.1672644168138504,
        -0.024386407807469368,
        0.24126684665679932,
        -0.2954733073711395,
        0.051424115896224976,
        -0.038249578326940536,
        0.20003274083137512,
        -0.05480406805872917,
        0.19041486084461212,
        -0.3149188458919525,
        0.09827151894569397,
        0.22182713449001312,
        -0.07834623754024506,
        -0.08599323779344559,
        -0.017124822363257408,
        0.49988481402397156,
        -0.030038349330425262,
        -0.048630814999341965,
        -0.24101771414279938,
        -0.08939416706562042,
        -0.11400976777076721,
        0.019514037296175957,
        -0.012404846958816051,
        -0.17153018712997437,
        -0.09420483559370041,
        -0.011606359854340553,
        -0.361873060464859,
        0.02932913601398468,
        -0.04582991078495979,
        0.21728704869747162,
        -0.09575960785150528,
        0.19193808734416962,
        -0.029151635244488716,
        -0.12933506071567535,
        0.04863565042614937,
        -0.15571750700473785,
        -0.08758803457021713,
        0.1451037973165512,
        0.17681613564491272,
        0.07841619849205017,
        -0.13859638571739197,
        -0.18723416328430176,
        0.0985291451215744,
        -0.01821274869143963,
        0.16472189128398895,
        -0.12248893082141876,
        0.07847858220338821,
        0.13756194710731506,
        -0.01553897000849247,
        0.3502454459667206,
        0.02426355518400669,
        0.09002652764320374,
        0.16925255954265594,
        0.23368802666664124,
        -0.17307297885417938,
        0.03516894578933716,
        0.18665075302124023,
        0.13706305623054504,
        -0.03992621600627899,
        -0.20692788064479828,
        -0.32601305842399597,
        0.31758278608322144,
        0.07690002024173737,
        -0.1718006730079651,
        0.1452598124742508,
        -0.3431166708469391,
        -0.14811323583126068,
        0.14340178668498993,
        0.07292453199625015,
        0.12769715487957,
        0.13711704313755035,
        -0.2013712078332901,
        0.10162649303674698,
        0.32994309067726135,
        0.270772784948349,
        -0.09375500679016113,
        0.024037180468440056,
        -0.012777294032275677,
        0.26435014605522156,
        -0.15852758288383484,
        0.17745119333267212,
        0.029120272025465965,
        -0.10404922068119049,
        0.1758737862110138,
        -0.21690115332603455,
        0.3050914704799652,
        -0.14452892541885376,
        -0.05273635312914848,
        -0.05516199767589569,
        0.37005937099456787,
        0.04847022518515587,
        -0.10173414647579193,
        0.30802467465400696,
        0.3469701409339905,
        0.010764889419078827,
        0.10542132705450058,
        -0.16709192097187042,
        -0.08145426213741302,
        -0.2092122882604599,
        0.31093984842300415,
        0.18544362485408783,
        -0.07895290106534958,
        0.0017553087091073394,
        -0.08285751193761826,
        -0.009942320175468922,
        -0.34135234355926514,
        -0.22725044190883636,
        -0.18413230776786804,
        -0.3464602530002594,
        0.011680863797664642,
        0.3475184440612793,
        0.220833882689476,
        0.016521932557225227,
        0.08663375675678253,
        -0.15305383503437042,
        0.1717778891324997,
        -0.300985723733902,
        0.09754716604948044,
        0.005655537359416485,
        0.48333239555358887,
        0.009609503671526909,
        -0.004488293081521988,
        -0.2790714204311371,
        -0.166399285197258,
        0.08029811084270477,
        -0.20966483652591705,
        -0.2977266013622284,
        0.1268697828054428,
        0.14885671436786652,
        0.19815611839294434,
        0.0021924239117652178,
        0.09857359528541565,
        0.04718788340687752,
        -0.4105115532875061,
        0.22713787853717804,
        -0.18898561596870422,
        -0.049807336181402206,
        0.09628012031316757,
        -0.14654633402824402,
        -0.42423757910728455,
        0.3143869638442993,
        -0.02945033088326454,
        0.119712233543396,
        0.01207057572901249,
        0.23206016421318054,
        -0.13716812431812286,
        0.010199974291026592,
        0.2693493962287903,
        -0.2337697446346283,
        0.30384013056755066,
        -0.1667441725730896,
        0.14608097076416016,
        0.17173832654953003,
        0.31235072016716003,
        0.13776293396949768,
        -0.07602757960557938,
        0.19407211244106293,
        0.11748941242694855,
        0.17229796946048737,
        -0.05684185028076172,
        -0.07900595664978027,
        0.27794191241264343,
        0.16306963562965393,
        -0.002192485611885786,
        -0.21064822375774384,
        0.032682884484529495,
        0.33260491490364075,
        -0.06985795497894287,
        -0.1289120316505432,
        -0.009392342530190945,
        -0.0780959203839302,
        0.21283866465091705,
        -0.23895947635173798,
        -0.10604251176118851,
        0.24121399223804474,
        0.04245809465646744,
        0.06666375696659088,
        -0.2798779010772705,
        -0.09737107157707214,
        0.017245221883058548,
        -0.021499352529644966,
        0.18769271671772003,
        -0.03870329260826111,
        0.0576251856982708,
        0.16021157801151276,
        -0.018883081153035164,
        0.13464145362377167,
        -0.07872185856103897,
        -0.0644526481628418,
        0.1224038302898407,
        0.09574730694293976,
        -0.14546674489974976,
        -0.12696987390518188,
        -0.26098063588142395,
        -0.17186838388442993,
        0.00621012644842267,
        0.16202455759048462,
        0.11042613536119461,
        -0.14537084102630615,
        -0.20116227865219116,
        0.18923737108707428,
        0.250806987285614,
        0.16633427143096924,
        -0.22499363124370575,
        0.0171209629625082,
        -0.04779938980937004,
        0.16684064269065857,
        0.08086259663105011,
        0.15248353779315948,
        -0.10686107724905014,
        -0.20243515074253082,
        0.017061369493603706,
        -0.14837640523910522,
        0.22797244787216187,
        -0.007759552448987961,
        -0.09624407440423965,
        -0.1527150720357895,
        0.2261657565832138,
        0.06371849775314331,
        -0.08042166382074356,
        0.14285990595817566,
        0.17668020725250244,
        -0.1197727844119072,
        0.10979270935058594,
        -0.08885946869850159,
        0.04805018752813339,
        -0.10286397486925125,
        0.02053377404808998,
        0.16140241920948029,
        0.14604587852954865,
        -0.21879826486110687,
        -0.10480573028326035,
        -0.08594141155481339,
        -0.04458201304078102,
        -0.2877024710178375,
        -0.01201009750366211,
        -0.2227504998445511,
        -0.14609529078006744,
        0.2747699022293091,
        0.22530648112297058,
        -0.25656336545944214,
        -0.08125053346157074,
        -0.1224822849035263,
        0.22327446937561035,
        -0.025331173092126846,
        -0.19170433282852173,
        0.21476224064826965,
        0.2353614866733551,
        -0.03590468317270279,
        -0.11752807348966599,
